function [Y,Xf,Af] = A3brokefunc(X,~,~)
%MYNEURALNETWORKFUNCTION neural network simulation function.
%
% Auto-generated by MATLAB, 01-Jul-2021 16:23:47.
%
% [Y] = myNeuralNetworkFunction(X,~,~) takes these arguments:
%
%   X = 1xTS cell, 1 inputs over TS timesteps
%   Each X{1,ts} = Qx18 matrix, input #1 at timestep ts.
%
% and returns:
%   Y = 1xTS cell of 1 outputs over TS timesteps.
%   Each Y{1,ts} = Qx2 matrix, output #1 at timestep ts.
%
% where Q is number of samples (or series) and TS is the number of timesteps.

%#ok<*RPMT0>

% ===== NEURAL NETWORK CONSTANTS =====

% Input 1
x1_step1.xoffset = [754;806;839;846.000000000005;885;878;754;806;839;856.999999999984;885.000000000001;878;754.000000000001;779;832.000000000002;846.999999999989;880.000000000042;878];
x1_step1.gain = [0.015748031496063;0.0338983050847454;0.0384615384615386;0.0327868852459065;0.0487804878048822;0.0408163265306122;0.0159999999999999;0.0338983050847454;0.0384615384615386;0.0399999999999908;0.0487804878048828;0.0408163265306121;0.0152452316924961;0.00819672131147541;0.0338983050847471;0.0289464879004302;0.0392156862745297;0.0350298739838538];
x1_step1.ymin = -1;

% Layer 1
b1 = [-1.3784545390320777081;-2.4816331646983491588;-0.8654753280170387475;-1.1897698097561981712;-2.4017027075080146226;0.78741387312300925583;1.4206564931827012632;1.5811911218974434856;2.2096080026565294574;-2.0080921279419152725;-2.571089259088751966;-0.0062958748482838423899;1.3643724980249738454;1.3395013012458032442;0.917018248532363911;0.78724880188798662672;-1.5439739127783738137;-1.1039469995422230841;-0.59282823779351812021;2.1203224372113051999;0.98743130920697741448;1.5126960824416282314;-1.5613735884241959351;-0.65786789251801969236;2.6133666925341962894;-0.58148765208961727957;0.66811872034845054547;1.8678890235350982252;0.90597965217430864726;-0.77189836601502315183;1.1205884084804613732;5.0372211196445251247;1.3989835924416829105;0.96969852579440762863;1.0342272411027706447;-0.60653372357526191827;-0.6952840187508880776;0.89029102524842818056;0.95655256008494538023;-0.95919751523897067713;-1.2735926432871949032;0.97391011516784331548;0.71014930065277814819;-1.468799524747844254;1.2714133900827404577;0.21518051788731037965;1.2299268040194775153;-2.8872003854972949632;0.66088468852822768174;-1.0665841216533167302;1.8376312517997761553;-0.36804563459098799116;1.0534196128380612922;-0.10859521531114903203;0.37009676193506496622;-2.2991776629766782492;0.2081851142190793702;0.094809742422264059458;-0.8795550470364165152;-1.5168274343707199847;-0.8523990621595853856;-1.8303986020517808431;-0.7342637530759323905;0.25584527839390003301;-1.0144363638978639575;-3.833772822742957942;1.3733381020944956941;0.25736181453350392978;-1.3772067439401709521;0.90469946249975896624;0.25810785783779122138;-1.024394286582500424;-2.4762728169184566873;-3.0770632745411066189;-0.26692150234328537728;0.39887905765740738762;1.2385113070542972391;0.0068551607739537785691;-1.232967576983722946;1.4987086563369969028;-1.1580711083287658081;-2.1187014813603752827;2.2618980031726438895;3.0113114767394186799;-0.94254217932449391171;-0.0035980630595897344914;0.83630331781109512601;-1.210778947271833994;-2.3946436752804749482;-0.35343567635430117591;-3.1854333808208075141;1.4672664561096684377;2.2639929923423824931;-0.93352565917267349427;1.1665078835205595631;2.7748813989238634292;-1.7741857523594466439;0.34577165625709976871;1.7108100485087902598;-2.9812647269297061214];
IW1_1 = [1.4092781915227139411 0.353292028499412325 0.34401129549371933791 0.66197049171414101831 0.65716523467845466833 0.097289586133866262641 0.081159981437904663015 -1.1167070585869018906 0.077791890129268306819 1.9179168635121510711 0.44742061052133130783 -2.3977605792966909526 0.63187462515338643776 -0.28108330450897645036 -0.69221536860501231558 -0.49733845116210156911 -0.85510789967647049536 1.0631701894726233171;-0.75074096609633489408 2.4312697397880036476 3.4336676931703413729 -0.82126742309147149346 2.5974972577147892316 1.5752725568806611456 -1.1149661715300613896 -2.0596340622370585827 -2.5360664518680025026 -1.5357103029339540523 -2.5621116767707983186 0.73607767935106116486 0.93192247053466492623 -1.4269518864614254561 -0.27354307524020482489 0.022365716014253592125 -0.11189701803616809717 -3.7460595129631335531;0.90056754269761651877 -1.3587890483431535049 -2.0234343159668459755 0.34474348391827974725 0.29650333653038207782 0.57663970664883101858 0.48623098067456926863 0.070197387501470767668 -0.47085678303882527729 1.1840609257586014458 -0.92633432050830322169 -0.025874966429390314215 0.48405115273812032717 1.1379242324223173277 -0.14482962123255574416 -1.5110018610789843763 -1.1548047455281691409 0.28343294616872971581;0.10443935269222644202 -0.23243294450079199365 0.90146085859517643968 0.82872601977602289303 1.5080996168521541012 0.83323473578980911114 0.56167955974777572514 0.412808183534004558 -2.9149955162634202388 0.96410255327103022704 2.7171661541461027412 -2.5667630112486423677 -0.64756144423586192715 -1.5943483326895702135 1.1516339605541348057 -2.0350709269777840227 -5.3336690180667618577 2.3652641190865630882;0.52203289432190880248 2.7429263506926293559 1.2442650380995949888 -0.89083289288906164494 -0.38914646047383849581 1.9827404979378213667 1.7358819239776703824 -0.42753435635736697362 0.78441481572532889555 1.5672904736297617045 2.1350627980923060356 0.70773856720672423393 4.6644962377303151868 1.926369136846093344 -1.4444116360890870698 -1.4151600202827741004 2.3485346733347860493 -0.13508785501067727131;-2.8565544195681242812 0.98558536374043670403 -0.11269720297792507058 0.81524488788884852397 1.7821868674430596524 2.2754506786427142195 3.2546714773796980857 -0.47738281771449936342 -1.1076439985292680923 0.78188091086956512665 -0.097456135317393555173 -2.0186288677439203632 -0.46929645371766626205 0.9284136669745114423 -0.36633996516134964549 -1.1638175323368431524 -0.91077889276843626565 0.20677215434157775187;0.39830755439630044501 1.2433054582640972185 -0.69579034077610679709 -1.4773588794227869858 -1.7693264823334728941 2.7916615610460340235 -0.96355627444974745188 -1.8795787624606796751 0.75669647255308536415 -0.089413127704375983118 -1.2152813586600428319 0.78143203091611335154 0.39183260378333334417 -0.1602491103469177447 0.78187619063382907125 0.91164059452151302576 0.25551672029222821658 -0.64150296679233009822;-2.3905203884527055358 -0.57834546156511779103 0.63997320145564007277 0.92500787304345966078 0.035143856182069832528 -2.3061592606943266404 -2.3975918746615874078 0.91131492842841055335 -0.80732077051670148027 2.2180674674395004509 0.9311116738920017788 -1.2143450391789625264 0.14824581382482310277 -0.75942632514928010146 0.12893975631273590921 1.275049165983367816 -1.6017631948654966756 -0.96548608512209777022;-0.3111953063106202011 -0.66757800963799984739 -1.3381719764017152574 -1.7989623243784160778 1.0317629695044230331 -2.9593785887361510056 -0.39851685298313843653 -2.5669071245694201622 -0.68693143323516980825 -2.1899418486068125134 -0.64654673390065342531 1.3490248907088480124 -2.2130651820757152315 -3.1147508974917430535 -1.4179764088624751128 -0.12899452278846246234 0.99802106604740215001 0.73309130468301297867;-1.3721603712929815178 1.4155442971938310137 -2.1647957844514529313 -1.4609323424244335943 2.3789747848027111843 -3.0659883797940903349 -2.4409523442979055297 -0.14500249144952126468 -0.09291037512761440853 1.8610104886571543492 1.3526334808323037251 -0.70867026940552702019 2.3185772434718789903 1.9781970208259069821 -0.47333406918092907345 -1.1510831178222662441 0.79123203932699370799 -1.0220994925829172129;1.96187255209555933 -1.1532848097485071115 1.0889948583339492671 -1.2752883289532346289 -0.72768186614108232302 1.1893453996036265075 0.19169117903076926535 1.761180046738082261 -1.3955785629370336398 -0.12126099300380811796 -0.28049505996684798159 0.94370800070031835016 0.25034257557380878989 -1.5267031518156048975 -1.3238572481247832258 4.9204839877710231377 0.39779385370168057756 -0.51598432574067554235;0.46553980626370217166 1.5305717566654037931 -1.6515877964411500578 -0.065014365573423715805 -1.0737359724735520139 2.9615091945671885298 -1.1175262031052137779 -2.9403691298414731392 -0.3195023452972250988 0.27049500120312380824 1.9895556879161317987 -4.5234590354886492491 1.1942376190074701636 0.12588291702243087355 0.16140021014070837779 0.073741866407257342098 -1.737794101861343643 -0.33987314775426902269;-0.72670479407458010712 -0.29638700641934434543 -0.55095029363914449494 -0.56932534322160344153 0.11623981865252511203 -2.1559493156553788396 -1.4365247588470271278 1.0996432709850907372 1.6758542424355169498 0.14659940838526064333 -0.11125188832928953331 1.0949966814402636306 1.1288936590874849575 -0.1781645569235734694 0.15590148556896143983 -1.8562218477690142215 0.11023831066065926942 1.2788255937037138477;1.593096236585000991 0.17848983348964259088 0.071987565882543153029 -2.020715361790291098 -0.52990145384464204525 0.39870726908814324574 -0.65645789937618259646 0.96253242015070705762 0.026871331684750872359 4.6152205924409583915 -0.73372772075091263755 1.8755585103726606366 0.13037157496007734103 0.16694057015660018761 -1.6699438367210830414 -1.423706318178117769 2.6138165975622289494 -0.61689670036467170178;1.6705701039181308776 -2.5986581284838567996 1.1729174514564586485 1.1736331762962703973 1.2311940138912449427 -1.599738470269796764 1.3752746133188473721 -0.94529176713482387928 -0.83475524745483564715 2.105917962049889347 0.15382895030797874569 1.0409430288811369891 -1.3052944888374191645 4.3853919449779201756 -0.88427352902069511487 -1.5834269950958868023 0.33318249264172494772 2.1513534827088505175;-2.783308641839872255 2.8426195253191330892 0.71668383956634895693 -0.17240555046043543053 -0.79701795264950359154 -1.2048857222722233473 1.0902510024272409339 0.24862982546904166536 -1.1328192868000594995 1.1210608416103498008 1.8371512746254616832 2.4148301212836718044 2.7280039281914767457 -0.87003971468769736308 -0.91582702262818349581 -1.7924084685635051084 -1.6881680865019483839 2.0332569379926352937;-0.058557955515206691621 -0.37661622033146796573 -0.51938764783829194371 1.4199022003685040083 -0.61255740421233106918 -0.31975954698009850796 -0.86153079154855416455 0.66070609108387379216 -0.81330613316338584706 -0.43631503607691890512 0.7041988279149150598 0.0063245800489169570757 -1.1208415741398536358 -0.59211686333212343314 -0.39618142261940758608 -2.1814616080041138169 -0.61219516013866581705 -1.0304083900769820392;0.44897356911407598767 -1.6379142433016671276 -2.9720844208862318148 0.36441453098128290256 1.2048667375300488036 -0.31330045231474240586 0.052319100872932622348 0.49300881550701530776 0.053047106715043639003 -0.75230167328735220167 1.1162177024505102185 -1.7406678770479491192 -1.2249880373807842115 1.0409624360989884195 -0.032815525797059805213 -0.28086603476215710185 -0.40230854308495567206 -1.6952098929028716068;1.2574970128541529402 0.53975302606280495255 0.12293233350004456605 -1.6153654378435648997 1.6061349484156721701 1.5716646000192875388 -0.27539856576186377835 1.3763505692879558495 -0.2480266496088082695 -1.923550555129917905 1.2689045012129349654 1.0281960038855786355 -0.024201895334059586595 -0.60112575629487396967 -0.50585521563437996218 1.6325034851971846894 0.63392061647798225721 -2.010503522560969536;-1.5056099639925033529 -0.55135785331335440684 -3.5143279926944579472 -0.29658979573280624953 2.1911440687543453087 2.9084922575146805457 -0.71456085272466196567 1.3335685858650114799 6.8226780928532164694 -0.21050346331041513981 -1.2089874193649978729 -2.355868226758239814 2.7079844294498922608 0.82570575865499296064 -2.306059295982884727 0.34145367041639901329 -1.5055454239694556762 -1.3938818354902868801;0.44311151714240470945 1.6899528749214685064 -0.4760777320364580345 0.37942864742739423889 0.12249245355534699176 0.95868029246210140215 -1.5620656521998721455 -1.1776413019368632273 0.67696206799561231549 2.681257125148062137 1.5220345147208016456 0.99236850838972967548 0.095765591582955750249 -1.7084873190640208485 -1.0296352475977348373 1.8982511891169702167 2.3289887503196164964 -1.6555955674976148284;-1.1514812500714528554 -0.58710798645010287 1.0323385116387853166 -6.8392445869096398781 -3.339751121288776492 3.9595104131162432992 0.27062345537971382869 1.1972368789293934555 -1.0316188605343605822 1.7828905580838203537 1.7510807945104971406 -9.3616528262643505798 1.6366942762109366605 -1.3281145419854876177 -0.70121733515784656632 6.8530317480874423097 2.1164380629637684628 5.7113920069143349068;2.7065033004908713998 0.053374701803611299122 -0.67491181016917589641 0.4338779648892962526 0.64250394328021998014 -1.8778485066059029673 1.7112927972067288884 0.22822077407256935455 0.71469136964423007896 0.6275012865341028645 0.4282581031673415306 -1.5649182483162042967 -0.92215830480373339739 0.54426346905094524775 -0.79493349740979690754 -0.63234432325512968109 1.4830738366673794637 1.6785652395901993206;1.2964282710050523129 -1.3201615994262889675 1.147231836570990593 -0.66727755770253338596 0.93083789357876300929 -1.7770218982978036593 0.046329581411482689823 1.6910824029050146589 -0.046028342275340999867 1.4508395881062203792 -0.73970744035143431994 -1.5727844034763787118 0.43222716707264668967 -1.6552232737310244026 0.053930984711208738991 0.1283054817363582234 0.25396476368059267559 -0.70103559380941526946;-0.99632823441639006834 -0.038539843085318936655 0.84381531946343135697 0.50614987330899186002 -0.13708598779401878764 -1.0605980328942692381 0.72919343344780063187 0.514204013512996716 -1.5671377997664628356 2.4071907219272135059 1.0786831848767308717 0.32077966608316832442 0.072485637948101061534 -0.63191096770422028328 -0.067070164828391828915 0.95192541271865094288 0.26924544780076453687 -3.1555134546555683173;0.87823791964586017667 -0.35129930488735983118 0.8826527088357465356 0.99666412067132115205 2.3682216536006466256 2.3174102643966967285 -0.080383704668255562265 0.63252873793240460554 -0.5241840678535657494 -1.2678863793561543361 1.0386235463633397558 -2.1125100132043730383 -1.4638047303626362527 -1.2851395262081992676 -1.3991053409773319682 0.43183465979798230094 -4.7662920811642441876 -0.45071832172603065736;1.8603751053252297609 1.5693534690483070815 0.26020880014146757775 -0.2854160641104094287 -1.1732688192977369646 -0.082102656993787395678 1.3625421993539168497 -2.1739036042473021126 1.3123404622044736456 -0.5362115105118657743 0.27337154295380006186 -0.17476223075207733548 -1.7625395348953520891 -0.69348354900640107878 -2.3010136013848470071 0.684005500617429818 0.47767423836817413108 -1.2760789809198991307;-0.86166433634633388117 0.86328644360817019532 0.29863278780864288553 -0.8805251941719155484 0.69175694585044877893 -2.7507596952082709052 0.33943518219754126308 1.4893834533925054409 2.7884326727626778109 0.42016007120181408929 2.1968818334340096676 0.35367558534799070635 1.2870551907867737729 -1.0709702705310149007 0.52051504325593045408 0.031962091834276618041 0.75009839263846678215 2.3687786233714329676;-0.31834245017823797896 0.23020566543247783509 1.220759935013439712 1.2904978150633541478 -0.91480285357631496712 -6.5539910568509842648 -0.31625815024399966946 -0.067989985505526831511 -2.2633868745950742607 -2.089040033263567242 1.8399252930770693126 6.3608600659929850352 0.24226429545487476735 -0.25623182375762593166 0.29751030657791383005 0.311697949557667775 -1.4338978979869607677 0.74265243838444350288;-2.1722980275677779005 -1.2203265547676265257 -0.054796966679104885944 -1.1511178333312723776 -2.8361764311973494124 1.1020291644654807151 0.42237497771669102464 2.9200573792740849299 -0.97905272104913920739 0.39799994783677095089 1.3718569247575294057 1.0619092301151002999 1.2141108389289463343 -1.6566711153871396256 -0.29776521021666690903 -0.97234185055958322064 0.091210916095752353483 -0.00191755141478169161;0.11526014198655111509 0.73657664275818213184 -1.1173357517896391755 1.0539925863207471046 -1.0391407090951474412 -0.6784609106393569844 1.2145795073331577818 -0.64277216370191625483 1.4894877250502400745 -1.0278681694753055709 -1.8516389600190523712 0.25454022058230540981 -1.7744083819606579766 -1.986343344504076569 0.3820452793620401355 -1.8044365160300692708 0.13358322816634793373 -2.3814103260597283551;2.1221821977838217776 1.6153738604738290263 1.0747382124314763807 -1.5821498040964188103 -2.479954498594156842 -0.73355349095565669515 -0.035504452011325765559 -6.1112026372210275227 0.74235011194317601646 1.7182786340719804485 1.0346303191789529841 1.0573034939072933902 -2.0214715808246550566 12.190646488957671778 -1.9634496857848708906 0.23579030949387203009 2.1212880793754367303 -1.3893686145173640423;-0.49275850346763361287 0.57273144492336969247 -1.3797560959330219532 -1.60687914624584538 -2.6776150864263086326 -2.1500400611140855212 -5.5356293968566676611 -1.5994448071314373294 1.8503040213125803159 -1.3065645006156068053 0.23778348689181774689 2.0382875257634127664 6.9423478700164524824 -3.6869358944272652145 0.25130320432736119596 3.9436421813403415015 -0.51243901599876962027 0.21558432771921920423;0.26162442568449773006 -0.078780356168676526907 1.2678779632958592227 -0.92329510189496510897 1.4304077410558651007 2.7664109040897360003 0.21123726716818849725 -0.79350437634507975382 1.5048161007022615721 0.67936827048899806059 -1.5628992152658534032 -0.63342895397264686874 -0.76623186469710058422 3.381212197845907319 -1.5036650406856382212 0.22949520537511172713 -0.13429153561452197851 -2.9726756363450221876;-2.2066169251803682272 -0.32053904519542675278 -2.0569000858301191847 -1.397073074920971214 0.75913085487426956721 0.39562579381332085848 -2.6794031840801593169 1.4339910496623429204 2.2151393152153535659 0.20606175197457873849 -1.3398441949780222071 -0.74390911057249187177 1.6210727205616208835 -0.63950341596415360979 -0.42531634293200681896 -1.6394092132625430747 0.81434539155432161817 -1.1130072864857054604;0.048007082290748091802 0.15532583629598722963 -1.8547255188983435836 -1.1159693047716718883 -0.66837844669988855095 -2.4801563473630774403 -1.1945668625455208023 -0.58303209083328000339 3.4074433039989155958 0.69587048613426127908 -0.20512332810580755083 0.62858966542407224143 0.97597329412361555345 0.87509049886301160104 -0.9573900027068998897 -0.26748775582322903421 0.85811144621440937907 0.92275480102724893872;1.2033768986531945266 -0.23695020467135408104 -0.51182242759110718744 4.0063127405057930019 -0.039658969148117562131 3.4959732505417311366 0.55691625476413664231 0.090487532864944042466 -0.48247431657087258561 -3.4350932237809570502 -1.9987358120068279277 2.4933477854230154946 -1.7876665195970462552 1.787740748660080925 1.6298501645679439598 -3.3075416159751265255 1.2466515540324432099 -6.1410363167532819872;-1.8871143424478005191 -1.406680052670928216 0.47331508257609811174 -1.5152331952050011044 -0.3621235472491544094 -2.6241888778099067281 1.858382123267751096 1.3865734467516765971 -0.27884228232088642541 0.42100809589259363674 1.4429600604825352228 -2.7380469850127422404 0.64487844466972210622 -2.2439331947466771844 -0.38571533665689672343 0.30851277589008502256 -1.7776609425532601261 6.4299805931992350949;-2.5138548804091813693 -0.19533664126065342082 -0.40315433878120449096 4.1044853788486088675 0.01307617955521522303 0.3390986026160638378 -1.1979644892608933837 0.52706838929805654992 2.380072282941950057 -2.6313125245349553438 0.46147720255718388538 2.8407922022948506324 3.3764572844726616907 0.25429409800469660041 -1.929808057222537343 -2.0899781715604781596 0.55209083115779000739 -3.5735019154142233511;-1.9105504758329157067 0.38452300997603289234 -0.63348459982077398589 -0.48506559360578604956 -0.22882133276936789112 -0.13204627979420363593 2.1620131176133137174 0.068023137507024794557 0.24003376286092831249 2.1418197413138901908 1.2135315880863197791 -0.86837447619216945327 -1.9609337716949906127 -0.45323581839214210909 -0.92298151480324719387 -0.50762207109105539349 1.1771425222547469147 1.7003519032035674385;-1.6317864279324247878 -0.72710771896733406017 -1.7020345981128068846 -1.0491236439821238768 -1.1190058744572983773 0.1397949464993863411 0.67339599940280425727 0.002582488427150586574 1.0687755467497559447 5.4661505299186670115 -0.5922554031464327684 1.0945065888836515988 0.53001656770253968709 0.82374657872454293273 0.18847684558516120124 -2.7198568283196027373 -0.17431656550328339383 -0.21576668429321957388;-1.4290419548958295248 -1.0573744395179274225 0.37517638505147743455 -1.0145542680113750489 -1.2281479503175078971 2.1749701589553085412 -1.1855798126359471389 -0.44192517811635095848 -2.4641967993512352564 -1.2209052315956407941 -1.2318617753585805463 -0.77363663667327386975 -0.042255824104911819672 3.0260929440755064412 0.18754035308122249393 2.6665676026831639511 -0.13418261190371988389 -2.5300831194527377832;2.6614419204016952492 -0.43842963281780045204 -2.5594275791603831038 0.081979894117299306755 1.0081463307100664295 -0.81788328230203366509 -1.8268645257243545377 -1.3844594816252311364 2.1263464519010608633 1.4025757234165006082 -0.024099872418830815129 0.20771699008784103024 -3.5608070305534758049 1.031057533392477632 1.5241526546449877255 -2.9833721391292487013 -0.37073044981611513737 -1.4609804572812199464;-0.51375374406519169757 2.316564963086161999 -0.06092481324021419703 -0.62803889377010646555 -0.68632766779941334345 -0.73812732819254145422 3.0474209961247065159 -3.0850945737200019536 0.20118057705240843802 -1.6781785849644461628 2.4585359347652895323 -0.3792349996992405714 -1.8208533301486571343 -1.9193650160842388175 0.92343323223681517131 2.784303350703093205 -0.90013372762146548478 0.95568371203795421387;-0.75621229164537184797 -1.1541318428997981993 0.98700697199649101155 -6.3320681464144472628 3.3540612821513988706 2.574251942438625651 1.6351658611663639764 0.57436962583356243606 0.70206731213982842554 5.4506388800471690104 -4.1203320353452923541 -2.9371380738158316959 -0.67303574298576207546 -0.038315588727432042804 -0.84727599995120772558 2.4508347026347498954 0.085153568802563486817 0.31244184089309656738;1.7254199724108685299 0.09991300697202491754 -0.028493266665286232087 0.48024674513233656103 0.6929086526143909408 2.7926260670117586393 0.58272495380430833212 0.035681388258980678563 -0.53372883892597622335 -0.36843130623582875938 0.079151222305486282349 -2.2278494179137151576 -2.2803030430704160914 0.26954757298615789063 0.037094917655776500631 1.103015966511851742 -0.43210032180175506067 -1.0635787699792871308;1.6663969843963435391 1.0550864776095041364 -1.8262091956665333914 -0.30011424613919024385 0.86837764788212279399 -2.9967270679726256688 -0.33372833976428351033 -2.0477962718112232565 3.1372534969888619116 -0.33641734047738125479 -0.12805544270128155215 0.75750100447362933576 0.37532276612337894806 0.75821685572619257343 1.2958732735221802912 1.0432155661529241009 1.3660100039466023247 -0.27519690469314872505;0.44442989886285222401 3.515855996767117464 -1.170163566607091532 -0.093702253538985036396 -1.1887985252269621661 2.2555926636664738183 0.35679002127543679723 -1.4378431845727757121 -0.98545744177961469568 1.3788946165652813391 1.3682254270380231898 -0.82402958899087108691 1.0559298294013439445 -0.76832538549711415499 3.3088746214663768974 1.7037258465042068867 -1.0803196047632119825 2.7837838008746258467;-3.4663770007059273581 -10.352544482455998676 -2.1626974567046217679 0.2384562647020207482 0.43406201884402179081 1.5666790653310584958 2.7671461424418644093 11.729356119187542618 0.99292751297089010265 -1.6215711851739922356 -0.52074976393947602915 -1.7447740343697262233 1.3676178288101932257 -0.2104489863014497586 1.8214035379054773767 1.6464547778746527751 -1.2236178442621421514 0.5794360194347309978;0.18136568497981844783 -0.24060402594593119363 -0.26859917246870035346 5.3675591173789420907 1.2745352157056830666 -5.4683920652241315707 0.55941501248086134002 0.099412831532080775387 -0.27174528084593368993 -7.801260897146287121 0.94526396794414491165 6.2088737834071006105 -1.6709148697788247517 1.628749767210966759 0.1972667429440240483 1.7860453277146146611 -3.0574330864725989265 0.26159037141395302672;-2.2750157376959454503 -0.66211328634652866221 -0.7242255047419468017 1.4150633443205009598 1.7336844079304905009 -0.08026382048138402947 -0.78977113526098097207 0.64159851004520696005 4.3775425405177355032 -5.9310153450764921956 0.24400930831184033942 0.49666881009127816782 1.5943812300727218112 1.9222620522579270119 -1.8911689741172943435 4.0549404372840909261 -2.3969737377726327843 -0.24851201304271824943;-0.1144685119162855147 -0.12955038972596499836 -2.8928248357357966292 0.92452341426812878478 0.0145269013854754242 1.364379783429881865 1.944170766698117836 1.0849362287792021498 0.2880659094113197094 -0.25371577479449924919 -2.3648950939708033303 -0.89443728139668521315 0.41732724331184678501 1.0157233876154223573 0.65415785617987276535 0.052768650491478844011 -0.81043694286397005566 2.2301421779538168622;3.0419999583415862077 -3.8363290393433788772 0.58008705763996271099 -0.086713552516386641078 0.29012640793069693901 0.64738931241572328368 -0.032090080794902657579 2.0014404314081519765 -0.38708202435154576149 -2.5993063637248692288 -0.88322015874795445356 0.18320967009914210233 -2.482989462662261726 -0.65475480762137139301 -0.90779865840950835221 0.96559759428154867678 -2.1833469570492156642 1.0674875960282321774;0.33958918005490101866 0.82174098024264208284 0.96015275006718181494 -1.7909255342093246544 -0.64434363721518950197 -0.71177784222192019836 -0.09154275155311514256 -1.1363275319204531044 -2.8333559278908495571 1.8422354888242200577 -1.564368907794925212 -1.4848739735497644698 0.23055760235355590715 -1.6865846182222854477 1.5958529270246428755 2.3415803580387466454 3.9911168099823250976 1.3788884751205772172;0.65382107792397559098 1.1812609475877422494 -0.81208622322776613522 -1.0178061909243767413 0.26542887693702554852 -0.70407678709352594648 2.602498773316859193 -0.57038219525718869551 0.81015136624403916166 1.2575369652947443466 1.6466582701568821534 -0.68841500198389415921 -3.0331656977972381029 0.82879382559528758101 0.75404494675573008333 0.15619799674949602641 -1.0391954777225074213 -0.087055289791175952119;0.1431813478350633384 0.07049416623375306945 -1.5357890396116022913 0.12224951539805845036 0.94299527058159970938 0.64169129962843451942 0.037645267533943697902 0.84734199172804081091 1.8766503740635060993 1.0595806269322329829 0.4435845249876142482 1.6364507969706341139 -1.6944430902604437073 0.13949215966061692673 2.8454136996311243379 -0.30199030501840146146 -0.4176494127051494365 -1.5791555112671531447;0.7164170655968847834 0.3063024735378290786 -0.99340618171541938963 -6.0801525622482692768 2.4911633381299878032 -0.24663745015251486992 -0.65649028262626574204 -0.025216180579606728429 1.0594956315292940463 6.1929857978932512097 -0.42287884361609195949 6.3328711957578676106 0.11436340137659395388 -1.131915518815573396 0.060255066989809175082 0.0078637918262192789409 -3.0190375060882974623 -7.6357673363682811996;5.3253593291523966258 2.6384791479659575053 5.5352635793861209024 -0.77754573573263452424 0.51136770539941123204 1.5679717277052325208 3.0599195329004933441 -6.103546048977865901 -9.2831617326209112662 1.414183899461888938 -1.2399588455953536315 0.57638547395934236484 -12.171235959053619879 6.8442853150754237035 2.1819232654897118273 0.12786611349811383143 -0.46023572694795544802 -2.7170234703398032927;-0.43073746351352421025 -3.2908308753743598096 1.4318634093072213354 1.6497762641350499635 1.5784543762209732876 0.37110465605030029668 -1.468431427349961238 1.5151719239602481348 -1.2783311560161068066 0.792312823777120534 -0.68601577878470720862 -0.22378940814221348621 -1.3291394294995948488 2.934020282134035984 -0.6410294788325683335 -0.93728489575529894129 -2.0412819984944925444 -0.83505632849120814409;1.5127633878223545327 -0.062596901380996772257 0.38958945616704321324 -0.040342326088001576045 -1.7920448529158901074 -1.6393245985442910229 -1.2552321750758206331 0.95463795229685366461 -0.25466205110857259575 0.34591368630120356009 1.4832012835699615039 7.3312385160301349885 -0.94500041343730822874 -1.2774486184203754924 -0.88129164801644255256 -0.7029827671884657514 -0.53235778761663676839 -6.7148994642283437173;-0.59707407088902597625 1.5939113439184535714 -1.5879354879412022061 -0.82167998058903890524 0.21319764876011945698 1.5266022604643227911 -0.52080030338914495847 -0.80923160024468576701 -0.59492459113833362494 0.50343271113845167175 1.1162848915563541308 1.6626229910605534457 1.5006073229973213579 -1.1047157493455608268 1.9159984125376090525 0.010898385370638512953 0.86897613356032610277 -0.2918555128180642666;0.30563403486370932516 -1.4366846872218279607 -0.25588276634173823254 -1.2925436325519530367 0.96015371540937188843 0.37609452842205337575 -0.29521048376522712742 1.2705030379198700707 0.48755184267156087552 1.938156442549828995 1.6929682046437677378 -0.82488065051597647681 1.6584332614307166764 1.8160553413071947038 0.45639349503253706652 1.6469516946716982186 1.1969939593156306845 1.924060421673571275;0.56034069480779191696 0.43714557448708096787 0.27988437942973581896 1.4595160240466837909 -0.67479513339011021333 -1.6292208164985857444 0.42764498015877200343 -0.70026575337463836668 -1.3504147703473483588 5.1287533957140558627 2.4545568811591604863 -0.1049531918082442089 0.18832937753407413828 -1.4975372495223817637 0.21836228764576248729 -7.8067407152099157486 -2.1187782315337351235 2.4707728307866276829;2.0418573631735741358 2.0828185301247326144 -0.33137504015990165707 1.0799685100661846615 -0.2305818964424212747 0.037331068447054534254 0.58600495111020423078 -1.4563176772319639252 1.2897789486254296332 -0.74090948790252675327 1.8483698227495206634 0.45798751867488685097 -2.4368408002208004071 0.88043650289023200894 0.61816698779602763381 0.29266751349643588265 -1.1332904529749006084 -2.5574409597561555962;0.1369434083624373466 -0.53505885242359341181 1.5739828700371734094 1.2212415510848502187 -0.91080687660796144645 1.0767792983560047215 1.1715003579378724385 0.67064198430981480925 -0.62579629464288677454 0.19661598692208362427 0.38330359795973034664 2.6998018874570068881 -0.77423695843501560976 -0.20746842063792592104 -0.9483231466032927548 -1.3853364229665152685 -0.41472505136393095215 -2.4500526770556376732;-0.51936007301668540848 3.9776569294730901305 -0.44064346964099398996 -0.50203079158746422017 -1.5667701426169808876 2.3947824657224505707 -3.9516648474530451374 -5.9829510803020840015 0.15451431600912102216 -0.69838980398561412155 -1.3461752330034024716 -0.45846841638529167717 0.21210192195239804813 0.33351776523273873876 -1.1569944350869119098 -0.27421486129675182175 2.9045229863623580613 -0.25995870072374094306;0.37073331645806240076 1.6624565805104793981 0.59779713771017761736 -1.8493215141532683976 0.35532198671533421486 -0.22550183154735364832 -0.24442837301848718834 0.14715867397724213816 -0.58089517279888491785 0.29988973814089897596 -0.56059585636970188371 -0.7938325042245013563 1.1879827761469952119 0.10548801139087438106 1.3846554496881910978 0.19486553365880884825 -0.99069372308256509196 1.8914895287757464981;-0.91181422059827987869 -3.0116753482075759862 1.487926555021462427 1.2913344236334023396 -1.6061624106935445955 0.19482753177473166595 -0.74385695846518451457 0.67438234323764767453 0.50199524819910967821 -0.83780001427317374318 0.54908868077841554989 -0.33160200059151589969 2.7068027195283641539 0.59805736759654704038 -1.0517430984036979513 -0.33014923241960236755 -0.11341881439958301225 0.79345169245408164738;-0.26149537663906330387 0.41171075881746921343 1.0122492221230587894 -1.7205485827110136299 -1.6955664477177705418 -1.5073141162224592549 -1.4640120998032339905 0.2329982100183828897 -0.59845038702159247812 1.1723306273996592086 1.3944300540024443524 1.2969998067727910307 0.85475357819453012809 0.19041986091784932067 -0.10475285440478855625 0.93245900584921592724 1.6512960385032375843 1.2584192939369740483;-0.60807740951853217481 -0.82235530931690292711 -0.56674108254161315035 -1.95265107812001526 0.41411792434848704314 -0.99423551267896825845 2.0746119048277105179 0.46892815881114091603 0.16925579713883001642 0.24454556485115672149 -1.5829089140784842193 0.82015337562982304487 -0.62030415461400711941 -0.12851184068083901235 0.42637927175590795148 -1.0000232200494030277 1.2209198618195429287 -0.063399802397958962552;-0.02187003359154695778 -0.13446755961209977404 0.63671449922886624861 -0.0054462857699084481211 1.5620062740702322923 0.39294901617434530028 1.6711926980524818287 1.8605210246764090076 -2.6558005597289477961 -1.4037300609119394146 -0.30762053559957225346 0.52791717856748499038 -0.4923433516491660944 3.083116498815729134 0.13320730913875911128 -1.5280467821639078796 -1.9219617393638679381 0.93367124226709330426;-0.15733794897100472632 -0.11715093680854672675 0.10275884085055411732 -1.4861502503756716109 -3.5532010794075734594 -0.83852346003608924097 -1.6293116630755122287 0.26256099484619277451 0.48564579471247742992 -2.4969441580755917798 -0.049111250349956982186 2.0328653792596753647 -1.592872858083304255 -0.31892595235809068077 0.35417611119556108301 2.8770050686669281781 -0.40002109754901116201 -3.5920261552723893317;1.1587672653002829559 0.210981566469138071 1.7745103087409352938 -3.4828793122274430694 2.1520382842218443997 1.9859244291050404119 -0.47208476635278212585 -0.38785781106637784443 -2.3755120356735175413 -1.23695045984512908 -3.2479530024723484161 1.2616015231142077013 -1.0815465813078311008 -0.11866320729741486328 0.3454854975581193588 7.0420253135472359318 0.55033152892052028538 -4.8526042310935180168;1.5045421492525508089 -1.8328746184335229508 0.16576334904995404518 1.4648457044424307849 1.9513746543630807739 2.2849551269805323805 -0.35818205972398553527 3.3258072403065166434 0.25354755731829048404 0.15794027544862748735 -0.63997233666477160163 0.36432132732175820378 -2.5758775715953121654 -3.5406683417977693473 -0.68879688089355828318 -1.7961717687683100841 -0.92798112509242569601 -1.588305065388993853;0.14141097887935433208 1.1091601369911636699 0.2767650003950745119 0.95734273436631189824 2.1075406563471466015 -2.8203166474805887454 -0.46693692177121021158 -1.0681995907757542152 0.29975612105169308075 -0.40164837744113879303 0.27005908886068374919 1.6034188967763456368 0.62592167767250472821 -0.34386285082318268636 -1.0572633267673257063 -0.82627125861707662047 -2.8476094266740568095 1.5230340076826975881;0.25527086046483360438 -0.30731169279587755572 -0.38711696943293150142 -1.5793281516596280323 -0.63787590930275683831 0.1215299055993638716 -0.089453516818670961164 2.057070927108107572 1.0375402445194681356 0.80603985242505449271 -1.115179065629753774 -0.0071472457833903109414 0.70835075071424580262 0.44614635556743154066 0.69149133442141053063 0.33173818023710627267 2.5854365451981276003 -1.8806817733084431055;2.5887566549230038859 0.5015967246892996112 -2.041648965028555196 -0.85352149694089896048 1.6649844736241425913 1.8834821056637469638 -0.321288789914125128 -0.94551576063031661512 3.7695948780023083025 1.0854986476895946979 -1.8219278773712299646 -1.3505390225034512586 -2.0948848831122588443 2.994800899072717737 -0.45201739729965334513 0.91979883636968196026 0.45390270645452457376 -1.9641966856601467128;-1.1933599117273190338 1.0380543876854819718 -1.970814847024413563 0.76609274490484513542 -2.9996383047216612638 0.26481803159553579663 -0.63761793456362836352 -1.6057611455289455549 -1.2792808997154423434 -0.52853124279844965194 -3.5179948624977699367 0.30627241031603336108 4.6369250475498526853 1.8570923046148606339 0.45969875886665262366 0.41284270760063362937 -0.029222007562285087778 1.5076768920221346182;-2.3798651680196405422 -1.4095080410250284686 0.67465217841698410517 0.14337959335981864673 2.3537230186743340887 -1.107189903359158567 0.71154637205417525792 1.8742070888606923162 -3.1167318763110878344 1.7157574033110090106 0.84867882169559560879 -3.9107768660057740107 -0.42112677480737042979 0.47193357080127695813 -1.466780561190142107 -2.6296237822540793339 -0.50187413287511839499 0.62251685604731665791;0.68941033137919283114 2.5265109439471213904 0.39665604067387250087 -0.20587719280415767154 -0.16415412567344148109 -0.6788987488558554384 -2.0690391540699262229 -2.7468715223627442334 -1.6116937637839547914 0.96191236258500811829 -0.52158743053963829706 0.8111574877605658429 1.3281578176930293189 1.721782992353352526 1.0606273913246164753 -1.0672347758203610812 0.66970273743053942983 -1.2025111271735144935;-2.3210593207625778156 1.122289865688276933 0.85806936631011354599 0.1632578913703323642 0.96748819441629452243 -0.27170793712977048262 -1.3521621690862366538 -1.4172451764352682613 -0.67303279297932294689 0.27483976702548174043 -1.9268760884378086651 1.5657675936320030186 2.9219859843174220693 0.066274398276618365355 -0.084615599049817927235 -0.89577937908684990287 0.27594766337328979766 0.49189367544448830971;1.012242603775848071 -0.63835450751180855544 -0.45436008947319411755 -1.3151220945272945606 -1.0980047791671974089 -0.55524588136915864478 -0.77615782006739708621 1.126600599584573148 1.8194322509274463151 -0.73539207023959363152 0.65184372483813612931 -0.76516215165494994022 -0.94295567804717039806 -2.0438101551240945852 -0.26311432491125252842 1.3331691002812950941 -0.83354314298675580286 -0.45475531082788922532;3.9980226906170805989 0.19102928257395684897 -1.8189128937980592049 -1.4193165060244909981 -1.5221059718426863672 -4.6835989986390336171 -2.5505940588575639616 0.36944511850946676335 0.75587495641116608791 -3.691786622381092009 0.43006510418197213541 0.80739452152995738743 -0.65482372936498478566 -4.9171103832110167886 -0.6321866067073361739 4.8826306970067081537 -0.79360291115027781217 2.2769945051228339672;2.5025434858702730878 1.9770374684771085949 2.4759888744783298264 -0.26851723911281177859 -4.1992968103317123152 -4.4789246418507131509 0.45824914124749543953 -4.0108014227819035469 -0.2423201926666030126 2.323782720470894958 3.0178402085756088624 3.6479973509744154647 -2.7057670879044652956 2.413053564240773774 -3.1195380824006204712 -3.8503387720178237075 2.7010959392395172962 1.4584773907778456614;-0.6515247630654040778 -1.1917595782655441283 -0.16837394042903872093 -0.83013008968912072039 -1.8033275159680806077 -2.257764269200401408 1.9146853840368802668 0.48643430287102723542 0.14026247729660326624 1.3377035808034589692 1.9970936757915911386 0.27520505490271901516 -2.649592857411660507 -0.29885976442346406934 -0.66392068432991857563 0.42365347140697112716 0.44010372091959265584 3.7764263427215145619;1.4111331853825892502 -0.079733567903543106636 1.3382613112378696218 -1.2379717524979858556 0.78354765488912681004 1.7393411321164597982 -1.1071978408561857776 -0.36645429576823357332 -0.99778969710059650655 1.0455227875663173354 -0.85707354836526516983 -2.3318882062248316167 -0.59949994335706036086 0.1309956771498720085 0.82722074861615380037 0.33225015772018107185 -0.30649821566516910476 -0.15383956321463623795;0.4336916313293341374 0.093659181680235986667 -1.7098452988042818212 0.19208926269119899755 1.9950788898378735148 0.16941776387197909903 -2.209075275826308804 -1.5624674589657303603 0.55080997164891665197 -1.1551631612793782367 -2.1745684574209485085 -1.0736411776519301231 1.6840278397666152976 1.3778944792845564393 1.4976063821166196721 0.9474680687485571573 -0.29089013893334547678 0.89026764280080172842;-0.7751385900055400846 0.70284423588584854503 -0.53915426378921826878 -0.045334039933847256054 -0.68683685072628952728 -0.90744885784725981548 -1.670391195044188315 -0.79841040162638965416 0.86664613698022141541 -0.93641073774420613418 -0.40586376784612304691 1.3729695180958989553 2.0697473507176851193 -0.52203355835469378299 0.20587310745816453372 0.71336153231273313757 1.3948519098745548739 -0.31083652246443371769;0.13411561041920294635 -0.54104461941942572079 -0.43991326897489280157 0.79963965825264515797 -0.79009131996663783948 0.50857838109559716511 -0.46282124330029839054 0.14811200024974660594 -0.66066605642693487788 0.53711885938599546186 -1.4935030216188860397 0.29468612165088758914 -0.38154934103091658892 1.304827089463451717 0.12448478905994786459 -1.2229585398269062768 -1.4639364297228329992 -0.51163603848722205569;-0.87440808006377779282 -1.8421692104520335231 -2.467514848830111962 1.1858532060242403805 -0.8171560933877710653 -2.7956694518504789926 3.3777737923807102938 -0.028068432096052413349 1.5902345325322297942 0.12503700545976159653 2.8294103205702700876 0.34135892059618927474 -1.4423185323452567541 0.29380126671223855128 0.1873497728814157437 -2.2479148120926084609 1.3810387921253179933 0.11351645589993104857;-0.030108802772517647556 0.50349842242484599275 -1.6767049380012055693 0.33769846040538681331 0.52338561741077571643 1.3655344909846158785 -0.79981947575935485872 -1.2712566017176303301 1.148123178992551674 0.056156738837982236867 0.4269778813768922987 1.5806772347903321752 -0.24711459000516730611 -0.4030389059100386584 -0.46489659381019987627 1.3309044698434673304 -0.90972853083602200908 -2.7532854952754606259;0.53259098778690538989 -0.23811264456974726156 -1.4475446687294031278 1.8493983759651040355 1.2107823586912487279 0.63794856387211340554 -0.5303872559986732016 0.035915836338975229425 1.152447294815854395 0.28258754510277755978 0.016522050984126221418 -2.2973530857935511307 0.4054329924536883567 0.32570956482668489418 0.14509593052741370789 0.47150814546531494287 -1.8383872141793455857 2.1546778983786851747;-2.4627374423929193625 3.4353850945871604594 -0.8993085846287646179 1.060868161794325859 4.0835312191559163253 0.98442743142012645308 1.5936899853151409445 -3.1699931364627702557 -0.36745274678109146604 -1.7768302316572834876 -0.92597321081687389288 -3.3689269108949342346 2.0431042627340696427 1.4073056995104478162 1.7595229376293215484 0.35355331572277054475 -3.5515640707168896206 0.1468425687258845258;-2.6375130229494185841 -0.62170452323499070246 0.91092285108728621168 1.4853158781463657867 1.759496880055620105 1.6730971790538120558 2.8616031781327286865 0.77706599196022485554 -0.61059787067723925169 0.14058829110561843478 -1.5725871708927512405 -0.84683898584912575824 0.050234000505685362514 -1.6881202667993924216 -1.0290819598683951241 -1.5013877015889911526 -0.80024306526998123523 -0.59836641520406019801;0.50399940550193012001 -3.6312727252747558637 0.36815455448401573912 1.152074497927654928 -1.3301904810869222828 -1.8869736630648197284 1.0114160556927271895 1.8973281445413310298 0.62590129946279871032 2.8709114978373153626 0.81035789631761734331 0.029449628553080635374 -0.82213814509922733542 1.1601173796187294052 -0.0071580744057829241364 1.9934931547702219312 1.4435764019309189621 -0.52418554645242421142;-1.7563679865572070504 -0.52252042226698769412 -1.7154171097012835823 -0.081071202700824476772 2.3910548476127369 2.7330129990165130671 -0.20354725141405641264 1.375912616459966209 4.0515534372220507464 0.10614306409802173881 -1.1898225274888682979 -3.1102556727876726761 2.7144002440458283587 0.40370637470074838271 -2.2066918238248995898 0.21856376898559146116 -1.7652296194465744161 -0.10130690063108493959;2.8978484010751084377 -2.8390894606671857048 1.0226956347917766088 0.080220118231731141201 -2.8265989208182302761 -0.97052924789627736946 -1.9196533925500933737 3.4614626783455491044 -0.54602660768663136004 -3.3230496328453669186 0.34402633614647959437 0.75266624438273521669 -1.7817628101831886056 -1.0160018817144853553 1.6994096346926030883 4.2204524728240118137 4.1162309190376404899 0.72263195433651972177;1.8309313547274879141 0.60703235831047852589 1.4500111143808394054 -1.9486363265119079902 -1.9339004632832295094 -2.6957086357775992269 -1.5873163667078216132 0.37985381714826343957 0.094035557357437349335 -0.5547416136594709446 1.035975631436628186 2.367089242962408413 -0.54427999599238152673 -0.837075534162985746 -1.1561826686866487623 0.70915395444466378105 -0.1538256405992985687 0.72685527257109217025;1.2134728402099537181 -1.1446468572841472788 0.29110671469104731912 1.1257114545747808343 0.29289206934392347792 -0.57014344194381871844 -0.71580474395904036822 -0.283705164766150153 -1.202003856692457795 -0.21947547381649867848 0.6060968268744264531 0.70851405952236601316 -0.11277566704727359781 0.74180318074193196676 1.471310835615941448 0.13901954181826334245 -0.2508205180912611576 0.39022289177385904857;3.4842096317391075821 4.2744664174100828191 1.0418684526191657191 -0.30283109617962106208 -1.3096984357763425955 -1.4317737110038177839 -1.7859010957525016661 -3.3997681348152712921 -2.4468127873361589231 0.14423724477056437676 0.82458108158546916666 2.0586640380772660563 -1.4678550910543890495 -5.1636819980760852999 0.84796991997112292072 -0.071159177489612188139 1.5446461015488015533 -0.1672686812118910904];

% Layer 2
b2 = [0.041260820729105036897;0.10340708946615169428];
LW2_1 = [-0.292349411311587426 -1.4686541335390375096 -1.8801841078262153673 -0.26300789870495966394 2.0065315253814453023 1.174885414083283397 1.0088276989492648283 0.37979406001089693889 1.1814786899277962551 -2.3460782877036159277 0.46405657984625620083 0.73219583177285540998 1.7529218157066528416 -0.19158565188583145944 0.25838056173844892172 -0.37319174890544520862 -1.2640007364542606982 2.2176534314851479301 -0.26534665219555514382 -1.1797233971701774902 -2.7523149133370554686 -0.23770209743281831005 -1.2187403489730967987 0.10826174836599544715 1.3321049519190004684 0.60910381754271059052 0.43911556886161423607 -1.1027129460771716296 -0.10354336550966819486 -0.099396579922602312784 -0.46234797387613379982 -0.7602227915445189943 -3.026364999535247069 0.46093369618497359586 -0.83846106065015224562 -0.96200063252678569281 -0.22608484693151723044 -0.75354167888633560857 0.86204811473387343845 1.1091558057372055135 0.37881788680208716702 -0.3244238819127333584 0.3575496124833275613 -0.5220744383330613303 -0.53037257659723879843 -1.3781582540771664114 -0.44758641468653409534 -0.14729135276537427823 -0.41511134885141143247 0.041561343623115032386 -0.20658895807165475467 2.9465531347913223037 -0.25514260198835247984 0.088510444153563266889 1.4952012903865803395 0.11155722917396909688 0.12620017946218708982 0.57677100675628978355 0.021712691246081512048 -0.35013573911076245615 -0.38516123898765530775 -0.2244340307391617384 -0.30988078252988726646 -1.087189477581014696 0.23190732817051309955 0.20959928052699514089 1.0499423106997474164 0.35752717656354271458 -1.4190134759092278838 0.47388129664292139021 -2.4919598455053022512 0.38582589195510946789 0.11019014094856553754 -0.6607919962963032523 0.95101773282372037421 -0.80578625615167920326 0.29613075917837011763 -1.5619356388059817409 1.0741339162020886455 -1.1852796990802947352 -1.2290549535239054801 -0.6935707609822872044 0.45876001925572179596 -0.48780632993873362935 -1.2981359871767950143 0.56257596827886868773 -0.93503802725155760189 2.4390296869970526927 -0.26202347178716745013 -0.3474071633067570275 -0.50522283264719081153 -1.4535113144117832729 -0.66115528030489678635 -1.6260016504985859154 0.94705973282310218497 1.5765065304688694603 0.50030885528210744528 -0.60564529964162916453 -1.9311726897697301109 0.62993071258473920526;-1.3361162014249388097 -0.61169296630013925142 -0.24914229476721075351 -1.1717055403971348149 0.15672931017367081052 0.054171488819225906142 1.0047944927576384355 0.58952244827318922571 0.28829247543004482557 0.057471605608292002099 -0.067856110766110644406 -0.23899007244420727991 -1.3161264119258169192 -0.23852363652621783041 0.024967780831757900584 0.068687749974003009523 0.097318537496093551753 -0.75534631982904509861 -0.11123627279977409132 -0.072501676195139225234 -0.29906353416477310381 0.71775597507384925056 1.0831558414191031492 0.35395243023779099367 -0.71653450697146481296 0.99721266321827073398 0.19575677189298198999 0.16538330511506310616 0.70825180251757102745 0.4417906519365116802 -0.047034175729422755818 -0.16830009095221462601 -0.28438072561341765088 0.38701300669580579461 0.20690666402282598124 0.73099856248647943069 -0.63608196364937974465 -0.18150754812810898642 -0.37412799392080270389 -0.058897799704095032958 0.086917812320654416758 0.03393369100399689503 0.005000987737560015807 -0.21448909811550329052 -0.1571771259288005651 1.2783944329315892752 0.34985304941511830013 -0.14714540968477871075 -0.094965785311749206787 0.84397527094290847316 0.49786131851519699332 -0.11308141836513531386 0.053796852086839534735 0.41519822088618796307 0.39821184920251700978 0.13673621600764779282 0.51605409557931603004 0.12098913692443848122 -0.14925124114684493182 -0.3323834809677426172 0.0199173494976092047 0.083634437310202439098 1.1407312112433791729 -0.22208522214081030666 0.30128698489557725892 -0.053218571704443773385 0.14108199812785238159 -0.075582661418030522293 0.39434517202717561668 0.18061760176830804481 0.36133215983039995711 0.1116478436525086132 -0.63612401614469349376 -0.26232176635552467703 -0.65883018072543753085 -0.28944980041884965649 0.078880496658485954597 -0.039112202948720642404 0.79524436338898030208 -0.40848268571795876003 -0.015392934568884512891 -0.48144437567148956614 0.080042510682236694963 -0.16807072110624288186 -0.49411955004767810218 0.35319259135664826665 0.054264083816667134375 1.3802936790866662253 0.77250087200232364637 0.066272478095937392695 -0.69017108994085696327 -1.5638758889248511874 -0.11983874276625404443 0.19511178818623542419 0.30702037773914492291 0.18173226377536585985 -0.11195568159301831634 -0.40329238823453722462 0.4287087560356479532 0.029439130145672304933];

% Output 1
y1_step1.ymin = -1;
y1_step1.gain = [0.0800227111322119;0.0800226083770493];
y1_step1.xoffset = [10.0002462740323;10.0001033766689];

% ===== SIMULATION ========

% Format Input Arguments
isCellX = iscell(X);
if ~isCellX
    X = {X};
end

% Dimensions
TS = size(X,2); % timesteps
if ~isempty(X)
    Q = size(X{1},1); % samples/series
else
    Q = 0;
end

% Allocate Outputs
Y = cell(1,TS);

% Time loop
for ts=1:TS
    
    % Input 1
    X{1,ts} = X{1,ts}';
    Xp1 = mapminmax_apply(X{1,ts},x1_step1);
    
    % Layer 1
    a1 = tansig_apply(repmat(b1,1,Q) + IW1_1*Xp1);
    
    % Layer 2
    a2 = repmat(b2,1,Q) + LW2_1*a1;
    
    % Output 1
    Y{1,ts} = mapminmax_reverse(a2,y1_step1);
    Y{1,ts} = Y{1,ts}';
end

% Final Delay States
Xf = cell(1,0);
Af = cell(2,0);

% Format Output Arguments
if ~isCellX
    Y = cell2mat(Y);
end
end

% ===== MODULE FUNCTIONS ========

% Map Minimum and Maximum Input Processing Function
function y = mapminmax_apply(x,settings)
y = bsxfun(@minus,x,settings.xoffset);
y = bsxfun(@times,y,settings.gain);
y = bsxfun(@plus,y,settings.ymin);
end

% Sigmoid Symmetric Transfer Function
function a = tansig_apply(n,~)
a = 2 ./ (1 + exp(-2*n)) - 1;
end

% Map Minimum and Maximum Output Reverse-Processing Function
function x = mapminmax_reverse(y,settings)
x = bsxfun(@minus,y,settings.ymin);
x = bsxfun(@rdivide,x,settings.gain);
x = bsxfun(@plus,x,settings.xoffset);
end
