function [Y,Xf,Af] = A3func(X,~,~)
%MYNEURALNETWORKFUNCTION neural network simulation function.
%
% Auto-generated by MATLAB, 01-Jul-2021 16:13:34.
%
% [Y] = myNeuralNetworkFunction(X,~,~) takes these arguments:
%
%   X = 1xTS cell, 1 inputs over TS timesteps
%   Each X{1,ts} = Qx24 matrix, input #1 at timestep ts.
%
% and returns:
%   Y = 1xTS cell of 1 outputs over TS timesteps.
%   Each Y{1,ts} = Qx2 matrix, output #1 at timestep ts.
%
% where Q is number of samples (or series) and TS is the number of timesteps.

%#ok<*RPMT0>

% ===== NEURAL NETWORK CONSTANTS =====

% Input 1
x1_step1.xoffset = [754;806;839;794.000000000008;849;846.000000000005;885;878;754;806;839;794.000000000008;849;856.999999999984;885.000000000001;878;754.000000000001;779;832.000000000002;768.000000000094;849.000000000012;846.999999999989;880.000000000042;878];
x1_step1.gain = [0.015748031496063;0.0338983050847454;0.0384615384615386;0.040000000000047;0.0952380952380849;0.0327868852459065;0.0487804878048822;0.0408163265306122;0.0159999999999999;0.0338983050847454;0.0384615384615386;0.040000000000047;0.0952380952380834;0.0399999999999908;0.0487804878048828;0.0408163265306121;0.0152452316924961;0.00819672131147541;0.0338983050847471;0.0276997933477791;0.105263157894812;0.0289464879004302;0.0392156862745297;0.0350298739838538];
x1_step1.ymin = -1;

% Layer 1
b1 = [-1.5439777945631290024;2.5746504297769954306;3.2261131265215259312;-2.53546416853178469;-0.77515766822594234231;-1.2419258155923014186;-2.3484054749800420403;1.6753606477342735115;1.2785023077384212176;1.7905596864731245788;-1.706515796276075525;1.4342154978453409697;-1.1254784651061147116;2.6241354397628167128;-0.36806912663064922375;-1.8440378103356176442;0.57026663400483912358;-1.0449893631500526414;-0.84550153593911137051;1.306811508408977085;1.3202315590119153565;-0.64379758236532136362;-1.5618144299241156769;2.268601916970030441;-0.92873160467956583641;2.1779115193885814072;-0.042187712400741199381;0.51223456382323628855;2.1433914876972974817;0.17785590061958669872;0.82922669381789515519;-0.75268060606050690708;-1.1125622420541250168;0.77910451347616782591;-0.56948891895032272004;0.50382844902599244197;-0.38199389650223047887;-0.075561556767382700994;-0.24869224020506328077;-0.42009999351347049323;0.01470606627377465947;-0.32696541761337877263;-0.89784928794691298837;-0.74783299205699338419;-0.65037676750596618014;0.56540136764758952559;0.24784804172602520334;0.67788902430610320504;-1.0727421687358353886;0.28361222709930233865;0.7352655750079755137;-0.034554952395489738071;-0.29420136167789906478;2.540611861926591164;1.4053079806601542767;-0.1191780243322925481;1.0220640870812116585;0.27387531247133706236;0.84322841207982013323;-0.57737946371765691556;0.51958411261903980627;-2.0770109758435126857;0.60588742088157498955;-0.4347648175502603074;-1.2845393321247144947;1.2759931750105142356;-0.99359453484827719993;-1.1220835727887428224;-0.13614384372563076431;0.49375695093619770271;1.5738293828812786046;2.2983915272451689304;-1.3268944703492895343;-1.0351004629661171297;-0.94557682466299564084;-3.9761351804314690739;0.46669509187639290904;-4.7132558213480040266;-0.58480721309072580816;-1.2949761522215501586;3.2221902747815525103;1.5422306368829319378;0.43755386588699546335;-0.37068544733587588391;-1.0189195521417604429;-0.91978259439632537031;-1.2520435774650624516;1.5891305207458534809;-1.5648283442171293522;-0.26660754797461710952;-1.9275377140510079332;0.78575135762605774481;-0.58243997264218438925;-0.4059846251775465209;2.4758569020989042997;0.70031880013989245004;-0.018106519278575969323;-1.7290729218392228983;-0.28555996444990322525;1.3858991464032925922];
IW1_1 = [-0.52964000529090926594 -0.28645648155420566638 -0.89799176184609463824 0.32330254845372574657 0.76345714578006274031 1.6202883261532026182 0.03171141156131168648 0.3796983901101421699 -1.0040225828717121992 -1.6960598865320604123 -0.61229442059673699905 0.62416004038774497431 2.6468442933976676912 -0.25031618612746603381 1.165280267479943177 1.5285975790045576161 0.21054832427778552573 -0.8175136124417715644 1.0352139351790006216 -1.0009673198274133821 -2.4626392263578416042 -1.1691488295492311611 -0.76140721654620946435 -0.24749587503564449142;-0.39248231016894924439 0.55104382410386243407 -1.3577606840668716703 -0.19520295071830459643 0.70740322997992188814 0.37599292511103621361 -0.43297340096078296146 0.80101029411376190037 -1.0199068946200411379 0.63077028063798756818 -0.84914621144814295128 -1.9992009024366950154 0.0710507622056923277 -0.80663454031239889552 2.2990634114370740448 0.76307237910580605345 -1.6470038588183704142 1.1942283110576845662 -1.9102123167428806116 -1.3627114400565218943 0.75896552993965782363 -0.48032371033852738762 -0.92339384254717704614 1.0396971585830903084;-2.2274872832045575777 -3.1009878383470308449 1.0565206683043599778 0.24755160010883628385 0.49377588836757357882 0.90907827869683144328 0.61738071679595707408 -0.91476184587651154789 1.398328366302383774 2.6171122266198234563 -1.1530644537729963783 -0.17974522049191776762 2.2167347981123688427 -1.8121277547082117465 -0.09278560115045715595 -1.0374245437647333645 0.66546608975497734129 2.161594970910598601 -0.87549100552048020329 0.40390520258262191389 -1.0960552301400412478 1.0172858804461653026 -0.86952150964142238543 2.9948067750438722712;0.54678452831159807257 1.7549894807649322193 -0.17466007704910493925 2.5921916048481055128 0.24728994679919102939 -0.75566996543660702734 0.60267174335357354131 0.54174216118594076264 -0.61667262590468541195 -2.1829733685662313647 -2.0678375955973429257 -2.6239502943042531946 -0.046074407261617975062 0.38961666751929269203 -0.7574972059917618461 -1.305453354044086467 1.3047189545720574433 -2.0630518636515464692 1.0236952883838128514 0.21880964612179829021 -0.80944351537367564831 -0.77779013033511967823 0.24782614023725024754 1.324542262731557285;-0.93648856489670551095 0.28051868484123787528 -1.3445890536847886487 1.4523446295956783381 0.0086598480262674581986 0.90432687331026095912 1.0261076978059755493 2.7642647725644571288 0.46705790200072139218 -0.58602432002543924927 -1.6199488884352017948 -1.8245661547990956741 -0.92329281766892834504 -0.021317900054605348759 -2.297701063244879105 -1.6872014543190485547 0.15188280218752558959 0.45286784959309789311 1.9567971513945108253 0.24270386717116274045 0.026554360954863659439 -2.1327873754062736111 0.2853504088981920761 -1.3708667960660561036;4.2029595686218943484 -1.1662615719887667876 -0.54702534108227784948 -2.4981356427034020484 0.48777998765516317192 -0.2785617692454212535 0.14170807994227421767 0.10260010121425681973 -2.3196420850259231727 1.204709615593933858 1.9400334467771100933 2.8952696958265735638 -0.77771522904889744954 -2.421584143126012556 -1.5447369239631416615 -0.4252675648064161984 -1.598825732592831228 -2.0266706465960067085 -0.70354972721642361488 -0.36916766670608441858 -0.52065353813891301904 2.7665098028099746053 0.94941236610940626939 0.032064446992489184507;-0.31606223092541851916 0.8239366805855119491 0.58907489747095420629 -0.55799125450988751318 1.0303743047673352695 0.35907367055489841645 -0.43885681993821934466 0.61121097676914304397 -0.83284220033954048379 0.94369901774738962352 0.18844439858328101978 0.38224476266845386352 -0.1139958276144859145 1.4414346109854592193 -0.49177171063204244694 -0.11707445413817532676 -0.9259879069589935785 -0.38205811492389196715 0.15453597312424793842 -0.49047758981352462815 -0.51047409129982534992 0.50599963852615681414 -1.6049097680728006132 1.2702906902365453945;0.46493651732172569524 -0.43417714892979492047 -1.2152395489247413973 0.44285070888907429598 0.29682657910380122468 2.1672383217080635198 1.7642548022949671171 -0.79157717190470233692 0.60326900223899182496 -0.19655646796449688374 -0.13161559362418714936 -0.55024266342206384905 0.91025534456538015338 -1.2036800580792514914 -2.3040925527057205535 0.37725290336370820299 -1.6718584988499096688 1.1435216252649245128 0.0077805386376896129574 -0.39675460802182127562 -0.5917037872418093869 -0.56755944142730108126 -0.69096227234105189741 1.5480345282493359615;0.063473806909050342617 1.2120915766822180082 0.097013025580553746696 -0.18433086283472868705 -0.32227986736655706013 -0.70372859225047545984 1.2966036968676233343 1.0260236860253812985 -0.13689969148671160548 -0.39008037992689265083 1.3373545259025785281 0.41219090887252768374 -0.28849220183391649508 2.0584220110878010956 -0.80352692892679589143 0.38421546831035646719 -0.81208398734037823274 -0.19594356076791391574 -1.0913037729850296742 -0.19204643744511237791 0.78591690609959241609 -1.1973650599508285364 -0.96494509014515394973 -2.0220811631537061182;1.0900908917785168128 0.56179802121990807251 -0.34751557356503759433 -0.35748646518670135208 -0.63911912508755752693 -0.8812529204135230998 -0.083308796598345474793 -0.682104256087076255 1.0868630417871412153 0.60695396647392474421 0.42298256300932263185 1.44100440900523874 0.77042796089862475295 -0.48062758946638839408 1.8808117065604996743 0.62066875806488397416 -0.36911428746382252131 -2.3155917540530901455 -0.013999427976586792388 0.34151366878305566832 -0.70012827319910653223 -0.77196298778101346549 1.0469676658763653609 -2.1398433657661062313;1.7766475447162968226 0.69544307337876221098 -0.6814937887422587437 0.63110314118686849927 -0.56804694894573171116 -0.51180281327693666338 -0.19052873284683416455 -1.1339944204336991351 -0.78877984507843923456 0.42810832825081468478 1.0174748331243794741 0.30269124416372472641 -0.037264122995954350459 0.25692956448036918804 -1.1352876485021436981 1.1706995690212400607 -0.3649988782575528945 -2.2777381682049231415 -0.87625503121999137601 -0.96731587573483390763 0.55484925218703085026 -0.38667877601884242944 2.1887817704634318083 -0.42768930735151849953;-0.13761373563805781584 -0.6903957644943233829 -0.80740962699961593696 0.98810112819852513599 1.5948922888567955702 1.4245856311342739442 -1.5236496080718029411 -0.45882617695866273477 -0.59531394957727101769 0.92407192112936176187 1.4616765355201046805 1.0881528534717339607 -1.247491160628150686 -0.25007022479518514757 1.5975227600765924407 -0.58622348911502419888 -0.085121671678154181562 -1.4433421988922907619 -1.5384963905715371979 -0.6764018598853255293 -0.41983102859336651758 -2.2401162921239774484 1.4929419989645271727 1.2348164133463916947;2.3673350858901698324 1.6198011122062299094 0.931029036980166258 0.84319941747411564226 0.45823197233836820974 -0.13737757837891173551 0.31272499616400967204 0.64333620640408017977 1.3502757644497427325 -3.1433085080046758719 -1.4663649493054520256 -1.208996971064852044 0.29367119402671360007 -0.15021528050236823693 1.3384867979141308325 -0.42711352254780660109 -3.5803691880322383589 0.751413150484371406 0.58658836136671177464 1.6570738304648624517 -0.43325091560126349766 0.55554270688391216293 -2.0171675631822911789 -1.5136210022807714548;-2.86407439124503016 -0.10775335774263736233 -1.2038268499987683224 0.20278031496584206228 -0.32664877208894571581 1.7877046304089838635 1.2365156761709383826 1.2352372988562745348 0.2888057443029654614 1.0899961311037471567 0.38899256775749890824 -0.93759924992029108903 0.55163788221279796975 -0.72812063656064718309 -0.31847461809738630834 -0.4690528657720121064 1.8229110735092832751 1.095932470564949357 -0.54001141398007179717 -1.101366222116631377 0.68815070753393403624 -1.7717464908184237249 0.037983474087217833359 1.0792638087323886964;1.4912910818000819635 1.662138518436322876 -1.7129569858495381496 1.7015201144258000898 1.8819237498973075962 -1.239488585382563457 -0.79146248546633279908 1.5923723868696704198 1.9161947456004848611 -0.61284831033855591276 -2.3187381819271606354 -0.14508284915547112193 1.914654158916811344 -1.1320563075659655361 -0.8302533166496921524 2.8884105655666774126 0.66168769681080785716 0.53196279812956048794 1.4883378334164412138 1.0182922567289476312 -1.7085783365488027563 -0.5224289697341417682 2.3600297584204357193 2.2723697718353905728;0.33589487026402020664 -0.44983770029335978791 0.93028039636402704016 1.3440702299167770484 0.98614318388760913159 -0.3965603549287712859 0.79721028907812485631 1.2798865994453720862 -1.8832399770482957102 -1.2678418504747315243 -1.6556329470884070254 -1.6358043131301533979 -1.3331356862352663484 -1.0706205475814758454 0.5320053022827687661 -0.78886082019402048449 2.5091366588149295325 -1.4712057191035026182 0.32025770949142201571 -0.22166423229978166054 0.37057508025958796338 1.7333777193151544971 -1.9057687191133048099 -0.85135433990949560545;0.62402476908875137429 0.070294252670377921355 1.1833581104575865428 0.38540451889059296198 -0.17433021924386515877 -1.8143515629645807774 -0.71345747671004167145 0.72196648448482514393 -0.026516263480958555954 0.69413520082868540584 0.18578349566326160525 0.11976077804357992962 -1.6961075512384531372 0.044144754393410277904 0.46407588432352031571 -0.58559768063796024951 -0.094226628257019162671 -0.13964340564926136512 -1.8622135352064044245 0.83480387336408345966 1.5347930209613380725 2.8201641417213680896 0.33757300498893599849 -0.65149074414517171849;0.28753232558265884311 -1.2321845673254894216 0.7230657899852788173 -0.41080694184072646946 1.0023883662850519016 0.45880016597820189039 0.78115732587452069158 -2.3446021644744798884 -0.37945527517982752252 0.04636532788382095871 -0.2354328548199370319 1.2169711396574132145 -2.2204724865608511664 -0.65543275542594703342 -0.52523780465971903197 2.5626310608584632611 0.27303375387379358319 -0.10853097350521755116 -0.044545566806659400716 -0.23380456480448941203 0.24619833795470358329 0.4671874562545069165 -0.97933869682144991664 -0.4051229800898643596;-0.54003124342973984895 -0.96993188210611913647 0.9615484254241091211 -1.0028401798442059256 -0.77018284669090952832 -0.39751116278438408669 -1.5522249350642911558 -3.0464197045424965538 2.1425917949319566169 1.0403042250263485613 -0.34687647886360972738 -0.00091458204742492568706 -0.41602210070729606084 -0.86035754409373366158 1.1450775856959531929 1.9060727241904276141 -2.1611921477218745125 0.082769136277062727025 -0.45529956364877671726 1.673743014550485908 0.54980894280419190245 0.90375655496547668832 -0.91550749944746834252 1.1401728068042507047;0.22360007022442679459 -1.4759506814605647396 -1.3394131803454616403 0.8799781303819550482 0.030358952264497796741 -2.2033169885871792815 -0.14235462010844657232 -0.62750267577985985312 0.021620500363395720594 2.2558420823478373407 2.2104008037021389832 -0.10517906793120662678 -0.27446295803996151319 0.68174653996446588078 0.16805762025527071213 -0.77978329472922136567 -1.1528077031189016832 0.17950162116904200271 -0.86522636420441445537 -1.095862842306128071 -0.55714826571208775352 1.3749154893018198376 0.90779388324713627956 0.78946917987844011932;-1.405851500491586803 0.65365281603826252965 0.49550532077240505568 -0.30054052515473539398 0.14085687642869640368 0.17202334904950539185 0.68287176763512269506 1.1704659812669429009 0.33485707935275560443 -0.90520851724277207051 -1.2973115282519052105 -0.51593643923077459057 -0.12643784352453091291 0.018145891160511656848 -0.42187089818820588949 -0.20224706535132364049 0.38196344286697209158 1.3347461907538578085 0.5165513046283735088 0.84236209773703940584 -0.1209007284328307702 0.14885640474391567678 -1.166346680727976759 -1.2641302448846631901;-0.099058019189378551661 0.077306616184144152926 0.21399231723986134046 0.90168569781386997963 -0.78332450581585122418 2.3365428784496073966 2.7746323016507958847 -0.8235837556181898611 1.5693747107324438339 0.49646554097425588115 -0.056754330647461506687 -0.7711866491236381016 4.1634807654621601714 2.1935781065016706215 -2.3998292536670611241 0.95786619960820029718 -1.7549738625222854882 0.12918593399084396522 0.39895725005494919735 0.24421626243074873175 -2.934937053227832493 -5.0894954554145739323 -1.020250322640372076 -1.0097936735706347644;0.47242760016997797923 1.284867606635818893 1.1730040819462850266 -0.90028289027720886928 0.5001140544733315707 1.025556637315297337 -0.29161383447413768977 -1.3076702955196755074 1.1000123041427629644 -1.3451889427759848861 -0.2300525614597194457 2.3393570677185651085 0.19497241167892145897 0.015195339462527455987 -0.80251509047633484695 1.1532032837690198157 -1.333636625989507607 -0.15575150894146819192 -0.77355287550074247616 -0.83127091517951989808 -2.0396002353250008987 -0.70627487913640663031 0.79650668269673652322 0.16375196327538027452;-1.0038412262281164455 2.5336859997447884751 0.42653311085569978189 -1.0478266014001311746 0.31049217248498228727 -1.501544873585323181 -1.2501140212500463367 -0.62804196912265264352 -1.6393537166314680054 -2.4826044352447422803 -0.087168664152897784581 3.7622112823861204589 -1.3980960022304376178 -0.052214194983717300558 -0.6868819588857751901 0.9471400671041139141 1.1388051045254992122 0.51695758242331590893 -0.47751928001611565477 -0.90809876476851991711 -0.28399557100253125519 0.9714957428875936607 0.097601684837648500226 -0.0023619356646946421119;1.6597673398095156294 -0.33349789970683091367 -2.4965243828127112735 -0.13571397753705072287 0.20521452647445703743 1.5596381149339928474 0.64248066299852435446 0.3833117906105911743 -2.0019908083638378038 0.072564925394110260659 2.2471052864519727166 1.0527361489609297074 1.1887281940379914591 -0.79731618638623291684 0.71396064917832524621 0.27913964622744624755 -0.34904755736862297377 -0.063832486581696906702 -0.010802019815642107184 0.46235582209752845717 0.41822528308567996636 -1.2388300210222331632 -0.41367102709414294015 0.12294047180976144795;2.395469935644131354 2.5923132899392000716 0.0033627337472503515681 -0.71959437442986973199 -1.1316778853074693778 0.3625761079494368988 -0.1412130232743863123 -0.44839158504856591048 0.76373657328871291661 -3.8181997922023382941 3.1270202656864114488 0.54154202261201533908 1.6549328987714395645 0.37012252918929855472 -0.90043184027846367989 0.14726395869104774716 -3.251061172390749654 3.2964883360265178069 -2.7876406697574012128 1.1772830199954462671 -0.36459361105375293066 -1.15892590227038772 1.1871067465971898436 -0.52168395996692629168;-0.17800241407157971207 -1.4904328195041889327 0.33830452627409046684 0.32877632864469402696 1.0356019230693782607 0.68055457010575759469 0.73616446801215162932 1.9651661387451240248 0.3013636990601490373 0.59881141020172412581 -0.62893991329031251336 0.069948102942255896419 -2.2796650841890380157 -1.0853479709201609982 0.50225785621016438842 -2.412166600477638756 0.088745143802746437323 -0.52056422591187756499 -0.22439425677211860544 -0.85228300289617053842 0.34163909298148142923 1.2442542267028533498 -1.0288052147275499326 -0.28178574645923476494;2.3617998126311858798 0.57330974904025200356 -0.87013213384982834864 -0.82457393396248912509 0.62727202283930838522 0.75980908187851436963 -0.45315057470670805362 -1.0642172679519317224 1.8837062802897668323 -2.8672710609877749555 1.6698188655424059945 0.32675593527144036754 -2.3986756297669913351 -2.7461815378549485622 0.27442906219341278717 0.58491210673919191709 -0.1526081195796081813 0.68714754179699932823 0.41326976995728620379 0.34868671630018033269 1.775951229057326719 1.6012128665711360398 -0.085916876439011288791 -0.041460251796350364173;0.47643582756757668628 0.58446635400545066119 -1.0356560488431219014 2.5439129677855709666 -0.48412442372084052433 -0.97110314939863651151 0.62177771593630115632 -0.28912907887761507553 -1.2554666357535657628 -0.039289091304532078319 0.53789958333196741247 -2.5209802550944564459 2.0897979190191660059 -0.27132492415871029001 -0.28952275791969012131 1.1208081881546738678 0.53655829178692460157 -0.22578888623997489526 0.50355441018814028897 -0.73951434531439796949 -0.42268285742283812079 0.29163845866549442665 1.0291472248102639941 1.7452386256314884605;-1.4623476254887264325 0.42937763826014857527 1.6052560505090982534 -0.25152156111661855276 -0.33854114612555152863 0.1268266804971570072 -0.28481185899772687442 1.2849194400557306661 -0.50711806843419782176 -0.22090267576805819316 -0.033077921103547916482 0.93181395408598499674 0.37837761466964636714 1.168257734936481107 0.5766768164028280852 -1.7633150924429437101 0.12978982414865725126 0.049005534100330538916 -0.29529794447845708616 -0.24023969317171417481 -0.11118552490584197867 -0.85859098854742310625 -0.38230242724100294005 -1.3851531512458958861;1.7423608990841532584 -0.35128163756408009588 -1.5237169671576076269 0.38781435116549334285 1.0737618710892486984 -0.69388696252103598816 -0.18705327118573816803 -1.0522790468449598755 2.1811628656749304511 0.85195789584578773823 2.0471825283685460839 -0.92127737953511679159 0.16015059679119653113 0.87330817441424879455 -0.67994994996950464117 0.18704499055433818078 -2.0098393293545329108 -0.8946450366865199566 -0.94022944842489553086 -0.3644343163094293514 -0.41081213833417906667 0.20504267749798577025 1.7474565153547456653 1.0729236758630940063;0.24512544903071717406 0.016124187371320163747 0.74257506783544946494 -1.2821709787533048797 0.055849612189419112207 2.7156052519817985846 1.680872314378021315 0.23166990808029602755 -0.77806653577243511943 0.60900541540623520653 -0.96483194411168449189 1.0522520182418346746 0.81406004416981392335 -1.5534885114149610263 -0.96998466946494410479 0.38625000213539850691 -0.97428434689100884558 1.5888985678308154004 -0.75100332957284832158 0.17461962845541542655 0.60724972566463586432 -0.7270484526998685082 0.91057035618499204688 -0.69955759901767322617;0.48180873572037746788 -0.074679558668568082891 -1.9344783493694102106 0.45197443875666837299 -0.23381807216488192935 -0.89450231285508718937 -1.8843612427231759554 0.27227329389450449781 0.32699416938202907623 1.0843096156327547419 -0.76473084555570713938 -3.4084688654621579929 1.401613150254903184 1.1539379019685425121 0.031522483774665772949 -0.2531299384715523515 -0.55423578610171475578 0.43434704052951023101 3.1622382703050364583 5.0118405892412543068 -0.21109867003797613827 -0.077721942817246383872 1.6106482116222402556 -0.41475514552123760037;-0.95787400283053758532 -0.079512638227540524682 -1.5340332689841744696 1.2983489532785521536 -0.87734663511454380469 -0.50150395233845979082 0.54661691675893231412 1.2326352473926858178 -1.249162420559881248 0.37247694608134807037 -0.1343613324985488966 -0.88351661251749380455 2.0143575981905561534 0.62504646530519658576 1.200713697272717928 -0.69280411301753297426 3.1789939685260644175 0.36001290134770480567 1.9677197542222637505 -0.07463830447818153857 -0.088807574099224920183 0.51815397001866225768 -0.88182359357422934742 -0.56062047441511442258;0.2657210556247381894 -0.1002799141090032764 1.4592580741103458042 0.00047328120828770726958 0.68377674468080540393 0.68322498531495556851 -0.709519081644996219 -0.60010109459885740968 0.20305937624883327319 -0.557016295057406019 -1.9212925972100520777 -0.89278969666847407538 -0.96574151277096786927 -1.1321489848999490846 0.75249968029570291073 -0.17166471116623627235 -0.13214843140118459619 -0.26934650310152979946 0.16677575958881332707 1.7087889650687042575 0.059676371102216969888 -0.16374289901760208377 0.06389663628530786732 0.91693372321893651389;-0.022466347098828290396 1.0488642780927053266 1.9713696174904571379 -0.84285099776481231526 0.54464269833893030892 0.081136028719361832917 1.1380126699562784776 -1.1112646130289622892 -1.6888616860897753824 -0.26785268843605047895 1.4253947749111295362 1.9974455860652442496 -0.66938117248463480102 -0.46562182241922528414 -0.60109713554874844021 0.85371941118679006699 -1.5327476671427417987 -0.10830645221871393336 -1.4233451948653352837 0.62195183272629972482 -0.61362346912527521159 -0.93267792638446955777 1.7502882148515412908 0.27697722632446625246;0.56496523033784029622 -0.71820079947196857617 0.71562239351245504615 0.3029296173571492945 2.1615068856967276645 1.2153737340234898046 -1.4332478815570965924 0.57563796537232458927 -2.063370548030818874 0.93092567256253500041 -1.3220465314845044613 -0.92893298157495018952 2.3747303250768130312 -2.8579840631648396609 0.7985165062574905992 0.33338431227808845714 0.6672421414765132841 -0.69855774605223552864 0.12440345383976400551 0.81174808571993772865 -4.313536487224975069 1.1996032570700638775 1.1784020308629545859 0.09362140320930097126;-0.97996895552281670927 0.25886990335267595631 -1.3721990079271089158 1.1362552982750433461 -3.2990756735414001888 -2.5014503787678457059 -0.22048825565446850128 0.77212021659746810087 -0.27079611153212573837 1.233266193392402732 2.4099059682851673436 -0.56647478473462387072 0.33702848764677739712 0.31615559494447648126 -0.55711878997698782712 -1.8172056090970136744 -1.6814269558673271554 0.19851467980895326493 -0.37073161741991339513 -0.97982141250078036432 -0.223708774004840516 0.37819442278565118531 1.4284167766493520713 0.52429306015234056204;0.14016267848201680035 -0.47069812679525147026 -0.26169542752607205527 -0.48426655364565923678 2.1811114838423120155 3.7358142663535436334 -2.7518657945527587039 -4.2655335706887438363 -0.096495481925435971915 -0.18353341616511456569 -0.2127318751660257079 -0.24678159297501151004 0.13115491479644891815 -4.4959637299422334777 3.4973240615065241954 -0.32472969077768387702 -0.43954713026724179237 -0.15968936139043216071 0.10108280636947628017 0.76793167926546512803 -2.6129633699823964221 0.14568913935783892044 -0.045599120021476036158 5.8979263509815798017;-0.40287577224286164057 -1.3859460360820792246 -0.96307051445111269139 0.5413619503008642031 0.52708321382827116874 3.4749527952770735695 0.59268974719843348087 -0.31533629168829413469 0.53709183817235872649 1.2887664743272240209 1.2581504343231562082 -1.121187240738449109 0.092873237340395708994 -0.9742162823953287587 -0.8728253123759870391 0.47849986371920166794 0.0033809817718566947953 -0.72761451377366870297 0.13921916535590012076 0.20492730136520509454 -0.30862592558225804273 -3.0936795197745912134 -0.4603064829820491255 1.2162125048431180474;-0.46495658775557446862 -1.2623997877656665256 2.0756778709431862318 0.58343999078065000852 -0.27767341946305690303 0.47234182581754313723 0.511744571015282812 0.38190107062953237982 -0.34643708265110495503 0.34401732021599862321 0.068802669329928345388 0.060697227349804337704 1.550872709768127411 0.093693811903542409403 -0.7427014172387772506 -1.5256613411760997501 0.53828556879645217403 2.3327088475261894551 0.28276595255801212359 1.2622957424033491858 -0.89326491780896055683 0.31558362174900356223 -0.45933306563265652311 -0.079477636819413929881;-0.38875609007459621669 -0.072519379519079163465 0.792215149962370635 -0.97598124251457485379 0.65069063454193798446 1.1095900090916177572 -2.2043773079910522483 -0.022040065343541755116 0.6674653521443376647 0.14921127595132011034 -0.64276981874483107848 -0.99142226591653503931 -1.7801651557437976336 0.54350698219836279801 -0.30468399179302674273 -0.0163106011311694582 -0.81447946417999095292 -0.69802500362256414412 1.0355426815531660889 -2.4463540440815410015 0.032805540385143203141 0.015533249227625958722 -0.52035904987243664088 1.9117436417747744049;-0.98068595977658956642 1.0882907426882528767 -0.56246512715670471394 -1.1222655025777468207 0.56311014290891237 0.43541532202932348161 1.3776650354744135463 -2.1906156749247083226 0.55904961780983308817 -1.9765581093087043474 0.87675276518859912578 0.0699059878542550861 0.18556418989159015331 -1.2658264571952762001 0.45703659781398309203 -0.4488550205166818019 0.96235597763947200445 -0.20068519722216920931 -0.61930415631156088274 -0.85155938842502898467 0.2486311842971802577 0.84917454311316720172 -0.68526121795981576046 1.774474295226215137;-0.6153581223614642548 -1.1639104297677203004 -0.4268076350498856697 0.27779814740407721141 0.046062050125007962531 4.0387012071272643254 0.57414356704004165799 -0.75725450731088139733 0.99037673915268031877 1.0157140222199305679 0.32996319702360915604 -1.1950952754437298431 -0.61883045514140999632 -1.5264914162369944695 -0.90081179091453833507 0.43627271568361747356 -0.31794507498293961278 -0.26498069817208480536 0.28127000280422748135 0.43518773509632358021 0.66827015509198672838 -3.644707512489859802 -0.24220880789912144215 1.9195869717789233455;-0.17679512735007160695 -0.69139602441439906855 1.7164785526557191364 1.1407969002510649492 0.25373504006606517613 0.63523651633820121809 -0.33006891275857425105 -0.6950596464021070453 -0.00095674725130735771561 0.42650835391911368077 -1.4514566085995208589 -0.96148293293777720159 -0.27727141332467686308 -1.1477176869696097405 -0.10836044579823689293 0.56248945959042107035 0.70897592730600389466 -0.24355290758582490152 -0.078802405068451750192 -0.40419594337840908382 0.51048306894872885753 0.39192533524758932373 0.84945122527063643414 1.2873371886347135806;-2.0711717009524277522 0.24345583931823722157 0.31901395790611875025 0.37045893195597329184 0.97679717119028008909 0.41650687373030237381 -0.83994756285424176934 1.8597206258390219791 -1.169391534804127275 -0.66739358603298659656 -1.0799786564803990352 -1.3982751786855713849 1.0276488723270342796 0.17131148293634018698 -0.23986411220842329683 -0.35214867477954608921 3.2161300160570327478 0.69604828775178906319 0.60674470656399226431 1.550094664524597432 -2.3616281816405981786 -1.651632813677751388 1.3502626590378736804 -1.8790766352949499485;-1.0646044201358610959 -0.93279915352262821049 1.5904527040156923867 -0.86641204600515253631 1.6815535841261917138 -1.0018417737540512569 -0.69752845235709448612 -0.18267123333397411455 -1.1155148673397119463 0.82937566529348627498 -0.70786689459137208669 -3.0714867875537641417 -1.31672063423388086 -0.69397025375398291303 0.12966210035682063095 0.27633109167986980026 -0.66505403765066206656 0.89963134877014128143 -1.4288692730665686348 0.19156074309916154563 -0.12877923226144222246 -1.461452837552272177 2.1574921726367737307 -0.16801182969957245694;-0.23685507016917781153 0.33332208060221346635 0.88352627365944524929 -0.7052341470103303811 0.9020775062881773998 1.714584455793785267 -0.22106004660524899985 0.39725164134730067689 0.85102508982370961288 -1.3778020689120096254 -0.059445464489849067502 1.3281448966832591907 0.14624656968270199897 -1.813474850254737758 0.21330556677602996452 -0.56588304766817087987 -1.5385527649162522579 1.1947817442391264198 1.4152242902406784175 0.64159236833738286787 -0.31661957589101435984 0.015469055590679708923 0.2636815407162515501 -2.6723739049599872786;1.371721428490460637 -0.46679499269217816781 -0.95721175304425865082 0.21874124272842615513 0.84710475615610614231 -1.0360757389064589873 0.034664729307344904763 1.6048054965375402325 -1.6169623525535383735 0.42788202994447871452 0.2525942604022736182 -1.1278157484884143713 -0.67107852154824609858 -1.6396456148236646655 0.31129624154887902687 -1.2099859951133562497 0.63152715839166417844 -2.6200935411749508575 0.25157955891347399957 0.37877022265076565333 -0.72690982176110674473 2.5472824337250328242 -0.26708667559042359452 -0.18821702981900861884;0.76427749268976874486 -1.9791037752728872778 0.074677276287185720416 0.61623890266724623554 2.1147641742233576068 0.1688314950963310801 -0.10474309340230235355 -0.45556356317173540837 -2.0416516705830995981 -0.86399717893525096457 1.5596687621629881093 -1.4917771065735954128 -0.096956715603641135948 -2.6712858138206065917 0.36402891289586375434 -0.52994198124721381138 -0.69663008459377029347 0.47465812658363082388 0.98981196750389932593 1.1451644973842092234 -0.15535197156017052644 -1.6853970358326257895 0.45111510320823045017 0.84647906499947145331;0.64852948338923843696 -1.0813997545735409833 0.026810113051679552998 -0.74604839975745151914 -0.47409476020330887369 0.83244077067318367202 -0.64569625824409770942 0.028400427745189360529 0.87291576878755006152 0.57645616826229362228 -0.25452060281702926225 1.0440103778182658889 0.71188528366721826046 0.81639432671675959963 1.2115895807650658433 0.39017514033262823414 -1.3550025632814066689 -0.02491847921768036711 0.94722605059262077187 1.2838279256255518135 -0.33863046864528340008 -1.2794610300440618644 -1.2883874888452271357 -0.2084146767804344047;-0.65724840878544121825 0.13463732761072944033 -0.73081753322524145577 0.88150865785525522877 0.65494761726057393325 0.98049173667457578674 -0.080815068798189670929 0.065626148853837468211 0.93635159214022822827 -1.3970175810807676786 0.57959960737551119436 -2.5785443126084190979 -1.1018583619737933876 0.21994510059371963351 0.44052123529084147302 -0.88561935540985892157 -0.67628738598410587102 1.50862997917218844 0.32931442097920265999 -0.076582661137401281115 -2.4523126480125565507 -0.21870516990416755121 -1.5768657150905212028 0.43931359610490355871;1.5276582887166862967 0.72709330848570075112 0.92875112653571689769 -2.8717982672448152393 -0.26028904951787373845 0.18370049151178455271 -1.7184486124863043166 -2.2631307061905516775 -0.18979095435580725648 -0.025930789583546449972 -1.1602695432220635485 3.9074702273337220682 -1.0633138307006424483 0.22299084287278220229 1.0547814577074690057 1.8174570736016919525 -1.2454758178969937976 -0.62358886876652541709 0.22054572634386482299 -0.43365446326593498627 0.16469924204059932515 0.017995324575413779167 -0.25156937515437816089 0.16999571206853511529;0.58374354849605480933 -2.9984111213238486826 0.36807177467977358898 0.67356618352873243172 0.88111534347765563258 -0.013765619944799106777 2.0155492086028301557 0.64757036228220787866 1.0928839026512171539 2.3941635224565946949 -0.59055492011217258774 -2.1740776032727859857 0.49500126720670367675 -0.48329945264904572433 -0.61243879477916041143 0.84625666659735865327 -1.2562936861053379811 2.7157925968417120366 0.44354107751444776797 -0.40313505103242652794 -0.36305559723019686924 0.40170150732810921967 -3.168556397597739327 -0.27295209089573180261;0.26657093266225723172 -3.476482174758113608 -0.12599876910199020452 -1.8421451409276177191 0.83846418465591598945 -0.45013402096410581876 -1.9879907184738849768 -1.4582988197809747533 -0.74127970345383753514 2.9717375283169116251 0.74332153437424886011 2.3481255257935274017 0.28232747496065102588 -1.2771442690692338395 0.85875495753247799158 0.82173050898523358754 0.56362986140019255554 0.26118820126437136686 -1.3930459610974492701 0.21694794090852759227 0.10883612920352997433 1.0092408999011037718 0.84148190122239607813 1.6856801081482957194;-0.80807844161509856384 0.013098181586695324674 2.0408067981901405474 -2.2029276600526284113 1.9589095588548102178 2.4157365673834645392 -0.081797153693386609463 -1.387304834035830936 0.4303104673728250229 0.31910389790615217853 -1.1290037864043909188 1.32205082070321156 -0.44698380892880218429 0.51533748612670993161 -1.4867534967857400918 1.8226733650898159222 0.30026230979921819664 0.86991495542415775422 0.043330133027755894648 0.96363348300797424528 -1.2258212567897299738 -0.73331548169985727448 1.3402026660689725368 0.12073840773765612266;-0.85184733029490944389 -0.18633834952649525052 0.20250143026375752586 0.59121417153790800647 0.16482071411457960286 -0.21759371152367018576 -1.5066545844801135789 -1.584836116584318555 -0.59534356645560970733 -0.66990787287536290862 -1.4547482479122701982 -1.3065102421700989233 0.38659727952349642877 1.1398146349203315264 0.644709310352683862 2.9154146135444136689 0.43146476701349278926 2.8226074525072810673 1.1009804955471491628 -2.2679604372931474465 0.090212275202761538218 -0.0079536869623473005486 -0.77560849072703752505 0.65630847257147906237;-1.1687182388191938998 -0.5145472126395455037 -0.87605416955804027435 -0.038322605521006823659 -1.1075040122055324066 -2.3890731795563375783 -1.380248714040763991 0.22792840573872236165 -1.980015571696278176 -0.40932829958028144057 2.0329342636675447054 0.32789634296054587237 0.89122730923878157316 2.5680189847618177801 0.16147573162203426866 -0.63481224530431201725 3.3035547051603519897 -0.30785974765322193791 0.011555269586131280621 -0.51319994302675597808 1.4412907854585783607 -0.6732058246183830752 0.87386378322308744249 0.22017898728980672685;-0.19813826666564521295 -1.256822441394354728 0.91801908890706651611 -0.0099344462584442100317 -0.57529017901593504369 -0.59516429067323550761 0.73972064788357538845 2.6716427788149852418 -1.7871800189752924393 0.81270472938920335082 -2.5694228374949958926 -2.4669685207038809516 1.0102774136857124443 0.59721237996124709735 -2.8931677214294282408 -0.44841238979759490135 1.2916874329686451883 2.5557687009438021519 0.76066761248959435804 1.1529222872290294521 -0.052124890671462434377 -0.10058359506678432593 0.50981170762169414346 -1.1765141583965674776;-1.2145666691738967735 0.95683222180716387406 1.6973554703512909736 -0.54051414419953902613 -0.45961556397191655199 1.2363877461522241319 -0.0029662030351991636179 -1.1376465658935217551 0.59905997455470449964 -1.2572101444406371673 -2.3947035666045253244 -1.5501198677186938113 0.92136005902711382021 -1.294924377662452164 1.9221264980922230237 0.13843103572482862162 -0.19064243630393734596 0.31564367346364352596 -0.31010976342433188568 1.8212213961649967864 -0.43545669122199454071 -0.65822289042712267548 -0.63875847657112505562 0.073010535976789220358;-3.0864506815124159722 -1.1515025559575231551 0.76767109766451624431 2.1928208769638830589 0.69697600071683218914 -0.11876144549270331585 -0.86363454190795674315 0.61594103155760870916 0.78330119882715421031 -0.11971609724926043916 -1.6572511391514381796 -2.8857930163411120716 -0.88122660571225974735 -0.08892539593398185449 1.295378955949372024 0.078797035569705062286 1.9605626137414964294 3.3550206360326115806 0.90009265404867166982 -0.06630711421497298419 -0.062217656867671083942 0.30888905563783464192 -0.46188554267322878832 0.45742629972675175054;0.46644998806025428362 -0.41817996961733960859 -0.79833884026812351742 -1.3599549888150219701 -1.3934684523765001884 -0.35974885764261566035 -1.3981640582881906809 -0.030598979761370777297 -0.79336408741686892387 1.6166729369110042214 1.773643631239212537 2.0911150890201972707 -1.1528058225130688452 1.9150040283542804076 0.73129929105392355027 -0.037369335242612156112 -0.55679590559527569749 -1.6809227712923171527 -0.58761882107652940732 -1.0065848217606099269 1.638670913399946194 -1.0780026745388908704 0.77215753798977448952 -0.0476415170397905402;-1.4049196364421143723 1.7829275155473531811 0.36918326573449139483 0.36197133759812089027 0.6277806853650121921 0.31037659664676842119 0.17334968828970881427 -0.73777517175333995336 0.15416448019693740346 -1.9695418266921915773 0.016984561001491055993 -0.78303619367034638099 1.4672736523596647817 1.1140154816625660317 -0.91888647430516579018 2.0513910092029918886 1.1380089276693847733 0.50266891216620079863 0.21974467391928567683 0.67246338031650165767 -0.64709921011653315226 -2.7804277613459258411 0.045336833725336797563 -0.89781851173764049001;0.29847042621421049358 1.0247371118211767715 -0.62830181917806204872 -1.4797937641383607232 -0.63216805343302473474 0.48756208708901499493 -1.0470300569283848002 1.2410398704540150927 0.66513079319745127549 -2.4925403628683144852 0.18274904617810416863 -0.21972169153821616283 0.92681081087228667226 -1.1951791153496553743 0.1286904251581662828 -0.22858796629939795442 2.144365999048921001 -0.36955587655409749548 1.1101169263620103145 0.27561005909513025536 -0.047276385022528441548 0.40788751104880616172 -0.004904552047940241577 -0.018227246607953960511;-1.4194051752037744052 -0.51915622488365231746 1.3016456792038448853 -0.22286576385222542362 -1.2572770905631778238 1.3019729008031850626 0.18836347360722588418 0.80679801230204339912 1.4889369655206152743 -0.52320315357818658608 -0.49549196114091559329 1.0984119966413616876 0.071226119453979136464 -0.78186296247680209248 -0.8448098677114324051 -1.3023876896935355774 2.0200438823214859063 0.035724763292488054267 1.0402691680702671473 1.5591050595632662823 -0.47484765711962784174 -0.32176102369726589103 -0.44854879724506557803 -0.93524082439995703808;0.63371247982931211418 1.165977586986419734 -0.13830885968702483213 2.185508974278116856 0.31506021564382902245 -0.84097451290530045309 1.1935431618546630261 0.18248183489059205398 1.010610475246969342 -2.5098756515500615372 -0.32746220687251081927 -2.6230606159556302259 -0.45392792681087767992 -0.09519571791878952971 0.69930975038726694848 -0.74238599432679464041 1.1831746724023384232 0.72258593134016924076 0.90103386017292430576 0.23411110358238745865 -0.2546140910452898698 0.81828254434176317389 -2.1695495262212998178 0.40624285262375070538;-1.1333794410198470004 1.0102711339642800326 0.95793159619461565324 0.16215877079609689049 -0.37035930468427624707 0.16220390678565524412 0.9552176105098295622 1.4049031920929566652 -0.546159543007785242 0.58031457873005043435 0.10203917198018086498 1.1223577621010345506 -0.0093072857956789656342 -0.15871952095645000536 -1.0892217780842647912 -0.94059846322008844322 -0.36076827442121728318 0.44654717303157581698 0.3197843464533958735 -1.2780104251860051612 -0.12498292044517120281 0.26824853038331986088 -0.77866850453624758543 -0.98686297507868880885;0.47201053038476958879 -0.87950073142996065823 -0.51374146954115018637 -0.18905498955343805201 3.0697414437553067756 2.591358635502169605 -3.2317321356359780538 -3.3861756313703210708 -0.69742775924003530541 0.33184589223288957216 0.035770266665188676924 -0.66538316077509229718 0.11087781384627826142 -4.5848575226559518114 2.5880668963022426254 0.54402966338867453366 0.13755773378716018573 -0.79622374718631039325 0.060188980832686714284 0.75528303845055599908 -3.433650407325665288 1.751517270432142892 1.617917820351772562 4.1723202009775439691;1.2554980694289881171 0.62338541086146215253 2.1693518388201438185 0.82579912152238454937 0.064606340052686173081 0.15763966095426018565 0.59935980074054362454 0.14203388920092543946 -0.57196921650837495577 -2.2389542276367109253 -1.5112176045330349972 -0.90113004416367703531 0.88483519604308447093 0.32132799512735998881 -0.59484805566873966143 -1.8660865389934648828 0.37777249535138462955 0.17835224612349453999 0.44064317631405791609 1.4689942912205291581 -1.8739035993870984953 1.3816772717807421778 -1.4508860646685075579 0.52528526755323268205;-0.37945709251531817285 -1.2923114460156490679 0.23053202068021882987 0.21067326038594830218 -0.81751941037544306745 -0.84990488598478364235 -1.2775874324161375917 -1.4979515926054220998 0.53761947628889938944 1.5488834540812050911 0.44217181743943456684 -0.09498290122413009795 2.234455177126038361 0.078918434592842021114 1.1148601610742869816 -0.22373079836936365927 -1.4555972861045258782 0.051748182189414723697 -0.94385443747237829371 -1.6910621925397470999 0.4604889154080338276 1.197817251150843143 0.26738762726612708143 3.2465310077452187443;-0.16161230649672000959 -1.1102090355643543518 0.036929374697171890585 -1.3248695234194063364 0.40643932387973658038 -2.0191084697582453167 -0.13864253844667409621 -0.22663229266368647985 1.3472696059996633888 0.84836056586169472649 1.1903928928487950145 1.4207899479229273432 2.8214536419918458954 1.5108938294966809401 1.8650266320234556439 1.0721819429195489359 0.37164706585917539616 -1.4706962782619932284 -0.72605425972227544129 -0.59968944618704167482 -0.69474682634202233888 2.8088816385516848229 0.24798973458559420147 0.41231728349314356041;-0.3767681229436859458 -1.324310328823920635 0.89775464221741796411 0.2356708873699386031 0.84771469312097513793 1.4375899822425786123 0.77091044269380537557 -0.58501646782742711128 0.96857115676395710846 1.5162119143924328579 -0.75858996101545106416 0.547009683080769471 1.1663589453976319632 -0.49871756514640486202 0.92102060861687429227 0.48766322115219307154 0.39097484998320558569 0.083181738775375740902 -0.67670733935920668323 -0.02173414195337282015 -0.16274118208223523063 -0.50353637428956510291 -1.5848954541514563843 0.32696914766956663989;-1.4335558077695458312 2.3837184696259061667 1.5192046975807917963 -1.5349647022501136107 -0.8332126472612985113 0.80272399881646760988 1.367750211919227965 3.6060847201064984979 1.5044935272681925209 -3.7291616709594359591 -1.857879204082745872 -0.042975780533743970779 0.83497341863906449078 -1.2876000432553851294 -1.3838948699068327475 -3.0235992230565282846 0.68934300000309978174 0.26523316497173332618 0.9870638618643667872 1.0182789374707288399 0.29321120710134351839 0.18565782031240679606 -1.3787574545828449324 -0.61244981966708877952;0.49613386576215490198 0.96787280640106310159 1.6189309988991258393 0.38860294762961333781 0.37199411732290627031 1.2437813756787685637 -0.7594889275085855429 -0.04444906520543269457 -0.6207633211633268866 -0.96624377638598046847 -1.2743771903126708267 -0.35084796037303100924 -1.3120022034582312642 -0.95027972990548026377 -0.55074472417468101071 -1.3077860920700712377 -0.87930036755577156704 -0.88056051857985551123 -0.86548053954740244986 0.21212836794121325834 -0.67809367436135559171 -0.037619248138589599095 1.1936486663773304695 0.77966992794594536242;-0.47125083178874327405 0.23038059785025058468 1.0073837536398104753 0.54259935642905232633 0.14776573330062728329 1.0105257911782972169 1.5927141973948768516 0.78851925605913875117 0.57647609176106984208 -0.95055233447633502575 -0.79942620185525359311 -0.50158854938060737361 -1.0286503577805889975 0.24698922417805976859 -0.43035482158321536339 0.94934001588281757833 0.86386146792879747736 0.11369953991696586659 0.17837677392034928525 0.020536851898831823271 1.4458586013896661537 -1.0680649331081479847 -1.7274272718246892477 -2.0064646228846951814;-2.1457556355586073771 -2.2343990630492243099 -1.1500764106628436068 3.3154173741328478719 0.77525352435879368862 0.95775153916212274474 -0.62872324872723306388 0.6615757198012335305 -0.51164801880334798145 2.307209079882009739 2.9175835217168271107 -11.569043146382757214 -2.4319555201151361601 -0.8378170646163405344 0.33687174615494996921 -0.033353609173482651196 1.575041086257550349 0.34532612956189462361 -2.061953731456241723 10.68860514781854576 0.87293491271276557608 -1.1030588936243546083 -0.76526189901422458917 0.071717563397991096474;-0.40270842681634383409 1.4559403425719603664 0.7478267093261455889 1.1203032599891507015 -0.070994142409133514926 0.89643119323579689706 2.0277810170717773808 0.69948725351207352574 0.35904132987109044217 -0.64639613237604665041 -0.54273165048730753757 -0.33680932804529573055 -0.89545687306217580659 1.123351097754471839 -1.230080549079779928 -0.83000084421042208405 -1.1805697269171218089 0.092898648532139443956 -0.22653295288161931498 -0.13719256649942163095 0.69722834520577448014 -1.7181377456243012158 -0.015596840004849309158 -1.2155145534089006887;-0.27206782119868594405 2.6480700589130838907 0.4124496304353713616 -0.50876315683546291524 0.030356000185848941442 0.26810144399919294544 0.40776345079358222723 1.8054253701808260502 -1.8787048459960495883 -2.9429940730673127547 1.1441131598790299506 -5.9178348584967084278 0.68310972553812276953 -0.35156017903980513184 -0.94548156019476503609 -1.2261338685347897837 1.845729257746430374 0.063916366254411272063 -1.0501609708562091861 10.301792975301463429 -0.64849075852165849465 -0.29621418207960203972 0.90205751819707902239 -1.7994261357301235549;-0.13935616051097038381 -0.33289527027607085374 -0.99880165277718024885 -0.94528966186267870953 1.3890100780075873566 3.0388412788217928906 -0.49309498823463432382 -3.684953286683139595 1.1293696040276290926 0.39960341979513208654 1.3935991384691295281 0.31041242512619116045 0.56129520977277125304 -2.0311407254866522543 -1.3220398050189088313 5.816564681594339703 -1.1802105592848270987 -0.377465798027132593 0.073958810646737996319 0.40867996432805131501 -2.0833075356033310399 -1.9400508214192759837 1.9061794863994481197 -1.4635859848829018137;0.19665215765119994917 -0.35878273476749639181 0.65546743395343620708 0.30113657033246565842 1.5046963123675864971 3.4497861041441790775 1.2916161014877980406 -1.6306440631077869785 0.074562284202625284113 0.41165192587085414067 -0.13596260305220528308 0.9462438552716426754 1.2251035846203675028 0.36219010045393174035 -0.013020642217564668344 0.49808721156906254901 1.1664282439156892224 0.81400985572245909694 0.70822452397307367189 1.33416688059274402 -1.4870893285364596981 -0.53910839066838200928 -0.076863899167839366822 -1.9734797464602342743;0.35879031721022269785 -0.22981709883510587078 0.99281569756324783427 -0.015462800110645942564 0.9036987199201937937 1.5968134703804561791 1.8105051153642626183 -0.1279706697573958496 0.46320661965922560466 -0.28233140443331206093 -1.1420921202146667728 0.588638751853253539 2.1324749532729394552 0.17392560170621390592 -2.7704017023806803977 -0.11134135719218254956 -1.1493216014118281532 1.8413729089290329366 0.12080029593437142943 -0.2940020692100832056 -2.8823453884654783863 -1.2825782654982162967 0.71897953913435186379 0.6441932685238087597;0.90054371782660713741 0.46798831659183726117 -1.0155527363352432335 -1.4446150193422040431 0.5302192720877679788 -1.3136845812300967928 0.27875602992312642492 -0.77457187104267488653 0.75525581637752792208 -2.2584312166017070922 1.0303116780637677774 1.3171078562978497661 0.035279946967861942897 0.30906032783395454011 1.6428311600772149692 -0.35289921038452337632 -1.6665376746786242368 1.7038829021165744493 -0.49771942652465350765 -0.23279410587516735642 -0.31071657483468340111 2.2823896886977967924 -1.0149081950894491833 0.22379970966036516478;0.33322933989965247692 -0.43702494917705780875 1.9319592486898380379 0.53430925215765645575 -0.48473505074590017561 0.43933433135585564511 -0.56735657574214515275 0.39060782867250803951 -0.068532882049124083101 0.31066055047354301788 -0.047896868401225416167 0.48470111711945046418 2.864298598982381705 -1.3844724238813423955 2.4987607190849403516 -0.059002840662010058725 -0.46981263806465106692 -0.77363784509998001493 -0.27443817532426767469 -0.28889855078091253304 -1.7456750636610638416 0.85454060243186513723 -2.053774925499913806 -0.4009551834204568288;-0.024847353638974264967 -0.31157829839705919461 -0.064082110963576854878 0.92828102152234770461 1.5596087090260239982 -0.83925993040828006375 0.1402747921005277898 0.4784392201979284498 -0.73528974757830545261 0.61696307929291593908 -0.053562240660404311643 -0.37154393364531024258 -0.57708802493402922007 1.1068799858743247899 -0.73616366795660581612 0.97563924744302721326 0.29687560083190855931 1.3703183728902403882 0.65794370056210260689 -2.0906911483616887892 -0.24188073776144772276 0.27702909771431999397 -1.1230530746715423618 -0.059573639462603328321;-0.86701229875028651417 -0.62599813437824269879 0.48246532097071859191 -1.0099738961848272467 1.0799033027258655437 1.5101698950564619306 1.0176059305356413009 -0.59058768468729094803 -0.10517306861234321236 0.098404525217281421656 0.76396064799057628036 -0.020783441961829032807 0.72665407835030360051 0.62826924263321659581 1.2792365397137643868 -0.061475172567754907127 -0.72488909086323061182 1.4308335189420420264 -0.76731133172743071214 -0.017823238038691610607 0.28049771409116841525 -0.1366935804900769047 -0.11591206350032054462 -1.2129568589240684595;0.707030020086160782 -1.5578187457474379496 1.2233508832422490542 1.0583370491710737404 -0.22624748014908580007 0.69722093764464354582 1.2384866223121882012 -0.085033544571819733027 0.89840746321382480843 -1.318110697351183136 0.32154307042696661512 -1.1661196754480718241 0.31287409851501157831 1.8297390973439435768 1.4773320870402826266 -0.29479781235757163138 2.0855982073108787489 0.36057111307528294519 -0.42308685604362500365 0.52747614682751986503 -1.5274883036923552204 0.018676321250027466681 -2.050398450705682496 0.95363427551353774358;-1.967140151199977538 0.6216251349578593155 -0.077604953910946017359 0.50207694220614162983 3.2621045329379692035 -0.16952869135774240039 -0.20433723697702638189 0.88588796350232501542 -1.5743093020751397493 -0.93408981213527153553 0.15114445911150514723 -0.4798093302966434659 -0.96110978211617870137 2.6054971752829647613 2.1018253324228219903 -1.51950285753362202 1.2501956288429272313 0.39617196031558227221 -0.37133952581687534877 0.36162476716311026115 -2.060922474548953609 -1.4359541543003466746 -3.7766290115743710309 0.68116456560851934565;0.29207113677250068351 0.86285481464096880355 -2.30080798633156558 0.77897816155420063211 -0.23939561966790473546 0.14964690271948058453 -0.17031760956279951014 0.43197392282752583581 -0.29360321541954953473 -1.4132511086469303763 -0.52353413338673526756 -0.24694167592855720272 0.0028767101390885160828 -0.38415468511704919941 -1.2692566285713489105 0.746154808797899749 -0.40548779179202887324 -1.1216837682506992646 0.093155000530648471302 -0.89900254549762170786 0.49681582029925908106 -2.1937589965936497016 0.90466817093173135245 0.28488071125020136831;-1.2076013417601378919 -1.4551372984467432214 -0.30137290264758437308 0.24605843701895516173 -0.44968510932599969898 3.8349527929213036437 -0.36270750597701778561 -1.0564972306539852642 1.5143893980274185651 1.2782958257534922097 0.27761444580389726955 -1.1612161935206000152 -1.5168392497987415179 -2.297703802322141442 -0.57542026224297038173 1.1043907822177176925 -0.18738838754058503855 -0.067226034750505467286 0.17475079446459113042 0.14953838372780300925 1.6405249193640478733 -3.0395733222322589562 0.71778560130266244599 1.9157585753815027374;0.21519042553305661736 0.50773921893695828089 2.1087813014885292695 0.75406341162673440337 0.08055506690320018981 0.69582956559519837381 -1.9855293750060032387 -2.7919927475894028568 -0.14559590297968358352 0.2548819305037765548 -1.9152207328423762611 -0.040975995519275359991 0.60972765254080352193 0.090334492146156547543 1.3676766622416707264 -0.44181813671427455636 -0.24077719058208066349 0.14605169570398773837 -0.13962754322627368708 0.6428995726920897491 -1.5717658730712793513 -1.864766748451636813 0.24625661266042728204 3.0073634479307553846;-1.1997561094042406005 0.41138718559786380258 -1.7179329570729335863 0.30359289095868857711 -1.209546515386609622 -1.2018996562722044086 1.0285999214451733152 1.0137882566026077402 0.4840267771000183461 -1.2532369339193432101 2.1351338739678569212 0.25533127917326325917 0.20890352238049292311 -1.6938126732634855021 -1.9075984697429639869 0.01853893345438376028 -1.0249750526588972122 -1.8448925027811906574 0.74456413474484595127 -0.56801477558780455457 1.1140622061402165599 -0.40305086505074078085 1.5010178968707983405 -0.25147564876190525718;-1.3065522146924675173 -0.53371168142806624246 -0.09419398729925058944 0.39163549329294106149 0.24913396782138841345 -1.4090438294057805457 -0.95443716932185407309 0.80936664702302019148 -0.20313907383221910252 0.15945121644086340806 -0.41355945146786277089 -0.12503553191334706995 -0.8821672809668148485 -0.004151618272990199171 -0.017740991698786665043 -0.36596851934547730556 1.2206303076937576879 1.4737613519640806459 0.4355452801254651729 -0.12873855505826400925 1.5401602940976404366 2.2984011555238001989 1.1993385779436980254 -0.93570160287359138707;-1.455436292240660956 0.88115296237883611319 -1.1670837620766409959 0.70159500896678406168 0.34438828462211007464 -1.3285469678782388936 0.50677496640547936568 0.39881309717808965942 -1.8949213922472647464 -0.60074144154225916914 0.75742145319503795253 -1.6089803286947357286 -1.2626357950689135468 0.041311869847861885929 -0.26549383506177898218 -2.1737297466313960648 3.8829593457749282948 0.28942016778178336622 -0.27764663948352735767 0.52168751786769784751 0.95689227389725162176 1.2763110444427783197 0.27747196559266529281 2.150215128743498294;0.099350760076727009928 -1.4674431392678377595 0.31651462874108415857 2.5781318399748882619 0.32737462215354568018 0.78656403656941675795 1.1465742756704169203 1.2660145046828767956 1.5969479781548288067 1.6693226009361723516 -0.31430746851069552017 -2.9231482561774977391 0.069121097499674558073 -0.33785140896456133941 0.72096839946186896952 -1.957096284754109794 -0.50885795666296373962 -0.057604329390344849449 0.69730778315319730254 -0.27497725332979544577 0.18239713275893265632 -0.5073415614703139509 -0.76818005655543308841 0.57545807540972104821;-0.40378352949190493559 0.28270794976092850082 -0.46086950201760085166 1.2360384728234543594 -0.36461611001780747099 1.0806508942052759359 0.80445293798200734336 0.32317748535178203451 1.5672087068813604915 0.91618028713150401199 0.2112088363893366294 0.39463461058207688348 -0.097169133966704096528 1.0592719828729770803 0.3249816372420188948 -1.5044376299879338443 -0.061264617879176627713 1.0088316588994021838 -0.28171936920705720198 -0.13909285526136594413 1.6254015193299631292 -0.77092031345065969994 -0.037377382320835025875 1.1206880383185415795;1.2777378086528357048 1.647865134614208138 2.2109520044942003736 -0.16837893514278290397 0.23865990203335246678 1.2279917058973335298 0.65193651819461606589 0.12691927273610001392 1.8004238977058186766 -2.0591096624689644301 -0.19486449189028229312 -0.37324809205506548349 -0.30190121609175579742 -0.46195547470968001402 -2.3750956296651226651 -0.41877584213605467678 -3.6642709878934391909 1.4088187664558655676 -1.5130145500126701563 0.76187447326286450444 -0.50540203917822812407 -1.1324119667907428521 0.76403206240334464727 -0.2291163273902485642;-0.39016500091996692001 0.25503143487914675669 -0.29997094142585856158 -0.19523135336067018453 1.2315139212560892723 1.9515078799449441238 0.66025760165597568996 -0.32341488631656206687 0.033000593759801598315 -1.0355011448476503233 -0.29413450495306253663 -0.030206324048234110824 0.91146278719109663502 -2.3465807909371454443 -0.72795024011406395115 1.7960284045157310917 0.58130504032425023286 0.25122207853486555607 0.25568511667737980897 0.44080929093192455781 -0.54972964329652218574 0.24593642435317530914 0.099285718407209871961 -1.0695332234544778771;0.76368888753681785087 0.64479863523646308021 -1.4077680407233521542 0.18812119715940628373 0.048171107661439560577 -0.47515112590717467622 1.4155802606693397294 -0.02194321945406158339 -1.3974488752578984041 0.13834819286144439676 -0.52424710233854465713 2.0161116597147041851 1.1255492351494928993 0.94352969782334006332 -0.83851943814500096153 1.6513377604484553718 0.67540156236035409076 0.98359855147557917476 0.82051404382649295588 -2.0700130259753470874 -0.63492077378931488507 0.89664916743895894946 -1.2043871923306805893 -1.8234869647777114388;-0.075215052216723116141 -0.19370279526993772201 -0.79127618940723076779 -1.023295474520972359 1.2729850627820065156 3.5622717845158353711 -0.059113888826469326854 -4.6280199460378277365 1.2538058785347943047 0.36674245875553890262 1.3518976874205599348 0.40553357929456207431 1.0302310996445780411 -2.053561390450576063 -1.5886623663696439746 7.3809978765582089366 -1.4091065131176130354 -0.36863374476090243759 0.037017202622406444879 0.47953042682098001581 -2.3709266073246153539 -2.6442129636485818267 1.5781063819365146461 -2.1497087757262511865;0.20502264554049182133 -0.67253268208949579243 -0.31162811054033545677 -0.4396076124787064443 0.57313622068014635769 0.34021542252449271659 -1.8438032277748284127 -3.1723529147648910076 -0.044353559328782737881 0.17917994780091026086 -0.46239178433695715675 0.49635437787617026073 -1.2766138834966980209 -1.5225064268817356528 3.4090577311380272363 -1.8950133217895150928 -0.0038528030639288354461 -0.41882641273691956219 -0.27801707061966707268 0.058488836149319850533 0.32019965890964363631 1.3523077642903338358 -1.2315952037590720547 6.0839427086309356696];

% Layer 2
b2 = [0.33769965037958837861;-1.0109520484617415814];
LW2_1 = [0.19145426905820991936 -0.83972070394306763674 0.79262371037391743389 -3.3289478542554218343 0.77157855329155067281 -0.55226843257541158305 -0.014465541756638954779 -0.71343843870485967873 -1.7346393152033749985 0.14809280798044807681 1.8496439243960569598 -0.77680349044521546098 1.7409681112519324042 2.3473790579401350165 2.1555473579397852468 0.85751833170069702295 0.29064093364441501155 0.17435188322604250333 0.71461580498905741266 -1.1695862353910377873 2.3845686790071698447 0.0046063710630862477607 0.058851932745299012639 0.58794138193259548597 0.24749931086755724841 0.53564253319959465038 1.0290180351345246113 0.40422707805882307497 -1.2681735916716370127 -0.25044675303796798405 0.49368325717769645511 0.71395321630223074205 0.24419878483976681371 -1.0836295404552283017 -0.59240267757670406201 0.58948954886039062195 0.39766274530783152219 0.51469159163864830475 0.04014813143269715251 0.62257651845669959023 0.48390751947376664521 0.24905342034915300964 0.43923026534863657266 -0.85411898316829171218 0.46576789813075497593 -0.51864170362721040419 -0.16104441287166607055 0.034900448026618208219 0.6584840130803699676 0.18999923009926431017 1.1504525103315992318 0.12017367746007209806 0.41819240820775999135 -0.40441456585008439539 -0.60368490167560961979 -0.12826600271436458534 0.37548808472778405498 0.69191742773389131038 0.37002647681653322298 -0.48310286044512618098 -0.79020202733384270477 -1.015430194495223315 0.69749466012867311626 0.40307330839000810041 -1.0749928971393383215 -1.232808295403033938 0.27839499602009376567 -0.018427164117994904863 -0.41980437457396552192 -0.59335002151632698641 0.73790889325415132127 -0.65526795975887464074 -0.84784239400134886466 -0.57257947383186025281 -0.56194650029481196807 -0.6437117443592398347 1.05853293575389662 0.45284779932414848114 0.77439775335471672246 0.083053222192627770837 0.7756442179825584482 0.55797856860718875183 0.57402113671511534321 0.79113189303046893563 -0.0052986171763904025417 0.21872257498461467051 -0.37579330531545873662 0.45367040199046332338 0.66940797003169061341 0.42640581577752284526 -0.35593907623353843173 -0.36088210944081627884 0.80187145656213343337 1.0139159755037181476 0.16886084000237350233 -0.95659521821896698057 -1.312113953391355281 -0.26082350457239750208 -0.65842361895927348225 0.29196062270789036042;0.21311080782411323531 -0.06061850146638180642 0.21811710958510321934 -0.27594874179559664151 -0.29924183607669285756 0.072185330330670788301 -0.13646692789768272158 -0.14446935098012617105 -1.1443533868739743653 -0.055642840802621607033 -0.40546908432242934062 -0.014070558762057176413 0.21689748403477898675 0.68177428737815148896 0.37271322111022198165 -0.088463102148290534421 0.38927042441374942738 -0.34905644212042730157 -0.078888613556863496079 0.32150341849720553977 -0.36955953020044612911 0.99486947445996409822 0.4128682760697032772 -0.054053539176174308922 -0.27389087145115531552 -0.030866448903744882204 -0.40831402686651585565 -0.10680103868906057341 -0.38693655064279919298 0.22911527789965446811 -0.054121560046239310104 0.29238620664163589291 -0.030492806507084555673 -0.11438118242433630012 0.65114997368059013283 0.12264702033269750392 -0.26714793411494669462 0.020435103992220204905 -0.91459370341771228929 0.94771525998500139032 0.31513590653545647813 0.046741982974110037052 -0.15160664502810458631 -1.5304070756161878286 -0.66390028437099801728 -0.086982140278806796552 -0.075162725568127350395 -0.20205341635987750237 0.36258715074726705074 0.06834680431369534459 -0.057697926062094742616 0.086036082855133325098 0.20759924042581950898 -0.0076259886505638738163 -0.34211133881815819491 -0.20982973860299786173 0.10593717893915557959 0.073535482743450703014 -0.13512909798751235324 -0.17445359930263429349 -0.03489967525126042025 -0.11368773089392991693 -0.21542229363846623902 0.31018022898390928965 -0.16140850249111465819 -0.14532187661347198415 0.13200067705997908796 0.88293000694069168066 -0.18068438322462870849 -0.12119174449190960041 -0.18860706446290875782 0.13451436766461299932 -0.0055299035365278144394 -0.22143130317679415864 0.81512287709299646732 -0.02764129744994385518 0.47521619281500970811 0.04323066472109689945 -2.6785369360833155561 -0.34114729675862109914 0.16349213466431805619 -0.12812430055805534845 -0.097588959491078541841 0.15025066834984054931 0.029274485627189685 -0.0011692201606995221604 0.0056970042195785570299 0.045319485661418981715 0.79892846464507982773 -0.38939325559765741724 -0.019235126372615828777 0.42891295964346193292 -0.073864681144009611269 -0.058509958376208058561 -0.31249343529020207066 0.068719317760154663421 0.33279011656079565684 -1.6816713635176734343 2.2615471246299616581 0.95347677167057942604];

% Output 1
y1_step1.ymin = -1;
y1_step1.gain = [0.0800227111322119;0.0800226083770493];
y1_step1.xoffset = [10.0002462740323;10.0001033766689];

% ===== SIMULATION ========

% Format Input Arguments
isCellX = iscell(X);
if ~isCellX
    X = {X};
end

% Dimensions
TS = size(X,2); % timesteps
if ~isempty(X)
    Q = size(X{1},1); % samples/series
else
    Q = 0;
end

% Allocate Outputs
Y = cell(1,TS);

% Time loop
for ts=1:TS
    
    % Input 1
    X{1,ts} = X{1,ts}';
    Xp1 = mapminmax_apply(X{1,ts},x1_step1);
    
    % Layer 1
    a1 = tansig_apply(repmat(b1,1,Q) + IW1_1*Xp1);
    
    % Layer 2
    a2 = repmat(b2,1,Q) + LW2_1*a1;
    
    % Output 1
    Y{1,ts} = mapminmax_reverse(a2,y1_step1);
    Y{1,ts} = Y{1,ts}';
end

% Final Delay States
Xf = cell(1,0);
Af = cell(2,0);

% Format Output Arguments
if ~isCellX
    Y = cell2mat(Y);
end
end

% ===== MODULE FUNCTIONS ========

% Map Minimum and Maximum Input Processing Function
function y = mapminmax_apply(x,settings)
y = bsxfun(@minus,x,settings.xoffset);
y = bsxfun(@times,y,settings.gain);
y = bsxfun(@plus,y,settings.ymin);
end

% Sigmoid Symmetric Transfer Function
function a = tansig_apply(n,~)
a = 2 ./ (1 + exp(-2*n)) - 1;
end

% Map Minimum and Maximum Output Reverse-Processing Function
function x = mapminmax_reverse(y,settings)
x = bsxfun(@minus,y,settings.ymin);
x = bsxfun(@rdivide,x,settings.gain);
x = bsxfun(@plus,x,settings.xoffset);
end
