function [Y,Xf,Af] = Anet(X,~,~)
%MYNEURALNETWORKFUNCTION neural network simulation function.
%
% Auto-generated by MATLAB, 01-Jul-2021 15:00:56.
%
% [Y] = myNeuralNetworkFunction(X,~,~) takes these arguments:
%
%   X = 1xTS cell, 1 inputs over TS timesteps
%   Each X{1,ts} = Qx8 matrix, input #1 at timestep ts.
%
% and returns:
%   Y = 1xTS cell of 1 outputs over TS timesteps.
%   Each Y{1,ts} = Qx2 matrix, output #1 at timestep ts.
%
% where Q is number of samples (or series) and TS is the number of timesteps.

%#ok<*RPMT0>

% ===== NEURAL NETWORK CONSTANTS =====

% Input 1
x1_step1.xoffset = [-4.99999999999909;-42.0000000000002;-38;-51.0000000000605;-8.99999999995487;-10.9999999999845;-7.99999999996135;-7.99999999999136];
x1_step1.gain = [0.0689655172413826;0.00782778864970649;0.0402588701678506;0.0240963855421475;0.0930232558141645;0.0754716981131719;0.0885110709979152;0.0816326530613593];
x1_step1.ymin = -1;

% Layer 1
b1 = [3.1264596599926499643;2.2911112067481078647;3.5635334724136407125;-1.8200423556056952723;1.9967799552379781325;1.5645894246801501648;2.1270403448088446297;-2.5495657081565941127;2.2486052384323236275;-0.86762475350404488772;-0.48861203040120076979;-1.7606679115068244457;-2.2607149722844552819;2.7114358982502890782;3.9219281870848043958;1.0022380716428083147;2.3258275754918988909;-2.0675218084226338888;-2.4808014724031006715;-0.75606296806210016026;-1.9665462956632167035;3.3527906428353619894;2.3062167825969086543;-3.6806512806208386834;4.7286110528992715274;3.4714592081559687564;-1.1717509400155621258;1.5384839812778232648;-1.4763937432320310972;1.7886992040179852115;0.19851514570926193093;1.25811146618957026;1.731353674436251433;-0.97257541326230168011;-1.6410561657382918277;0.32626435034492851095;-0.42882567547210315162;-0.30810907971479156719;-0.58777125826100729;-0.82024151293036184907;0.53654477418026713664;-0.77615051013028235616;2.2227826946806974462;0.14845373433047917566;-1.2512080205738511651;0.45915540768025897567;0.60202063703179242715;0.40428248824355117463;-0.030639112450757424039;1.1474960534526572609;-1.6587853350041734668;-0.51278555115760660055;1.5214177521167884244;0.042358885861939546413;-0.26550965090265932211;1.212903379373269086;-2.0016257228026463899;-0.18372444005922689003;-3.7761228437610609987;-0.062076159782001823217;-1.7791636135659003592;-0.13065353306923938037;3.728230401574633035;2.2056869515490244993;1.9619205687199203769;2.8451949926795312429;1.1543987170653229324;1.3278427144221862655;-0.089134566426327360711;-0.051679654276185621464;-2.0512888556285169273;-1.5356078270065025571;0.12992492503947269955;-0.39704369623214769147;2.0829036345074301018;-5.6083461690149940537;-2.0488390930782380828;1.0387575881863959637;1.7690836705280121866;-2.0043505348989461012;2.3086421220106290164;-2.1157135682845722435;0.6590320234134838806;2.5499130316519069694;-1.9783244466010727614;-0.94379472902512329124;-0.049309178747916536378;-1.6002360279645295726;-3.596636852041114718;-2.8727253641330641187;1.1334932472184717778;-7.0648221555891534962;-0.8310229130768029826;2.7797227806740290035;-1.8189224196092887986;-3.632952981319678365;1.0281577309516378715;2.4316759008274435594;5.053441908388261794;1.3251920591317540854];
IW1_1 = [-0.23863782177447764865 -0.19554848466841198706 1.5028030504800329314 1.2996006203826886427 -0.49032822779303492089 0.93481926466709108769 0.12774789540948600086 0.04894488080222966081;-0.50621997746490732251 -1.465111308890051145 0.96902575336680729645 0.75971942952611903888 -0.65211099055394405877 0.33632662340584507099 -0.085732657991994531965 -1.5958554438126884012;-0.91075062934346984189 -0.4725773352366645641 0.27250098517686605071 -0.66971260387204101239 0.61177003349206848792 -1.4138989839997682108 0.42505533300939790653 -0.91184346758534728927;0.34272750997564577213 -1.7756246099808969952 -0.52038677801818600255 0.30608966354378097652 -2.4409086965451058937 -1.1250352723343532979 -3.3381304432309062413 1.5344211262955835817;-0.42268561307145419148 -1.0193502376631704553 -1.0448827273295180351 1.1795025692351976954 0.5052761945134681687 0.025056192468547323904 2.0922545157233285451 -0.84789854911805395687;-0.16266854034253555583 2.6677266561039973958 1.1297730676879140788 1.7802918512125540662 0.08143974343561294349 1.5772409268534557381 -0.15528301239390240873 1.0422340523562088066;1.0350194249229798249 -0.70681860348606229127 1.3001643908230586799 0.066349880282617207383 -3.4116616163037374321 0.51332848878362102862 -0.12084358423721372477 1.5134639112407344275;1.2162318648908057028 0.62399109899388771616 -1.5725085703794967618 0.2746064885731869798 0.063247398128072118695 0.41821802447391770441 -0.81969636607791340754 0.56925182219254255589;-1.6019795343713896241 0.3517450316241279018 0.75824531941156192438 0.081278452505461729061 1.0983291138554589494 -0.70891698999177865659 -0.9393863216139924921 1.8023653652727040786;0.0050065128068167430442 0.82922540267391275925 -1.2761629125746170033 0.88027424413071098108 0.070433189946590521457 0.4710810479227806602 1.1904240625619564309 1.8414095661380940339;-0.87540357205030172594 -2.7455067188736714812 -1.5182218495786687917 -2.3203521929540342761 -0.079435889172813398118 0.23529673745199042312 -0.85964290044377367206 0.64124275251023787892;1.2824788850797221862 0.098280887166241809316 2.1649757198800960722 0.69690678060015498474 -0.11114997178646036924 -0.55620205607190875696 -1.0739021626343985272 -2.3887806310055736958;0.090425695230603328478 1.0595157522207774292 -0.53141642575145087157 1.3066144448612577733 0.19323239175413589597 -0.39830145972918185038 -0.48522190754391891776 1.6076931326353334217;-1.0999170433824152493 -0.83698424910971891411 1.4953591577544571578 0.56193471184853061029 0.10184342237630224226 -0.84851635451993046022 0.87999430497687980424 -0.25393797427273295808;-0.48082816902214303711 0.32905347548082419795 0.0019947217824746654377 -16.775355669577937334 -0.7615262127586319707 0.75669951030597326636 0.098672794986463141509 0.016053095248447328547;-0.57905585018875638248 -0.2643385167557795179 0.3522967453761127743 -1.0144505153893412785 -0.55190990294190422905 -1.2924758708484522796 -1.3688508355547865936 -1.9622903348462048534;-0.20146376889751618777 -1.0683596330670190877 -0.50286728582002848675 1.2475571859973952904 -0.80751254388133597573 1.1291103047363317824 -0.4529662039100713633 0.31585116925136880184;-0.29207723847916244875 -1.2280053924221681072 -0.43857896781226335392 -0.89973654462813268395 -0.57954725133874096521 3.1449577320335233566 0.38066589909096637534 -0.95902223651310403163;-2.2900925990946054966 2.6556128814123463044 1.6475859368170544528 0.93056829365658533249 1.3184749514942848414 -0.29949072209825777779 -0.21929322099353826259 -2.8473704230183787267;0.34184940124133095241 -0.70143735403372520221 -0.33854554793671998159 0.064663627260831801902 -1.3509428890198518225 -0.55986327750851383467 -2.77997237816797238 0.89505058366862266794;0.19765824372488238758 1.0577559511060594666 -1.1121273176122681292 3.5034024812451423081 -1.908348383245598745 -2.826829269299085734 -1.6699105741079773857 -3.0145382090073193915;-4.2303530011432100011 0.16855796047344948074 -0.036514128767089371053 -0.45525999915715598121 0.84303571457244119713 0.39618406617577439643 -1.4625472262770136123 -0.72052887494189821194;-0.53793254845060989311 3.2644012599989489232 0.95472875515473432095 1.8000677258724668839 -1.5477246151193964074 1.3009861503339001931 -0.61950073548490935949 -0.28263480302798726918;-0.32704600339525485841 -4.6959529841834024566 -0.94657693306405021882 4.0210287158073327873 3.2966777765984058846 -0.37073300985160689835 -0.68597180281111747036 1.2187837634171847512;-3.1868217969508489951 3.0507602589543023619 -4.6376477942331630899 -2.1637499618571633953 -1.8498325822245724748 0.74124109145718297675 0.51741086393531987575 0.23211376005624184682;0.38426996823547548976 0.89212600178295498043 -0.18023572390219930184 -1.5347549526779682427 1.6934740559617638134 4.1391960343281235524 -1.7537271529965070549 5.3947409713187299829;-0.050466571987191469195 -0.01086043541577349017 0.28339344914395159236 -0.88055630568739662323 -1.9388864329756105853 -0.6608664712856877621 -0.22988810956184535517 -0.2409671986056585169;0.31991750371845911749 0.30088543976695986126 0.66897029553657805234 -1.7585047428937590208 -1.9430394813402007692 -0.76456373236974028984 -0.20063673991536945529 -0.24634821243560384163;2.4381563358338165237 0.98322160281168047291 0.48054679579871967254 0.28759647837816998406 -1.3655835819508035378 -1.0182600765883993432 1.0079657065225009482 0.62382006586126070857;-0.7942532090690066493 1.2149730998731107512 -0.045319599061317016042 -1.9465986436232407542 -0.093460412529013811578 -0.056990707522394205842 0.33578217905125573584 1.5123836819297020728;-0.50354678370727645742 -0.36146292253947098772 -0.039372318444047420261 -1.2183282576307556955 5.8252772892460171761 1.041229331026121363 -0.65621232679474239546 0.86807658808360721459;0.30552973442539632654 2.1634174723693950781 1.7988161358152652269 1.9473552924455346247 0.19867492477502671222 0.53186585912587125424 -0.46276521760733396738 -0.17271567650088809343;0.59101496771125905383 2.4170192362783664564 2.0332632872837921312 1.0688187191462512615 -5.1640143710063046711 3.3094539981550896712 0.6013048846642738976 2.6792376373472577278;-0.028078206860148672425 1.251871502271215908 0.63529219004795334236 1.2290318126024357692 -1.2012556769646134391 -1.0843508337623617432 1.5095431354014277048 1.3827154224941315963;-0.3759248716372315946 -0.96671151108164499188 -0.7608641061290299934 -1.37222645955166489 2.6345331839841912291 -0.26027860348814196856 -0.76814780908137125781 0.40397334635311155093;-0.15110536493795836965 1.6774004925293264368 -0.25213247698696689136 -0.065326344919991424787 0.72607130775497785713 -2.1882539000932985651 -4.0184857071665316397 -3.4017450045048738261;-0.12343442268872707734 -0.32907287641184324034 1.1787078794588108366 1.4248603020334638103 -0.45961710713429526631 -0.17533853082370925991 -1.8825818043589233053 -2.2271737783016960499;-0.38379810584903795156 0.75213741396482236556 -1.9335735485225939989 -1.780815435094694088 -1.3388524684177232071 -2.1063590058608951949 -1.8058241211536911752 -0.91101394350600506389;0.28175638984238465801 -0.1115558106656977938 1.3475279625879494905 1.685980985431495105 -0.1988197209233014684 0.38083007099718535482 -0.27464601352742568086 -0.10559204842186255269;1.004000564921678107 0.68083250649949333955 0.34667209885912952938 -0.85584525736090244497 -0.17311453281858002473 1.0239242239092043452 -0.90572147579978778964 2.4461727363737311158;-0.11639421059392292268 -0.62173364808531039749 -1.0088445010964826043 -0.26593797549424758042 3.0973915034022296844 -3.6034357397844183346 -0.41214875321163568778 0.42723239217746750152;1.2023763118945849371 1.6372866758966055922 0.99771265105658624162 1.4388802313619237783 1.5487521498136065379 -1.5433094254388279865 -4.2575284029591058399 -1.8335231324493568295;-0.44791068576993053885 0.61524144940267466719 -3.8521218983956830861 2.6316162863283931728 1.1875223500469580529 0.27260609631631671501 1.3905281829229938495 2.3964526633487523988;0.53250452925466251752 1.1872066508644907312 -0.35851673723635052449 -1.0972795633526633008 -1.04887740747653746 1.1841235906510452214 -1.4836652031615684688 1.6057746062653468488;0.85592899314734327554 -3.7432900880183077597 0.61993346349123212846 -1.0725755438768236338 -0.15625558327101557454 -0.71135961456058505181 -0.074171544335786043778 -2.0756196820227814648;-0.34394414485932073289 -2.3404487343531501509 1.3864124347986328534 -3.2454259263597515783 -0.49157712971312600425 -0.56439664959896485019 3.3881184950703686631 -0.52627487982119991461;-1.4945388626409588095 0.14748294695229080542 -0.30441532907227331073 0.75888612514067743664 -1.949680615472829226 2.7443015240222958795 2.8523495259431705939 -2.0508310380247269933;0.48741688352306011822 1.4425163910483267404 1.7329699926244250818 -0.79907084472653255869 -2.1303148703722452062 -0.20035163896337590539 1.0043625181440185568 -0.17953739903981011383;-0.055837564284344914922 -0.62446474603590351737 1.1941261824327331631 3.6576569968596235327 0.76364509937168500997 -2.3776468834739517 2.5341747531103866464 1.6022555783940677365;-0.13045191689124274736 2.3072839832554579154 0.63603653366695012128 1.2903672285802345598 -1.1173909671074897521 -3.2630973820501911753 3.6530885626572899838 -0.078448791648273133448;0.47390292825480712091 -0.58251795808178796765 1.1795717797546587668 1.2539885176361751373 -2.2351811238380117075 -0.3580101287366893037 -2.3307542677234480699 2.2276202735097614394;-0.093803758231187681083 -2.201297054785148255 4.2246735074812109545 -12.114061747826337267 1.0773984737953408164 -0.45651443173316513802 -0.94816563895201644296 -0.1112679593901187286;-1.1645633305127400803 -0.62981976327234201474 -0.16257236261881455319 -1.6848713418332710301 1.3393538285736261706 -0.5292631851852853675 4.9942580054869543105 1.0383927466962217245;1.6333526962684492556 0.47821817935529670196 4.2767786339493012449 -5.3574141424773014108 0.59251608803570920969 -0.87723097061128363361 -0.49120769237183942169 -0.2429857137948933099;0.23304029252432917341 1.0281356996088295563 0.55732274175068730049 0.57954207472251018096 2.4775495713720201429 -5.8015281518955061912 -0.15453700234227985 1.7266372511745939899;-1.9057085201366013028 0.28916346856190089376 0.27524156657894416345 -3.5835560326433943956 0.66788226767558100949 -0.32266714455859524247 0.80296496732866950996 0.76846148310947981486;0.27966577493823663314 -0.45669394445645800085 -0.19992014073204233959 -0.72697097916486697056 1.0805219214196206678 -2.9166701450799452644 0.83428323984395669211 -8.252630352204258557;-1.2306802597297143986 -1.5457825428365870035 0.50858131421589480858 -0.72818991425636159232 -1.9204012991678003353 -0.4559553393777849295 -1.6140766495887870491 -1.789197456102316286;1.214752950779516727 -2.1423600195624654674 1.0277985505227096308 7.4177558222616060135 0.17378853103887112463 0.052921551095044407076 0.047403344202389195716 -1.9827479511654013677;-0.075256682022410287258 1.2948809084243233514 -1.428247048797664176 -0.13449191494307355388 -1.8510660344339122663 -0.9188633425828651724 -2.2325582716839238451 0.20992663987731224884;-0.60637799430263961131 -0.3670694539043341531 0.0062088540317348974579 1.9333435592277050663 -6.9161549423422403748 -2.2240178707140474401 2.7910449945711595099 -2.2830216164977592541;0.49223303962701775438 2.4846709887968270181 -1.1520572225095759844 0.76686088384067774282 3.1990579920555259896 1.6352041226240603411 -1.1554642947828557276 -0.77189080662547104872;0.53523538237997869693 3.763945547510551215 1.1880279114047382905 -5.9508916887297313991 -4.7856616671036595889 0.18098142382061610522 0.81997268241062060135 -1.0697154373290065354;-0.55072698016238041951 -0.15021652013539393833 -0.049326703997800688817 -12.12513276234549231 -0.33771986847648832741 0.64692017056811856879 0.21558834358118589281 -0.11180504246959678538;-0.80070043264234558311 -1.511501618157296889 -5.0864013043230507094 3.2868156087455240311 3.8024612574768816842 0.90582420870778435074 -0.59790227848228383323 1.1616512941165515471;-0.083516183696605281184 0.43852911738301980638 -0.15637260717750350869 0.41798309492261548348 0.96223458860454291752 8.6743547334443000807 -0.92080298436278174012 1.0884051731886843495;2.6970677531282438721 0.19472895959989064418 1.0544331102946511436 0.30896629436263878254 0.33681150146053540073 0.18257307564516320197 -0.51368443249310091758 1.2641276820486204713;-0.84676757193945517699 -0.072408503794249470809 -0.0067006027991689982859 -10.001499619073470626 0.33252616012487928865 0.77602252558159356965 0.29193997154786144321 -0.21479130658679884691;0.023281713030611512344 2.0310970257152232143 -1.2284470896380297322 0.46738737339395486359 -3.4684372481216572126 0.53370575530044606083 -1.1926914022012444772 1.5168491315852903334;-0.87734798687655501936 -0.058734541002989026914 0.33150784815814104967 0.21698721309759769205 -1.8350748058372794436 -0.20373743617121828353 -1.7979558822802195195 3.4464418883947285366;-2.7633982377365660099 0.42287310349165307954 0.29313538151239537655 3.0062996011999927326 1.492840490123447994 -0.004791562501019231389 -0.26571562687275157577 1.2304560848595871292;0.30321675556917643268 -1.8642707761202934602 1.1467165128706158228 -2.5542998501214579932 1.1352480959008264261 0.73389320329463658688 -0.83418380064461916668 0.58159293758548924469;0.20165557081944343598 -2.838341335595649717 -2.7549555901014479709 -0.50485454400231544181 2.5283075988986634108 6.7030381613622882497 0.011557686562599530505 -0.61258934597983916159;0.87624720517024290434 -1.68860051380003795 3.4235722182266954405 -3.8034143025204545374 -0.23699678380233618613 -2.3300587722224670451 0.68472564679846692481 0.04438215487651066965;0.075662780330662371409 1.2444419841729186249 2.5199753222542797815 -1.8993024548167216636 1.8627681841078838065 1.2213152213183215977 -1.5300680494527845177 -1.3199460020565669804;-0.27521005660188502251 -7.6102436265588853104 0.62452917811959129946 -0.61268033733282167841 0.74193697491207588612 -0.25516526581172049859 0.83822758322355228611 -0.69938430339350177167;-0.042243010649680258484 -0.53442134123474438478 -0.10198116696175482665 1.6192056048688487913 -1.4913853682657778332 -1.7421196819085140728 -0.80041263280079943954 -2.2841086082413655234;-0.62501770497001896132 2.5519084874003024055 -3.086239964941498215 5.9662917621835092064 -0.62514411776977729662 0.97956278166334331825 0.99744983320149593897 -0.0070636357641729831044;0.53564783093147827486 -1.2915327215008662876 0.32410727807426620295 -0.8121331967860554446 1.6456509739484395105 -1.6414959711269228038 -2.1256621489105107514 0.50042618086842727276;-0.17696442511039847667 -0.032602278187623179306 -0.32647487615814624329 -0.39445897462301982017 -2.1480505563208081021 1.824989672025513654 0.26450751232015895509 -1.5231699697436049679;0.82104698633819261921 -0.76531098797418117829 -6.8868049072071544359 7.3202561640544789867 -0.63127166493702102645 -0.22356572326691043218 -0.049715682925239659817 0.30659063790982948872;0.41173011301520534566 -0.83579102960066709027 0.62042501515826475877 -0.24951321780214552604 1.5566495428086866148 1.616869760174247217 -0.54142846454189597072 0.53669413759085837778;-0.11908930754978386268 0.13784437174976746365 0.30726399380388608185 0.19179125144745007292 1.0492043255310012917 -0.12634845618028628378 3.1372337278783999359 0.77020498152895999766;0.643140073101473142 0.32755974193360731794 -0.24782440658112764309 -1.0600747525329057286 0.99770089086144209123 -3.3845901800734843334 -4.281974988350269129 2.2816387776622080175;0.010193158540853120009 -0.34006700912677517712 -0.48787706791432078335 0.036681882244320333786 3.9164279912693080732 -4.6433904312780933665 1.4659820103506402411 0.34608897114771480785;-0.45146785541129913488 1.9110791947189293971 0.45408991701384637807 1.2558136049789412336 -0.061986271298643536021 -3.2552403768115736327 1.4641859357732422975 1.0690441729737398813;0.17473791684622075326 1.0507524196189916843 0.074746234994958915543 0.2977849392151197816 0.79254960088851345024 1.6124688924495129694 -5.2697506055902998412 -0.13339693277825107054;1.1043554894096816454 1.4462251633929832373 0.0029628716980041871695 3.7179532004454647343 -1.4997029632751195383 1.2858523886666803904 3.6424246142318983388 -2.8250369542652475907;-1.9711654888208385294 -1.23316723888549995 1.8765652208160730208 -0.15196873999562621194 3.1807242967391751165 -0.69666767367028703539 0.18729386777357609484 1.8483683713033989271;-0.065196936032558633345 1.7627614743571236033 1.7877495339314899425 -3.2620735645260641178 -0.0016002659665977332984 -2.0035923989829269587 -0.28481640126515150868 -0.35583606258234273811;1.201373040840225892 2.3226392490604395036 1.9322005832706661277 -3.0183685296366911111 1.3544185186342256877 -0.92830615074540701048 0.34796462297782149165 -1.547831791207686658;-0.15449213773651981896 -9.3567671984090878823 0.81707719703942605083 -1.2891468520269853126 0.89691484651486663715 -0.14393720546883936873 0.66525163956631205853 -0.94786565316137549875;-0.10387998792465170939 0.092703667572540893183 0.10800229981962358727 0.76406080058803904631 -5.0885469479280516225 -0.14925788765171502104 1.5623992171071063861 0.4807716340446366865;0.74752476311921745022 -0.96045588143571780648 0.46705539835274734184 0.95276666489084937961 0.04321257485488807365 -1.3384842083433552418 0.36173167981904569279 0.23404755640802751837;-0.32783891898656669639 0.82910349490531609629 -0.75685670700442819747 -0.57465032519743552974 2.6971394789996048225 0.45787725446901667015 -0.85701726627289187554 -2.4844061698475088384;-3.3618193725930409776 -0.907861883830374361 0.20438796736776559948 3.7559042112221452392 1.6190526442861115086 0.4310424788012283126 0.29538953882388840899 1.0320265019846575072;1.4947157332998908252 -1.3688289583633224122 -0.93312984877211979651 1.449788223648841079 1.1909592914403881458 2.2393127008330413474 0.74908405293524160662 -1.1130564958162256772;1.5988244476936384064 -0.97318546729350152713 1.3194534096386625333 1.0384329103881160261 -0.7023349802483667137 -2.0374855728392842202 -0.19173283943153821007 -0.51979601029027278081;3.3456630681497001589 0.032546722260232453794 -1.990911527923874047 -1.0433564799723129557 -1.1603738733302666475 -1.077243990329679546 -0.1345524987721054555 1.8128132998489050465;2.4499498851937535626 -0.58771628532705433301 1.7369730605379860577 -0.8389188467384027792 2.3002343273619394459 -1.1487587993098278272 -0.67253836742105954638 -0.34174271882513695964];

% Layer 2
b2 = [0.45382649701122895758;-0.66145693343753875215];
LW2_1 = [0.19887514291978158898 -0.71042113547343865854 0.19092144900174187749 -0.45527389067248952292 0.27990797592637078894 -0.37014841937340053901 1.056692053867665626 -0.50747765990154847238 -0.46635102497296671009 -0.32658627739877355012 1.0413936720748677711 0.18877406786070138889 0.99901887088646323942 0.3465787059562558392 -3.1114164969139781469 1.6049709179254350033 -0.93244730895845051588 0.56758250944468791044 0.95542550896238576108 1.5611405389140435851 -0.026940993522766815832 -1.1928451283677601324 0.40756507212012194064 -1.8231907051145983534 -0.40053765834228721721 0.23416907743332252001 -2.6338607898949835118 -2.3558660641853559348 -2.3109333482963116957 2.7706299697578287144 -0.58060368373092163807 -0.83609310082083321269 0.26245098444250614111 2.2266854573630898706 -0.61174226707527901148 0.29803379523692657971 0.033504508674111088684 0.22665877819061946985 1.5713490983890929797 -0.47900137046007651431 0.43443918206065035292 -0.81400259291165910636 -0.29831193219344476208 0.9286346478182930797 -0.7167798064779320466 0.52964512635695171205 -0.51455383696559431339 1.0274451800373258781 -0.072557322453754444225 0.0027747954319623296601 -0.66443096896806408402 -0.89142478325686125284 -0.8294608080643082193 -1.2374959375808614048 -0.22384097339192404741 -1.2059997509356739087 0.047103749753960685864 -0.91863023190344383906 0.46159090991420681505 0.21029948645630397452 -0.20417691700198756233 -0.59575817083637261362 -1.57488938341675766 6.8301388274287733182 0.57972443518036131938 -0.24026795576251094855 -0.20269526394623088583 -3.457054890749320375 -0.78764629026597454686 -0.35002363518909918039 0.92215080123362547226 0.31301300462231973487 0.31078659805830305407 -0.42657995133151616063 0.27516329403292616451 1.8363434037140924371 0.93503310362389369104 -1.3265436649652730949 0.74922876709647057147 -0.13870529069653972365 -0.72832932073129685868 -0.47804448639789592912 1.2837461862332428808 0.30664131167319347293 0.27583096585786387456 -1.3856633801601372369 0.17597730495536204054 0.22962640437301581886 -0.27012153911609898538 0.54318354061928941778 0.67619991642277199606 -1.4830102890275744798 0.24254689432183673681 -0.2526805186659343283 1.3361578162654579316 -0.90211909559863323604 -0.61537806602570754855 -1.1347314788622695492 0.94518046800006483288 0.13941669170056678051;-0.69857113044616647723 0.021347492331102509155 -0.0024932271455435765263 0.86868079645557549906 -1.4472871445887691699 0.97394848190279481592 -0.74594259251312000636 -0.14769654247448457673 -0.23617845236946274912 -0.73048203791696197928 0.13766092465720455862 -0.80113511954791627456 0.85232349591987754955 0.25817876477665274715 -0.39794155718680152001 0.13409028933238820169 0.42717995391054913723 -0.61979595981150736872 -0.29556842372386471496 -1.9031479155407102777 -0.90892721032729750785 0.033774799553406037456 -0.64002550975375638309 0.027475352533550972262 -0.10808699762734945427 0.77497815679492509933 -0.52039119072243067432 -0.63228331297504503095 0.13925535346325088049 0.37919132658723636586 0.056931028759514917814 -0.67477426541830798357 -0.27297881334586004964 -1.2564782247993340203 -0.88892793586823670715 -0.41984839256715145162 0.33081377540201950538 0.92943223328364799052 0.01859351069391506836 -0.85819222770256498034 -0.48577343493160068943 0.26481024637667799349 -0.36432488461959067205 0.78622773681139324076 -0.45602863117981190522 -0.094309316033386783595 -0.1921532475955470276 0.33664217064798790391 -0.29071024309719467604 -0.38729293191823033204 -0.10221960089960475948 0.031169991625854959194 0.030760884451178117927 -0.11832443806958303778 0.76754388274152274274 -0.13274575313588987679 0.4170871410603547158 -0.10157615674161916963 0.00079150303060006961184 -1.5225463955412870121 -0.39553714247779081514 -0.22037172125620310692 -0.039932749581013428364 0.65229801664053221888 0.23748471918611335774 -0.63825428799349159803 -0.30675299063770650188 -0.21349808677756365594 0.48526631087700872191 -0.31387426302110116305 -0.13098088671782051606 -0.50752353420007190188 0.20940195139725398255 -0.13376681702169351817 -0.043950846020757390609 0.47412522299290837946 1.7472331109864718268 -0.18300484218877802189 -0.53637729126321231909 -1.3414953218878884478 0.08963856415120742549 0.64593543871538794399 -0.87209063048994106548 0.12353378432897242634 -0.81104088611297442402 0.81072580849764974698 0.25499651013206275918 0.13101907675391388786 0.24819914004585144629 -1.5145908702228640941 0.31804817831318438204 -0.34345773185116434956 1.066445459871998791 -0.41462743764792175938 -0.60642777130486991144 -0.076701551012007582186 0.30140177253688876791 0.17228650908933257346 -0.065516810088994473227 0.37083325999255917216];

% Output 1
y1_step1.ymin = -1;
y1_step1.gain = [0.0800227111322119;0.0800226083770493];
y1_step1.xoffset = [10.0002462740323;10.0001033766689];

% ===== SIMULATION ========

% Format Input Arguments
isCellX = iscell(X);
if ~isCellX
    X = {X};
end

% Dimensions
TS = size(X,2); % timesteps
if ~isempty(X)
    Q = size(X{1},1); % samples/series
else
    Q = 0;
end

% Allocate Outputs
Y = cell(1,TS);

% Time loop
for ts=1:TS
    
    % Input 1
    X{1,ts} = X{1,ts}';
    Xp1 = mapminmax_apply(X{1,ts},x1_step1);
    
    % Layer 1
    a1 = tansig_apply(repmat(b1,1,Q) + IW1_1*Xp1);
    
    % Layer 2
    a2 = repmat(b2,1,Q) + LW2_1*a1;
    
    % Output 1
    Y{1,ts} = mapminmax_reverse(a2,y1_step1);
    Y{1,ts} = Y{1,ts}';
end

% Final Delay States
Xf = cell(1,0);
Af = cell(2,0);

% Format Output Arguments
if ~isCellX
    Y = cell2mat(Y);
end
end

% ===== MODULE FUNCTIONS ========

% Map Minimum and Maximum Input Processing Function
function y = mapminmax_apply(x,settings)
y = bsxfun(@minus,x,settings.xoffset);
y = bsxfun(@times,y,settings.gain);
y = bsxfun(@plus,y,settings.ymin);
end

% Sigmoid Symmetric Transfer Function
function a = tansig_apply(n,~)
a = 2 ./ (1 + exp(-2*n)) - 1;
end

% Map Minimum and Maximum Output Reverse-Processing Function
function x = mapminmax_reverse(y,settings)
x = bsxfun(@minus,y,settings.ymin);
x = bsxfun(@rdivide,x,settings.gain);
x = bsxfun(@plus,x,settings.xoffset);
end
