function [Y,Xf,Af] = B3brokefunc(X,~,~)
%MYNEURALNETWORKFUNCTION neural network simulation function.
%
% Auto-generated by MATLAB, 01-Jul-2021 16:25:06.
%
% [Y] = myNeuralNetworkFunction(X,~,~) takes these arguments:
%
%   X = 1xTS cell, 1 inputs over TS timesteps
%   Each X{1,ts} = Qx18 matrix, input #1 at timestep ts.
%
% and returns:
%   Y = 1xTS cell of 1 outputs over TS timesteps.
%   Each Y{1,ts} = Qx2 matrix, output #1 at timestep ts.
%
% where Q is number of samples (or series) and TS is the number of timesteps.

%#ok<*RPMT0>

% ===== NEURAL NETWORK CONSTANTS =====

% Input 1
x1_step1.xoffset = [778.999999999976;821.999999999995;786.999999998911;720.000000000001;767.000000009249;651.00000000011;778.999999999976;821.999999999995;786.99999999887;720.000000000004;767.999999996994;651.000000000536;777.948481818595;817.000000000081;772.000000001342;721.000000000005;769.000000023952;652.000000000141];
x1_step1.gain = [0.124999999999328;0.0327868852458627;0.0416666666640404;0.00660066006600662;0.0249999999998334;0.00537634408602455;0.124999999999374;0.0327868852458627;0.041666666664387;0.00660066006600668;0.0253164556921047;0.00537634408603084;0.0950050244795142;0.0303030303029479;0.0312500000082251;0.0066225165562915;0.0246913580387659;0.00539083557953944];
x1_step1.ymin = -1;

% Layer 1
b1 = [-0.66447839094417382455;1.5433038647630663576;1.7853719146786859451;1.7027486007126704237;-2.1630107312250168583;2.0941397744723535546;1.5304880416399075926;-0.89287609151353120041;0.76746026415599088999;1.571434266166858551;0.94744989529573364617;1.5205881279321624699;-1.2758978349837268862;1.5781119113840449408;-0.66685643269868211114;-1.0811635291826484639;1.1499061947809294804;-1.51284434004818924;0.76515734602590501634;0.76140996297364604839;-1.0835684111575185629;1.1966205515266894466;0.88128792538319100647;-0.94365198940977879083;-1.8741870368541464487;-0.42943078707024356921;-0.83865239651931133835;1.3628793455150784997;1.4888726143630359733;-0.4716617100440830268;-1.1197617748203709809;0.81207063803612844488;-1.2646572980449086732;0.16841370887407686174;-1.3351293079823283172;0.10412862041076037523;-0.40542988206576863197;0.043597948561812469026;0.81345709635407348337;-0.53659279431571338392;1.6028812409198731626;-0.68105682527134958626;-0.15210173376872271334;0.37041970839702142992;0.61537272337245640941;-0.76660095412299400497;0.23867564850324757275;0.34627968692724198085;-0.40386444260976234188;-0.0039041812456416247201;-0.091741441430703632443;-0.071905120656650098332;0.27704722067243225947;-0.25388182996215385989;-0.12342087982659967482;0.31842908987978152391;0.37179459339603759815;0.28302945272819923783;-0.39782867711036118408;0.66217469389102057153;-0.3228526510784452408;-0.63276610960020895913;1.204557883283554176;1.1348128374909467464;-1.5404269803949772744;-1.0635143792738368518;-0.46107620022202089327;-0.36358616689377082354;0.46692171940805166086;-0.84512589915035774002;0.57304107614863541986;0.41108639018114384589;-0.27047798893445895718;-0.59938163668757582503;-0.94907317922559075729;0.94548906437833823979;1.3655810629156575065;-1.5275566670498004207;-0.72259887111428755535;-1.3873690508566405288;1.2518520424916494971;1.1399768401939216478;-0.84654173038934465989;1.3484865948891271437;1.0679098373646889186;-1.6532140582857748345;-1.9671609327330259465;0.75064408193382026191;0.22646407963845177624;-1.2023892322387024212;-1.4540164684664067529;1.5852618854400357673;1.7989069434318329943;-1.8887058497406141733;-2.0770602973498113464;-1.7065289243991419443;1.7522781915608989234;-1.905831705445105495;-1.1293844648951829601;2.0872175312279046544];
IW1_1 = [1.5027683231981976419 0.83875428191000311884 0.730588112002179213 0.0019822614864073214574 0.59721846479389084639 0.16324351452785712535 0.11864608916814120554 0.94885491115244613436 -2.6578238631281760895 0.11025503893222569907 -0.039090276146229743781 0.14822316794425927089 -1.9686352177456285517 -2.0961336957000717973 2.7023153499921246379 0.021193621897809395566 -0.9062583507685831874 0.43712143554823429392;-0.59130731630807498167 -0.55752955207778065461 0.51961375869391501769 0.86228769901934188002 -0.40020755979203953556 -0.20992652199246181199 -1.4124507785150521855 0.28115352068253485207 -0.50189729900442536792 0.47528963689100589551 -0.30039891671779839211 -0.12121238341904062852 0.43652967299054573624 0.83725410397192734369 -0.25194307582647990085 -0.012921203830684849928 0.026829843955942157818 0.12881284137670556689;-0.69071597158541075956 0.35311354015704954357 -0.26827094394447381642 -0.49057800960036929139 0.20798171801731243913 0.44212586413600257762 -0.058373687455972329829 0.57303474717766444968 -0.61363106760177821286 -0.60771435313445931747 -0.12028852202682301098 -0.31458747831740707657 -0.30848614977237126533 0.34986911050366897857 -0.053665351287124810065 -0.60670110947150757141 0.23945766833339066082 0.25769182442906424235;-0.72179934992524197312 -0.20485852557672082352 0.53853589474440510809 -0.68135363315220798253 -0.82010811382190362817 -0.10231374351704906889 0.14232338892214507764 0.50082499038762673393 -0.51148150284885618433 0.1945207349662053109 0.29059860989944386045 0.24241131343375346696 0.22367537969143375109 -0.58179726292478251004 -0.12824388924329527262 -0.63229950276880886317 -0.17349632564210956676 -0.35112587215372753624;0.59192685961127333716 0.43618920620070444905 1.0091896888319076275 0.048564657123442378506 0.12827944753792236421 0.73307384031026601168 -0.71550338749800435068 -1.4059147640281448588 -2.7569153888316417778 -0.13318719440619056216 -0.37372547879294965023 0.16898159275667098966 -0.11791279796776588107 0.69555301342583586433 2.6704600051167677321 -1.2964028121635420288 0.27011793965583724697 -0.28557392521958074871;0.27573874194757386213 -0.21915332233297835085 0.049900643777710473881 -0.13922967695960294932 -0.9878040154984568666 -0.52101673714506702151 0.26055747327199230146 -0.39967074878331931842 1.1306561230994247591 1.2498503644034588689 -0.59298416847004420394 0.80201792647521374935 -0.49724466102878595031 -0.64473994362791775536 0.14967396237402572079 -0.27351312873962085881 0.46191614531965402568 0.10082841793057627233;-0.40299683903479777136 0.61634871669841739816 -0.16737506016335751413 0.77225296207483895561 -0.39623530018915209538 -0.20460103897578910126 0.83285272864145820648 -0.27731369333910882435 -0.34431677462959753289 0.28311741254576211491 -0.41377263563407457037 0.32141069382809073218 0.039590753129995055748 -0.71142106127600512888 -0.51072033704690478206 -0.68076164471714051274 -0.19378413005342431941 1.4126593988822859771;0.82577170161355206712 -0.0078408195942600410894 0.16318953083470297272 0.30173417364382970618 1.0413401712052854364 -0.015857469628109403803 -0.75586583367916648779 0.25325959224490929289 -2.2990849847281999985 -0.23954544968518706738 -1.1106596511228898905 -0.89240052763861765772 -0.087297974691580348949 0.15447221356210383281 3.0172810327011143627 0.31879250511315787575 -0.29504201003001923054 -0.28148019230706999849;0.84178479658228366755 1.0517885444874823797 -1.807873464789689022 0.23918099830637409853 0.81525625179385885488 -0.021712853144841903069 -0.58563809300965219418 -1.8743779806472844474 2.7695763654681573307 0.54212636692975491037 -0.67779135461182271616 -0.1605257649318709845 -0.9426174027862924687 0.62269666828474867781 -0.059873009952618808094 -1.5274607848205374871 -0.13672869732324838266 1.8462859061526322169;0.025940137744280750143 0.35555811400723075222 1.1086651665194184879 -1.9798536730773246273 -0.098097732778322399572 0.42960862712744052327 0.47412820852182552267 -0.80703003618919277873 -0.33960739192711092427 -0.26611465300115666466 0.21023365708078550762 -0.29955568268471932658 -0.63087022158212946454 0.29047805929306541595 -0.31995252020195830145 0.45118342575343572953 -0.043173344465468832531 2.321539291852946274;-0.8598193982518623768 -0.082377477475133353835 -0.56536414367564802319 0.24558143646416219497 -0.76579438640765906676 -0.2993479344004794096 1.0215407622363397167 0.37196660968030742511 0.7482896175370959968 0.16484212273927206782 0.74083747967822266567 0.1765335632986336778 -0.24578989503885645407 -0.48053727114151512101 0.36710835558781385046 0.11882024538604121777 -0.52154561570186031005 -0.047367611189999471455;0.63492117655086877104 -0.1269871213417999023 0.70815859194274544119 0.8451144254966915792 -0.13595175700891604098 -0.77837579348962360193 0.059376519088985356409 -1.2147769177604967883 -0.44306988668973318335 0.50163374294638285456 -0.23165611444227435234 -0.48434999233297254539 0.38554723145041847054 0.026193966451613731605 0.51462754005071842389 0.20406666864247308135 0.19977630998177070554 0.18600988976357435423;-0.011964591383427106153 -0.11788662103447050677 0.07557875146436414393 0.51671022519800635653 -0.62422586345383890283 -0.15851967358696339438 0.24339655560542333701 -0.6687715390143862404 -0.71105990445654532195 -0.17739490788834261226 0.1227079102669870192 -0.23055337962720451328 0.7500606830615254017 0.53335059392775197029 -0.19526668798157056917 0.43660583009179337877 0.78153175791543372242 0.24269553907586605135;0.0048183310366839583044 1.0459055985591876325 0.50394599005380513734 0.12526634994559149305 0.10969129120275415701 -0.19526771579911061938 0.27997190065698807082 -0.5198775737170505673 -0.098770865203095942197 -0.038671419232401839372 0.30110723603383460212 0.089709540447996199974 0.28585136968241503519 -1.077017498905182169 1.0389293694068530982 0.084627615063773128923 -0.73443565452837200613 -0.080250567041155129733;0.38719053804929481899 0.29760438309775294474 -0.83567074492247483963 -1.2495094949043292765 0.074284760428465157478 0.31445669497258210701 -0.88016830412295876673 -1.1051152647468238666 0.0035059971867433554343 -0.22272464480807163678 0.17274758840336001953 -0.7624913316629653437 0.3418298935097124347 0.072985432822170959177 1.6764116961844857112 0.31147942676659451378 -0.17288696793808014385 1.5142967028722984502;0.67781466285180513864 0.3236328856044772273 -0.63121191028936729506 0.4542442814582345334 0.81211084565671076696 0.49139214120967367183 -0.42840589226994413297 -0.9989234500330363975 0.16673691878905883001 0.016409006336466712417 -0.701735698033159494 0.34453840584368722322 -0.75666167742807644014 -0.52152083062316090256 1.3383311893893177213 0.041972285318471969084 0.3869188881870611052 -0.20352400846334667284;-0.59170120485414412492 0.35092678274252331327 0.19984540671593256644 0.54834619752981950125 -0.40576019068505220222 -0.52718085001314463067 0.99729747451645189837 -0.3996431059912356476 0.14467323283000271816 0.0033609210492827126804 -0.45128505032162391508 0.82171463094887542411 -0.51744485517917016004 0.53496970187747105996 0.46046108539386126912 0.40529641541116639969 0.13400179406932424819 -0.33300844066782725461;1.1812086915045545421 -0.29092545480923720502 -0.38975063127937753515 0.44004672554392010309 -0.93323789271092560949 -0.85931263795490875346 -1.2337525987058377552 -0.19988915824655370534 0.15948245882769285231 0.17108009898165479901 0.68549921535475921708 0.030139172476866923217 -1.1183638273854630274 -0.37455566567476111794 -0.14287144748151947571 -0.33273156821416405293 -0.067539455010774379629 -0.43914471456053277842;-0.11093325644371801464 0.63866144556455473058 -0.46058484020921980351 -0.21721213778933212701 -0.34037317157455670991 0.3506736240503905977 -0.23302062553938304723 -0.49661077597826008834 0.026179385089033287148 0.68819416974596814285 -0.55143416937394251764 -0.24341747437881722238 0.58402526904479390435 0.53126451521443396331 -0.073597493811453557067 0.58017770305731897196 0.25593719918222329612 -0.32847045352819109754;0.019916886329992208871 0.070159394640930364262 1.1255007561773133773 2.1595774822004778493 0.70242432179947345006 -0.48306089983568939461 0.14963162647443964404 -0.046265556845483717108 -0.30432381706125061216 0.46689373635988684619 0.14460575682743584403 0.88949395694968980131 -0.51902728355707539176 0.24259887411475122843 -0.47058852517026622531 -1.4030079448660897068 -0.79902065803344091144 -1.0810279429133857754;-0.2077258238711658378 -0.91506637269321133843 -0.64094296520684523877 -0.40771218516603568993 1.0392705115947955541 0.30136935423771404885 -0.07867525102319114505 -0.70418428118210285582 0.24705471664297165568 0.14071117956802164928 -0.079386992712699555597 -0.20057959098730679393 -0.062180730603855878524 -0.054062218418959195887 1.0069624146539102316 0.28064753071926568095 -0.68105593088007021496 0.0084466700077448220174;-0.38352817045207665547 0.12311435041475216057 -0.53156991353895033381 -0.56365506788240204994 -2.1308989702073475314 0.14630212015266291781 -0.74585378289999837431 -0.95776765389389284522 -1.5039241609101039465 0.034759520408041789941 0.32098252366551172088 0.10297722547814476546 1.3562297430911229856 0.52934306518655038776 1.6344102449711750413 1.5703606774298008997 1.8423283338156195565 -0.067177149976192382375;-0.6935170484003404523 -0.4700644420641272303 0.32562930805357448438 -0.28831773286822404145 -0.3832503778578854603 -0.11285620530385334637 -1.3804518091403799041 0.063815511746440484186 0.98909885803682451311 -0.62465468584713179645 0.25295160164528074365 0.7822339947547047867 0.44518602474383567325 0.97284172313326966464 0.69184521362094331121 -0.87984975688141764394 -0.18488944690841971341 0.27383040199620545252;0.62262334058427570849 0.85993108621288005811 1.1207165873542754841 0.40092791622038392862 0.1488947219398946975 0.97162494516344133366 0.40748436044708458148 -0.70242491271809193165 0.037131706594906443986 -0.83457519841191729615 0.16758630216258482704 0.90865039173822681473 -0.83445874662327124138 -0.37686551840011295322 -1.1359095805958017156 -2.0123973818791913715 0.44649174053002033125 0.3727903062035644588;0.27756438433521640752 -0.070287329718129371026 -0.075140576382576623748 0.19248824973911127234 0.49064542839509650562 0.55271780866116548836 -0.46129219636658452819 -0.20508247148899524936 -0.16278373173842425325 0.98985590967534609064 0.16253248404549122674 0.44488114060256112037 0.13880115720314412098 0.51033144130921637149 0.90987521724911990528 -0.30483688055831781316 -0.38821765702306670898 -2.6397348960120199379;0.70464828694186121272 0.11216877426975620236 -0.5010303477024574681 0.33343968884793051544 1.026390950747002373 0.64892963581751283986 0.35998142404310484732 0.97549567226562117206 0.19946093526898334147 -0.64751148835760097278 -1.1754413778221237674 -0.76984288152560886864 -1.445801973317473843 -0.44884352332929289275 0.93439650643842542266 0.4214117838919316239 -0.70349205030080874668 0.12171383114309529405;0.19420263887027960914 -0.15927008289540212083 -0.049380974239806550707 0.53532506413163427617 0.57307825312951810037 0.42202992789754734115 0.26959139982872704078 0.08600992541688221027 -1.0915665213398368927 -0.24308206638227336516 0.26381969276155475823 -0.24315683151881092861 -0.62785125504714611733 -0.8439492805977015788 -0.53714089042429136178 0.16905027587181037374 -0.92562474587078247268 -0.6427645444698809607;0.012228299848908179628 -0.26713787803063182569 0.77588635405289041458 -0.017115228467636550702 0.13670265575741308295 -1.0318181207284333745 -0.54635166153889214158 -0.30607713117805784853 0.08100721249267356372 -1.2159556745980826253 -0.16348519671688696575 0.087049800927271117623 0.27401388362753958949 -0.10887684498586004678 -0.24606824860019724244 -0.71147438922604377964 -0.32712501826882750544 -0.65598193276251703931;-0.2000609824686893079 0.51532564379322054471 0.32022898535486543636 -0.2419227576590739226 0.56475639723025772287 -0.88127474213175960305 -0.27432821878291785422 -0.078884063112855118405 1.0597749683210464511 1.3356289671636698557 -0.95896035042830540807 -0.34162973656335282602 -0.44100495863510164041 -0.7718077020370839314 0.19734570443856419564 0.6155199138962383909 0.11690984464376535934 0.73185746608078683373;0.39398489885177639946 -0.81930151829816832976 0.06497132631419150206 0.31786961372028904593 0.46225392976129370259 -0.42148263343935177261 -0.92245756318346139313 1.1837168063145107055 -1.0882140250116669744 0.11233682488055236892 -0.30483298953102433426 0.15130162314755990494 0.94488250538657925226 0.97504320983618231189 -0.43673374126845770915 0.12648959348293201121 0.2639718247594786682 -0.0062530063591324895611;0.16132410314734210721 0.20578586257775235979 -0.13304691170111654364 0.023668879875057523277 0.13031274295728059731 0.12548933010305504676 -0.63890046902722807953 0.27099363610042254136 0.73823053427120810532 0.1897237045518873344 -0.24585131205576030156 0.99039106379736929764 0.92936319232312503136 -1.2011120582726051431 -0.062533396641792110549 -0.013133417646665083989 0.080887865693365298969 0.63506377952815762367;-0.59079500634877879506 0.28806912682749896693 0.32717035426471535731 0.017129530401207220675 0.12011563212398160272 -0.28470673806039242804 0.12515524811044981268 -0.34228024664986295145 -0.090026572561342249612 -0.37880849112298170533 0.9689161555279290905 -0.65232297166192187987 -0.1974635825167723735 -0.63526289208933051089 -0.066275267957658812179 0.26294386285906029554 0.15305688464923561387 -1.2252678580228002492;0.16139451350670686036 0.13404682728350822418 0.27302165504103215188 0.49404156771733698239 0.80922402630297041171 0.52202262411394473318 0.080523495874193856681 0.60693939881606051578 0.25966281155367298972 -1.2696608213649736019 0.15974622678567768075 0.54111125797873815824 -0.21938836113217660695 -0.7021704429255367641 -0.76105219434254522959 -0.88481837687733433384 -1.1711328642817999679 0.58173584045848503177;-0.67566234467031460742 -0.40874344779915716686 -0.64299417946443859773 -0.071468091123628924022 0.38564259032301012597 0.56104681871929351633 0.53112223990553375508 -1.2509888778750615224 0.65858359626740459181 -1.2799692988343673861 -0.4702659847542497995 0.092047332350563074166 0.22721525333818293202 0.085076288688701734442 0.17430038272240952479 -0.18125743635301719281 0.67232756947739091835 0.99447264305158400433;-0.1245349211470667683 -0.67406590445728165051 -1.3960361259133664547 -2.3370827188703726662 0.042265616130562587427 -0.31928041563567832739 0.45001919443380772323 0.42872140594691654503 0.28343879101475538684 -0.85802611786725269116 -0.39259620609229645138 0.3611530771619575475 -0.15517067923617669511 0.70389138746790491652 0.10491325047433767981 0.15104356947365576991 0.45597708976069994957 0.080953882566354856687;-0.56437865757183980353 -0.72761047570310388721 0.30278611758485218797 -1.083365093927920908 0.51731333347975705372 -0.32451924491280831342 -0.54484975261683443737 -1.1108847998682220837 -0.10476113603964333498 0.24614104131201691716 0.83205017547687398771 0.31341056650611753831 -0.61758821983558020996 0.27692066596216663443 -0.37892026083417434945 1.3158851259505579545 -0.72648375954264654553 0.87634047627933908675;0.014151473532148295398 0.68405664763905760228 0.25205051835546410377 -0.35353421741073681739 0.14442123598770401083 -0.14877535449150602886 0.65459024278240673933 -1.1955402261360377203 -0.92558864017175423999 -0.014598037783260934749 0.20618288570433002116 0.73603148536446705297 -1.3771429161904948923 0.93798323736806854534 0.16575497704989530789 0.3980555971237271784 -0.45269742228158860176 -0.092795927126063132429;-1.0070343768142666629 1.1288228119070173872 0.79530289195572101413 -0.59055531647355175018 -1.1594264024465099627 0.86569885962663684076 -0.020231473889807571193 -0.63911511327171999231 -1.2635166116397684721 0.40965326839728921637 1.7206415396103744708 0.066447823278093620658 0.94896044197825257793 0.058347555066670601931 1.0860842002192721001 -1.1581781776914623627 -1.023631714545286453 -0.35381488205325278829;-0.63107548147851377784 -0.44487055618591592188 -0.19993270068982438303 -0.13208408825569603606 0.034276115161917024288 0.3161905786247296013 0.59176155413634512481 -0.47418391175999968778 -0.7826127421282476071 -0.24715966998978994296 1.3411941648639906788 -0.35925938112227007171 -0.73563024788041120328 0.54151212173196083821 0.073933443240764534776 -0.57569175265362138028 -0.090619545274923066214 -0.3700666083350387936;0.72474840350949920609 -0.16909566142997950466 0.56534211175425919116 -0.28253652777308624344 0.65508357852562992818 -0.023155135817505188844 0.3854737230913212187 0.11398448669971694702 -0.52484608725868886481 -1.971665844539196133 0.1466787828573699326 0.76812473672345671361 -0.73185436888280686052 -0.3200924364636381636 1.1229293185541293632 -0.27765524450281026114 -1.1184675983177212455 0.024618130994679691265;-0.23080339369539831784 -0.57848051446866188829 -0.23601438931890889039 0.60247787535653019031 1.983241547708485264 0.35724898805671229107 0.33304956086199655196 0.91727764482961449133 0.45345041692280524392 -0.57040692476316712245 -3.4385918558309356285 0.87675961520960576934 -0.46476743989294222459 -0.41032192094757846679 0.086126267978999998531 -0.99879934332393072172 1.2278866400051202667 0.74002434072709832868;-0.090574525798934907295 -0.27161205479873157254 0.1645610509360336815 -0.5730683241194128863 -0.452332163318940772 -1.268761704030330284 0.51642317083519717613 -0.032440131336177770172 -1.0316768582118605035 0.35950671019061508638 0.0083377084847195050837 -0.42182289047418242145 0.58217128853785327092 -0.75019880118957893433 0.26215493018586727425 1.1421081923910900713 0.72409819024386368191 0.3372727446959205011;-0.51279602780244659677 0.18445331681270463187 0.58196896153800825591 -0.48034715105943909252 -0.39497149387729230119 -1.1113936420663586002 -0.029993155994495653005 -0.60948281929575087723 -0.40903177314010885635 -0.21501284553401656119 -0.25065724857955462568 -0.40067959188521284908 0.5009573542555667558 -1.4717018670009796022 0.33423684685505966607 1.2076513817117831007 -0.49189377973303766156 -0.21500635815794089112;-0.65926054254175725511 0.30725068948088574139 1.5630599213475542264 0.0025736776245155745801 -1.5227791977799549628 -0.27865896822049268655 -0.56154447254974726444 -0.19560455400117621183 -0.50970591443677804033 0.33180301045049886977 0.73445147841361491103 0.7188331766107557419 1.3081791242470157677 0.61601876696085700047 -1.6138791842665642928 0.70313684381722130201 0.49952171707682896384 0.10704773442093920566;0.69849086187624642719 -1.5295739326479291798 -0.11624227388492089363 0.28365297289103086342 0.071463137258994613443 -0.33792304008416745864 -0.32458652780559227313 0.95989402828502989884 0.60686568790444594956 -0.20370463038881639339 0.94549788011002067201 0.52123174696895013813 -1.1464216403854816662 0.31240715509660649252 0.39589220627910881589 0.23102375872572822324 -0.034619840813403468527 -0.11361437990961999189;0.36683109187361079284 0.66472882092872143112 -0.41950275325931940529 0.37641675193725065984 -0.51154233845754892851 0.054716881445228508773 0.51891302505842062942 -0.64630055131950270297 0.33701096007362707496 0.22362459434032699868 0.43458935290346295544 0.67000383549972997166 -0.33330204049379058562 -0.21915321984892510709 -0.53512043033537370906 0.73502236100650264472 -0.49071630181769348988 0.33507646269574986597;-0.17875010075923508657 -0.18082364223045047091 -0.2873837491295420099 0.21333972098990916511 -1.4868292296417409126 -0.51134467138778061379 -0.37999180085389161476 0.56198559578492435218 -0.32409236215217374077 -0.52970662084124131574 0.14839284468897168123 -0.6973192916963313337 -0.22273281098711483761 -0.70158942167045912353 0.0064534306948618759547 0.88990263677450087698 0.799015282848431041 -0.36926731710132054687;-0.030343975839178402576 -0.41386918169983599736 -0.45800247267809318652 -0.46277637854191983058 -0.052304577199768269302 -0.28709369801964373936 0.032406204032082837341 -0.29955299862858308924 -0.48125026055589553708 0.61238770016922550177 -0.82808435855805750947 0.59947644797253751836 -0.26538390773829778624 -0.80391177138947600422 0.080681419649347663192 0.83117414577524273422 0.25727246483453242165 -1.0902350794110944321;-0.59058546004181322608 -0.37571846066436592748 0.91883234747103370577 -0.56957385975338248318 -0.26496263759774718594 -0.69979453751147380203 0.41350969106065782466 0.12026430138451668639 1.0745820937190300182 -0.26891615750298863974 -0.2508968312262726541 -0.52046500438010867562 -0.32636544778209630735 0.47952474401473760279 0.70001955072196753171 0.0083038690751864492612 0.0068000916853274244456 0.53161178965236888239;0.23882536983617949633 -0.437658947174119628 -0.50784238152746885575 -0.55509074042127659609 -1.117284557919441923 -0.56760134830981989751 -0.0097167644856798428277 0.67341447288113565062 1.0765902022475508648 0.47123973824904885621 1.9398233689186652473 -0.20819856067269920663 -0.097569410674663278882 0.23694363520996081229 -1.1478479247577542122 0.15720399288328748555 -0.17863757642877250986 1.3464624459642686727;0.18322343536456825452 0.35755515808256010946 0.23926344990159800763 -0.15753276822423831205 -0.043441296004644788797 0.61000871280415669418 -0.24141080303146231212 0.77574089461824446978 -0.38417002147534534684 -1.6365106184136337664 -1.260193335689257621 0.52525787408787838473 -0.055069809897568711143 -0.43786725914069751786 -0.023979199895949539906 -1.7050741181431132709 1.0803465845100623799 -0.40551275918114904062;1.7503002956776112509 -0.11515229317906700013 -0.11206343970471498162 0.10055651903335058317 -0.0054687550156592018569 0.091487418539877546353 -2.2256910923792254664 0.19673509750762030457 0.046798180300169564538 -0.28020741139648097651 -0.27379447724029176703 0.16469002816805111689 0.16199710243125556297 0.27821172462289894822 0.31874965076465061609 0.18640817043913954221 -0.029296865633243081295 -0.35889250483206724951;-1.3696550924969066454 -0.74740490914374002607 0.28191458837376764945 -1.1049896131493763818 -0.22334254778048487355 -0.62554890189247569499 0.84320908391598548004 -0.15248295718565607615 -0.074655038864704537094 -0.30138328521349017075 0.07389403460132870638 0.043037479514763846145 0.22518050271327286205 0.4576635547835818385 -0.52793672435059812997 0.69073562789754772151 -1.1641650786029344999 0.37348173257587680141;0.48335366740424318133 0.58376416226518013097 0.93873389511742177937 -0.57621585844753608896 0.44069432152413928749 -0.61539484766756236134 0.80101723819571801766 0.31111690298296335033 -0.50333137118917237185 0.20767111686681316574 -0.0092895811658167751212 0.18129238529370747535 0.35265938028663168513 0.42361104456400378027 -0.5778414435442660313 0.20067184305991561666 -1.0011497014412755746 -0.66304968960065835404;-1.176163866162625915 0.080934954599276909271 0.03460008161682537331 0.21863071047122559221 -0.29327254139039599101 0.35271733340202554574 0.93784653755677815923 0.38976416833565502573 0.10200177686288199042 -0.16381057840994101005 -0.45068839166578672506 -0.28533942221272184936 0.13211015296264422281 -0.40603504676065627077 0.97928356949084083283 -0.83476448831080263258 -0.28909930183470117226 -0.74621178678586663757;-0.15214321608790359885 0.41719121532836628274 -1.0761032494352726907 -0.13728081316903234521 0.29361782905555777745 -0.58814130924198593231 -0.83989724292758838331 0.40894624706504395517 0.5954562940671327409 2.79318302002490082 0.42376529486658676138 0.09206166927380041165 1.4200357862216994587 -1.7084310216311631159 -0.053189400102488793021 -0.70923137323227058992 0.23124069545963829575 0.10068606501943627718;-0.31479992925916644442 0.0021547925324677079384 0.27938221544675534425 -0.18932885534624818713 0.028757177369977522663 0.86996534508214762305 -0.2923751367727303041 0.89464890522628703895 0.18416009773001859595 1.2496928186933200511 0.55719715949491566143 -1.1069602575179580128 0.46139929324562078961 0.58955964427892215696 0.16384407361015082549 0.48721420059266223879 -1.5337830535831287193 0.31434037439250894774;-0.49579245378806852118 -0.73917177648194098971 -0.34086524790925259998 -0.51001621105596395278 -0.1261320551337617446 -0.68773599703176591103 0.43380090705808022067 0.15901227751881263917 1.1014067933519153808 0.073537659936879551381 0.510891379495700515 -0.5837338213316941582 0.10646037144996940704 -0.36663476188510829568 -1.0792887105151931504 -0.33338971900716479757 0.45347295407696941449 1.4127610971335082812;0.49099628421842828052 -0.57120204033354438078 0.26499367761828768186 -0.0017997533770225272037 0.35890515893522817459 0.82065842256899079743 -0.8454286055755309004 -0.50771828720605904905 0.81559448763576136709 -1.1259195401936687997 -0.13348720167669614334 -0.46664075027134183093 -0.48823675199888000309 -0.075703712889552104981 -0.042945080588745354611 1.2959741055863236436 -0.30019414065421878846 -0.257020722336690155;0.4880642051601810083 0.17000002358139804093 0.21475531665859085018 -0.93026263523855690085 -0.34440989140125699564 0.1618671765625306902 -0.10589015578901365966 0.52622696101732513441 0.25874311185981579975 0.75517347146333202446 -0.71003493692658370406 -0.70836228395397349278 0.70364781463887504653 0.30622270269089396644 0.13972910683214573302 -0.75113099799350313557 0.13390619803872014226 -0.041812970431244309011;-0.090436523567151108627 -0.017174865644950295523 -0.5789915874957601849 -0.9472281841402296898 -0.3944334269847407648 0.31582617899797316152 0.4184532488507238801 0.75637177143966094484 0.06784529518036004625 0.52400070044688518145 0.055619759472617866236 0.28273916175611646384 -0.93309641141367605233 0.33648105827399410472 -0.02487953167424385853 -0.082513495442500750521 -0.73349041210236076704 0.092683124274614031579;0.019780715563464633389 0.15145538235900748991 -0.36474788530327484359 -0.9290994649467284594 -0.42829092751815606155 -0.11062035869518427322 0.19411263532857753189 0.067151498752196045472 -0.53625021293179264692 -0.57456119047928821963 -0.66123267552770392808 -0.31994903306236749385 -0.57694540949365191729 1.0944388333917196565 -0.025416631816497128882 0.065694927856024376567 0.22157932963829266027 -0.61980152770422636266;-0.98319492210354397788 3.3099567611277924684 -0.37772400094787822455 -0.29547155077926734457 0.67929939541293848926 1.1217622558683220113 -0.45545779392817659081 -0.51393860496362075985 -2.0919385451134488996 1.9276793394265017145 -0.89382560680925904339 0.77476145778384619689 2.2513946299759424186 -3.2293354841479451345 3.5710728782690317473 -0.34259590423831609574 0.23665341570331091536 -0.98900074889784095333;-0.06106866084736354422 -0.435233788804022248 0.48005776376952336015 0.064512014328049871459 0.97068960689282024479 0.099752463252620479639 0.7886347825395807476 0.024312258427900357294 1.1556352850423203815 -0.27950486309662037065 -0.51305859664047426261 -0.23425549871754966502 -0.34360557867539881505 -0.97600976246081772025 -0.025868081854005325892 0.83115047617699311377 0.049038917677071650059 0.35137588980327116861;-0.71660197697176641896 -0.43679574773933094178 -0.55338519710912081884 0.21162749744189401913 -0.29173054588320007641 1.0851491038553879864 0.24318831030427248696 0.23721178105612797382 -1.0736697407350741518 0.62999762024910932467 0.30586120957240381379 0.063309814154061838654 0.86705536233385227529 -0.77315128493630391748 -0.13034234083845680496 0.93194504083832607755 0.010435961829162192574 0.81606103785785943927;-0.20361533556508856768 -0.62532000564678968946 -0.063371405543369604962 0.22083819406613283687 0.29680274390856048461 0.87184410994548788842 0.48853175122966541188 0.054279190754079026382 1.0993122363599487912 0.65455191967208459225 0.31698343435142095625 0.76843772304988033905 0.18771767073387693459 0.059831277603131491349 -0.29708914829830157522 0.13160777703503101499 -0.11662578689933236764 0.58109807201126895126;-0.69858657837293447468 0.64158127621307081689 0.042100192011455081498 -0.075296630122690416664 0.18415116124313302137 -0.64771239988109230445 -0.28383535662072856276 1.8461146192603306027 -0.88990567273117548996 0.15437763086125677603 -0.047992622494765130314 -0.13995274527701095924 1.5174183288534706104 -2.3190351032236247164 1.6218365768313383057 1.2734465033343900231 -0.30939573482199422827 0.12974770237315189081;-0.32346857949575535951 -0.36660358344556448484 -0.062646561533475864092 0.12259868812730578824 0.18136110915352385287 0.53959331894220607939 -0.93641878830354929875 -0.34718213947251702622 -0.15214049144753055698 0.93152653995411327514 -1.289334427564139629 -0.39448538780673081394 0.54272155991681958476 -0.32829892859005399552 -0.60473095842085677898 -1.1783491175859319711 -1.3310581690730853843 -0.24745894736013895887;-0.056648931443184585843 -0.64715600821944208043 -0.33096141853257560195 -0.22260249810841301055 -0.54759307803051315844 0.029722367479914194727 -0.34107546418251505349 -0.43856107457959175866 -0.75956806105999519207 0.94036229500901569178 -0.34678629482752454383 0.15285369969863413231 -0.052134884971821518485 0.14684426910268441602 0.69339953197216563918 -0.95314005043051486243 -0.51636981734608122796 0.071113307137359804688;-0.30581091380410990732 0.62244918554611772255 -0.41508100461853048024 0.8928872907343228249 -0.028932211209921631506 0.49390627297318445699 -0.30126580134311470305 0.42029668875458020549 0.00020576465885309078163 1.3453741372015111111 -0.35731654833542048078 0.55384081286276043432 -0.21293704316495234985 -0.84861772149584746572 0.065490646265074045629 1.0152279158191641617 -0.64760183213666322466 -0.13215738395262185967;0.70866944474671911269 0.63985944914692260976 0.10280557156578923328 -0.8673051973737947451 -0.063486382884971825913 -0.038303153719715710146 0.86726879479545082585 0.16225385024207999995 -0.18609321699616390711 0.61669706914925903618 0.57918107831797849272 -0.24527912465157003519 -0.14984049026687562556 -0.20982849797045796669 0.12934395381129723535 0.65468758453511533002 0.33792211856170467632 -0.45780133726026783769;0.76407872277659039106 -0.11421037755340189557 0.94761971052179838626 0.37380941192629507652 -0.09048307752208327448 -0.077567277736234216401 0.66182192678582874024 -0.59463972207376125656 -0.67435863373956217437 0.60261752075458541178 0.11228085944160087761 0.61692485783761252804 -1.1946119726721864396 0.80612809523373274434 -1.1742803332859468313 0.867715205233542064 -0.942884794825048278 -0.31899875343683181672;-0.36241205734999909494 0.070356856099339462607 0.10123188700040107457 -0.006334396832624218654 0.14007439777926716795 0.77710904916894874006 0.26957056771881077184 1.0863186620735520993 -0.01443987678311910855 -0.40581300009353854508 -0.61383414650297418724 -1.104146955953192677 0.19649107611581151378 -0.57511442065287388115 -0.017785904267392325245 1.8652560740058585775 -0.41887350497124742343 -0.52226935681980302117;-0.54830848356091310691 -0.22969447147476534932 0.078752008480284435565 -0.6177212551895712167 -0.10176704377498556331 -0.69819284108445300863 0.4540257520677765668 0.76771992360816210255 0.18309711439797118904 1.5449072887175807622 0.33342668575884326643 -0.93583255982305157961 0.1123996493767995819 -0.35946269623127152792 -1.5105421180840690187 0.97758594327779557709 0.75519783576321264373 -1.0293342385568673425;-1.1608002074274006432 0.025133404870187066316 -0.25309269170991199882 -0.22988868365852976883 0.39039369043958349614 -0.47573949131355902642 0.10034390018008128298 -0.043776287175815317698 0.60675805793310644276 -0.44423014359308288235 -0.41372652633089423979 0.62334877313260872445 0.37980099604809108849 0.29319168000543277541 0.13017701558538721796 0.97693139775481785403 -0.54309889973193259394 0.45186704819654543996;-0.007026229844373089832 0.63779939100884330827 0.20672746243497666652 -0.48656322140732388704 0.050215042327897807528 -0.49686330350689789093 -0.91914670374462170699 -0.48879376504636595779 -0.25278031351413793315 -0.42942338195147261581 -0.45997292992853822113 0.10476441427443942966 1.4218638600692088403 -0.65483760604915797199 -0.35355965350299195515 0.29389509327983998066 -0.8018359511716691701 -0.52313669182276789638;0.097812991551902483955 0.26726265292020318087 0.19313317766943777221 -0.78622077170648041466 -0.37468590824352321356 0.11661524930485253626 1.5421067531475483037 0.18780877145104601933 -1.0359080346374458514 -0.094848385690412984061 -0.5822398337294817372 -0.037762652211106230438 -1.4818217615107862617 -0.96379046284730129912 0.19234283081478353861 1.4892251309324695541 0.50452668138258505159 -0.42334115614354350665;-0.84143160926110427411 -0.16733394726996592139 -0.41532453941320546242 -0.484382478590871135 -1.6691272688570835125 0.6278985545154005532 -0.32275074841177187057 -0.46865316718794058914 0.90920375873702108382 -0.61392366426843969496 -0.25062472707500116353 0.91575691876680753722 0.12387248079779558663 -0.24763323093322653357 -0.36828625775668910602 -0.31523919851832399308 -0.76898173085394394555 0.2314075128729118358;-0.6840164618315989209 -0.50059665952229570607 0.025830254874818919103 0.78295063837194134315 -0.25609698050082446708 -0.13362855904947629204 -0.13742252819145545084 -1.056572182133249882 -0.12043679358105105481 -0.28407133190752931196 -0.3161669145140242887 -0.1343570584905184051 0.68648802122145879956 -0.1241878527577048863 0.2448100091845873405 -0.88133450313534111853 -0.41424239475788199316 -0.20040922611269515463;-0.28649700065970246099 0.023390461883635263463 0.18901084408958288008 0.80942852418007937843 0.37570438961329760685 0.10330600208692168607 0.71386572083773081054 -0.75080416670767691212 -0.3125885717234302974 -0.18886461488451866675 -0.4711415505957115557 -0.17599229519408904343 -1.0967796930045199399 1.2748772383846420642 -0.3430008924245667723 0.30097577328350316739 0.24569226901070947977 -0.69323712882171817373;0.79709879025717644829 -0.42950001560899464526 -0.12195010437177934703 0.76759867693968308888 -0.26011873836497800827 0.15581265452272316518 -0.071209827346099582868 1.4004882075947708842 -0.0086205066419277123768 1.2864506460709264068 -0.13100243638528163981 -0.44359871191060995521 0.74400848560375210106 -0.43285444676176437762 0.78422920614779767501 -0.25124804712686910069 -0.5411774568447701439 -0.4347813204721309166;0.189699757564537691 -0.72907108515445706587 -0.18139658378564993413 -0.63475941885909703544 0.34152211605085819324 0.38559294669258586952 -1.0749180212305047277 0.96182399449563160676 0.0067777805282708374068 -0.35442820889441062349 -1.1522448680598895709 -0.15826929717382631768 -0.18394620487497131966 0.47379505957076123446 -0.2079079161283937105 1.2226487362455931152 -0.49708774440914232917 -0.12459034356045446679;-0.8640444209382638352 0.65769638564212729026 1.1742477546874874328 -0.045358643668784143221 -0.65571442298000459648 -0.56995773453546150211 -0.056481928062551048364 -0.42752811260361595069 -0.44702472775673818273 -1.367688801871291826 0.42697420237189498415 0.26200320640361729474 1.2443188126711599573 -0.41625915467683094473 0.67741081299410266237 1.5350399142100312755 0.039230640617305419238 0.26319792283319198845;0.39460008967276477554 0.53035936424034779701 -0.15709554732549058098 -0.70217717071987817423 0.72876623493727477054 -0.2941058597345115877 1.1558375203299986467 -0.09676624254371435363 -0.58947310668224039976 -0.16551365055498140633 0.35559759405192836734 0.51267253014878466644 -0.5339993787840633388 0.48262391281148098177 -0.38558681901883623544 0.12519856532352002798 -0.37992065119323648048 -0.33210832425429348547;0.19871825022167344255 0.14183026317473251821 -0.037628700679358202674 -0.42161417376052257033 -0.12948050285172252316 0.32167911072489158153 0.27449299433170420981 -1.5731609165161024588 -0.85448932003216016007 0.24185025444494481772 1.0272729635731929765 0.43100180962783329885 -0.059007169170888301712 0.43616188492890167749 0.64670128439348639748 0.52602248880157365107 0.74816789898628444089 0.84199014515579295725;-0.88197889476113744411 0.41657813699180157307 -0.51818254815343800512 -0.43952210559579540927 0.50547425855965821828 -0.42551627769415750757 -0.44752289389993982205 -0.26176014487329918312 -0.24281411865284255325 1.0517613820179907425 0.60196153264114704573 0.40726537097585530089 1.1785656039693761521 0.020750154043053713193 -0.55532162533546669536 0.48833969149504036222 -0.60636808520599361216 -0.5109857040240441961;-0.085321676977739208114 -0.78700545855277903584 0.67687488150756081051 -0.79251458440929989369 0.019420604101643760414 0.11569917221594319678 -0.3441990143418674486 -0.36576969341860232632 0.30921944325157513234 0.36546764042740043088 -0.92087459135980875846 -0.41304699551606471886 0.19971127131389629361 0.26207066581347532308 -0.30596327749926699457 -0.78492298005275107364 -0.52130874733781362718 -0.51089504257872020432;1.3490432705646084877 0.76812667417289215432 -1.9321720784948279714 -0.07095994943408050204 -1.1642775528151818598 -0.74700454392144832738 -0.87310127690762950881 0.69314690429057002063 2.7314491772033036021 0.24361086069850229618 0.76745569278110692402 0.53662120531448520566 -0.10177513555473303997 -1.6039384107396328361 -1.2197721604119799999 -0.12072077486714404004 0.88560711687287807514 -0.013759956658309036026;1.3364854100195386888 -0.32855011725024990676 -2.657862384857138327 0.43415328121067114919 1.7178648335050750173 0.61298549347425645983 -0.21240842170723248095 -0.93622580008817302133 3.4867109166534553388 0.35457348260913817972 0.76360288546227972351 0.34758876866215171475 -1.7921216038678315918 1.626454697098127955 -0.37804836013389148119 -0.98087693418535026879 -3.2245438814722282572 -0.080675140185674232285;-0.99128873445428211664 0.36667406601777641217 0.18599717017361999671 -0.099751712813093570964 0.45465148507394004262 0.1994778948128352325 -0.21519054259217779146 0.12337411938389412913 0.26596615499708908814 0.2881994361550241357 -0.81033347391333754306 -0.17572224396860131046 1.0340103606820965076 -0.39655481016670235395 -0.33875772570504070202 -1.4825289531686285383 0.70528849388686831734 -0.1750183570027594171;-0.36192957247944468335 0.46017510867142225051 -0.21575765973017402288 0.61394417097622255852 -0.68186333754270433971 0.14375874608692770784 0.57209084511016017327 -0.10709711298311910821 -0.97017797977508024587 0.89463759608624526809 -1.0117839090360114529 -0.26486254623780991491 -1.415309713278350312 -0.31181829953674822242 0.71268929839934569426 -0.10351793602408355943 -0.49058052546048974696 -0.38201053220262470855;0.10134732702919113656 0.46700875168042699226 -0.054502981106579515003 0.66367006182372523249 0.53479303324335214498 -0.4867536611898618526 -0.40382439124947250297 0.062740936579137943085 0.28825901852649049584 -0.78945594105459881984 -0.17581102477314003441 0.46601417371951658897 -0.30766166858361898573 0.042267903036241304127 0.39921508210772349567 0.090427778217211846057 0.83810942930140996943 -0.57570991762574752482;0.45871088617770572338 -0.35792643589770389845 0.54270534226105648923 -0.47221048392486913992 -0.21274697317907931282 -0.8592222631361664531 0.2900922247581088631 -0.61790856786855108407 1.1117100548400054016 0.53581555435369931928 -0.52200943350975992363 0.38129344710339230229 -0.3970191549087165872 1.731269959622149246 -0.2210790065095996626 -0.33295869375452519234 -0.5454989117824533551 0.11489048154633051124;-0.70608536540055855113 -0.050022001936754920126 -0.24171817555001762212 0.031736304157648095869 -0.18490038295557137404 -0.71692539414994993496 -0.3557505695227324849 0.56154261531138838226 -0.01784127066271245024 -0.2709955768379785912 -0.68386046123203581004 0.0077378497395180038942 -0.17784814883315092082 -1.0684868849481345965 -0.67501402197499671409 0.33689536549879434135 0.78620328206556022721 0.47028789819993516153;-0.47047399529235511828 -0.082147702309670819765 -0.22199654792652240287 0.64973123530475695997 0.0086437576728356536881 0.94667060685122184083 0.6640122890893551677 -0.052412906515059351498 0.89074149280644177029 -0.062939089778902737593 0.81576832494103013182 -0.3326617976040090463 1.0545807099230688486 0.29150159534838182562 -0.6975679258805217442 -0.97763597247970601689 1.3733298348303202285 0.081936718212598597111;-0.17386361966112465205 1.0305408483393645458 -2.097810263493477656 -0.18539599981246612792 -0.5993241283255241747 -0.20531544590317360455 -0.71960687085801944285 -1.0759674366852722827 2.596117052064860431 -0.40045295772485445251 0.77354264671689343391 -0.43869934009927308294 1.042276241551850724 0.36922498953587840065 0.37322373588412749434 -0.053156548612316133207 -0.33627204022141915507 -0.15847077927718053458;-0.2439710057979100899 0.024857930542594941503 0.24053785947862243999 -0.80779954684485322236 -1.0774735479896742074 -0.85981907104308841205 0.73233955848659670895 0.98224218393395579252 -0.12518734961374197723 -0.22283191495543935856 0.55965367588009196087 0.017722536070534759128 0.15009652769881012824 -0.23148125415050821441 0.4179899227724017674 -0.2139018604792982392 -0.39855479202519200621 2.4876588543007942533;-0.66968589010550261253 0.73319746349502412652 1.0195275951837499129 -3.734553415261725462 0.95471686547440526294 0.57957235696492637178 0.8146006903935766319 0.042410545526220665147 -0.45717094189822737871 1.0086050030999769156 -1.0710887841395686504 0.10948236564251423442 0.26962166771092183071 0.5526184031482438419 0.3504806027447138761 1.0736977726856391513 0.1188322682844114575 -0.4355761093493978886;-0.096923931203069108031 -0.99329712432771299913 0.090966847483552035203 -0.6308184114483909033 0.35676081697578709839 -0.39667163692070911418 0.038061085699163728358 0.3844227226748102022 -0.096162430288473974005 0.21790576958147880871 0.7697789480264631834 -1.0953667022739095316 -0.17303189911752306362 0.79167408211801137963 -0.44686675948338699937 -0.26433417963114541616 -0.61444076704640182562 -0.40128073415790976863;1.0400509879453632145 -0.52089506264352214426 -0.98230138722773330251 0.45881785791225992988 -0.44633739369395103447 -1.407367568769181343 -0.42637965506158731488 0.10268033291300457388 0.55675308267023704278 0.7122449805248783905 1.4218144259061775703 0.20767475879376151582 -0.43696872658134100487 -0.65677526927234441967 -0.51200246011649230837 1.161568176326372992 -0.6759262399769357943 0.23927596291051164701];

% Layer 2
b2 = [-0.36710864538850795924;0.19926518908720461387];
LW2_1 = [-0.93747246160964226025 0.50011164905388749702 -0.25030318370584364596 -0.071200162287146220863 1.9413887724244249799 -0.17157389885358448334 0.26824091069521632802 -0.83085623271080910612 -0.57608790838499346343 0.17338530277360450493 0.66639625451987827276 -0.56001766869916458358 0.64402921370413312996 -0.11555986382954641645 -0.30960039446008158492 -0.55672864735233451583 0.39542599440067860428 -0.97465635314534526668 0.26169855309750245098 -1.0778041778071729695 0.1941964424285570201 -1.4009266052976445671 -0.41153042636575509761 0.68532201605046927373 1.9937161028489180925 0.74054781023693094788 0.81797844665120567065 -0.16995403663336455802 0.13101487529875924243 -0.15134038407906785784 0.20653364596260390118 -0.81916150556026379181 -0.26017771428412128643 0.23645385362083198855 -0.22956710011095099455 -0.40103763061306135773 -1.2371551582438458095 0.64479675064056163336 0.85339356361244644855 0.21135167283845002206 0.59215901679722449114 0.85942177932982943833 -0.42402844352662988348 1.8519919660345181001 0.16527033107057576 -0.20975205912696417987 0.40656487330754903509 -0.021166186850300149763 0.74973149269354544266 -0.89648545850391103684 0.54765698151506647662 1.1086455444232126144 0.34471795654844322732 -0.55178942726207913516 0.14046810023410483126 0.47076533192023140018 -0.96952754163570553647 -1.0471085994381044149 -0.59397257659295976673 0.37755673301623227101 -0.5568858829875601435 0.38307727925191858986 -0.59487899364134710911 -0.47675604116154129963 -0.64935662702352126008 -0.48791244615088608105 1.1294889333743611814 -0.32910621362112102428 0.66602265379523251099 -0.95796345400835769546 -1.0880553637595147265 -0.59103746345190688594 -1.2185068001346397448 0.6172644218267338001 -0.26694867240202901915 -0.25967064037800735576 1.9546194294698731042 -0.60325567367535959384 -0.63391857424504216567 -1.0488355524455381662 -0.20695744474930699575 0.38696226652938736645 1.1084696846922250657 -0.40004229106008282191 0.73690987929068074713 0.22380441307474008283 0.2729181049572579898 0.22938227109402478665 1.1837724813567729321 -1.1039358693129297517 0.7826638203698184082 0.75430858174597137378 -0.29924321261652597759 -0.73685503698865062461 0.80234122387252237996 0.41288978573420925811 -1.5556684754827525552 0.32031931634123717023 0.075873279645238170255 0.45204976716252753821;1.0566399240965420603 -1.11194022089090927 0.2307958830892678781 -0.55189380358099171531 -0.83219237917366406521 1.038190392603720591 0.21106627841138866919 -0.80777224793864932373 -1.1869617391589419864 -2.2517373122776236372 -0.96138517396598055509 -1.1339596688301152305 -0.42977957232422181466 0.79013601551328960237 1.2230314492121583392 1.1556057321304225027 -0.19353416919621613257 -0.8218146962247451226 0.38175918404399428185 -1.0534660882962261219 -1.1858457686589700675 0.39299689610833615783 0.55744006334387508073 -1.2676393305872868389 -0.2716573508356998623 -1.5032859170289099016 0.63818155409570531678 0.87541907536031016157 1.0556774727113276136 0.85781389573425492756 0.34367834969443450399 -0.30096817714907547758 -0.063216544089255824468 -1.1964945131203685857 -1.3071367619035376695 -0.69968436350761964437 0.23255196116766344017 1.2682559307346823463 -0.57422109839377444285 1.1339302778458610899 1.7676256921883770623 -0.81867598403506625093 0.41365414094591840266 -0.16448736885346468273 0.84785863949024886654 -0.0045570335817886713226 0.80415664790306895515 0.85645372571934097472 -0.59215856543138756241 1.6395592169725454745 1.5524912587522263774 -0.45528436672029565235 1.0395772810196186597 -0.41112536791198606156 -1.0161278922285701398 -1.2864386936396743355 -0.29775225346951517125 -1.7843503425831122033 1.0788033458049792745 0.21584311766229888341 -0.1084486446349164912 -0.90327099098355034812 0.5842748199962404243 0.70926751887036565414 0.47457948250364928588 0.15865190330496628524 -0.068942039478234240502 0.20229388845853857326 -0.62047631342273379396 0.048989228835918975646 1.1602901936113541037 1.1344138105106138514 -1.1665558221328744537 0.86702789191500073684 -0.80624118857757964829 0.82549203917641211792 0.10768434512534426351 0.92426526392599506199 0.11709571967281892646 0.51025897401531561393 -0.5488346145457576597 0.25544674360866781448 -1.5764934528195966301 -1.0083246986734495376 0.81818775670347432261 -0.8023795240551648833 0.77245072091308053519 -1.4745771444286146501 0.56535860538179971702 0.11832083538646552545 -0.7656470348841740714 -0.22234225881068686581 1.0997402802677238576 0.46597707011078848272 0.52296266805762914309 1.447847369082594593 -0.99225594079262713354 1.8787345968781479222 -0.20648979614642570812 1.6647263059061889745];

% Output 1
y1_step1.ymin = -1;
y1_step1.gain = [0.0800528182123108;0.0800281525621334];
y1_step1.xoffset = [10.0045011160944;10.0016947056354];

% ===== SIMULATION ========

% Format Input Arguments
isCellX = iscell(X);
if ~isCellX
    X = {X};
end

% Dimensions
TS = size(X,2); % timesteps
if ~isempty(X)
    Q = size(X{1},1); % samples/series
else
    Q = 0;
end

% Allocate Outputs
Y = cell(1,TS);

% Time loop
for ts=1:TS
    
    % Input 1
    X{1,ts} = X{1,ts}';
    Xp1 = mapminmax_apply(X{1,ts},x1_step1);
    
    % Layer 1
    a1 = tansig_apply(repmat(b1,1,Q) + IW1_1*Xp1);
    
    % Layer 2
    a2 = repmat(b2,1,Q) + LW2_1*a1;
    
    % Output 1
    Y{1,ts} = mapminmax_reverse(a2,y1_step1);
    Y{1,ts} = Y{1,ts}';
end

% Final Delay States
Xf = cell(1,0);
Af = cell(2,0);

% Format Output Arguments
if ~isCellX
    Y = cell2mat(Y);
end
end

% ===== MODULE FUNCTIONS ========

% Map Minimum and Maximum Input Processing Function
function y = mapminmax_apply(x,settings)
y = bsxfun(@minus,x,settings.xoffset);
y = bsxfun(@times,y,settings.gain);
y = bsxfun(@plus,y,settings.ymin);
end

% Sigmoid Symmetric Transfer Function
function a = tansig_apply(n,~)
a = 2 ./ (1 + exp(-2*n)) - 1;
end

% Map Minimum and Maximum Output Reverse-Processing Function
function x = mapminmax_reverse(y,settings)
x = bsxfun(@minus,y,settings.ymin);
x = bsxfun(@rdivide,x,settings.gain);
x = bsxfun(@plus,x,settings.xoffset);
end
