function [Y,Xf,Af] = B3func(X,~,~)
%MYNEURALNETWORKFUNCTION neural network simulation function.
%
% Auto-generated by MATLAB, 01-Jul-2021 16:15:45.
%
% [Y] = myNeuralNetworkFunction(X,~,~) takes these arguments:
%
%   X = 1xTS cell, 1 inputs over TS timesteps
%   Each X{1,ts} = Qx24 matrix, input #1 at timestep ts.
%
% and returns:
%   Y = 1xTS cell of 1 outputs over TS timesteps.
%   Each Y{1,ts} = Qx2 matrix, output #1 at timestep ts.
%
% where Q is number of samples (or series) and TS is the number of timesteps.

%#ok<*RPMT0>

% ===== NEURAL NETWORK CONSTANTS =====

% Input 1
x1_step1.xoffset = [778.999999999976;821.999999999995;786.999999998911;823.999999999616;644.999999999786;720.000000000001;767.000000009249;651.00000000011;778.999999999976;821.999999999995;786.99999999887;823.999999999624;645.000000000904;720.000000000004;767.999999996994;651.000000000536;777.948481818595;817.000000000081;772.000000001342;810.999999997583;648.99999999884;721.000000000005;769.000000023952;652.000000000141];
x1_step1.gain = [0.124999999999328;0.0327868852458627;0.0416666666640404;0.0454545454533345;0.027777777780541;0.00660066006600662;0.0249999999998334;0.00537634408602455;0.124999999999374;0.0327868852458627;0.041666666664387;0.0454545454532305;0.0277777777809725;0.00660066006600668;0.0253164556921047;0.00537634408603084;0.0950050244795142;0.0303030303029479;0.0312500000082251;0.0327868852456265;0.0253164557088059;0.0066225165562915;0.0246913580387659;0.00539083557953944];
x1_step1.ymin = -1;

% Layer 1
b1 = [-0.30742288483272800503;1.4572389673612935468;2.9846359475760970703;-1.3621161999842696932;-0.97281599658990680624;0.87598044174909117654;2.3046462436042025601;-4.8059732785556361634;-2.6540331139321238219;3.1683289653014305998;-2.0090435920146676452;0.76796926997683157001;-3.4722101198410033618;2.9410589623612604093;-1.5605145663986017546;1.724641614388112032;0.10685558865333560918;-0.55636368558029269948;0.65551358297257200647;0.99855249903297926828;-0.92669645275207623847;0.92313366725312695493;-2.0995514810049176191;-0.56836335140804461474;0.53295062909674362217;2.2021157621414011452;-4.3663590655647883665;1.5080079892782591866;-3.141116529411264402;-7.0937359935722446025;-0.19209410205349344847;5.5442529561331408416;-0.04867213720471919719;2.0632477703275835523;-0.2230894359768441082;0.052820603374891805792;-0.55270033558526721063;3.034022148506600125;4.501429572599565887;1.6929344269033335113;-1.9282587547371021763;0.026354278135128347826;-1.3686724159083036856;-1.2189860874621500919;1.8972060740859613137;2.5864898990034124182;-0.21318444489562088373;-1.4893950706029437381;-2.0457898797331357521;0.32025186585845327736;1.7014950968290194488;6.846703743678584253;-0.61584642373649289837;-1.4554131410191148976;0.4626200072656925788;2.0074643825600659852;0.1386083843822902284;0.38033420194708139617;-1.4890579342656860007;1.5285807491828324878;0.6582156094895692533;2.26999496350766794;2.1104287453570638178;-2.5593650084762296082;-1.0838152686690738502;-1.0395805231704318139;-4.759337258908552748;-1.4215542688573390429;0.9340153959906719594;0.68111214517198881424;1.2402663838012457642;0.20334582129151712593;1.896373430731289389;-2.441065921040780573;0.45434669501852370521;-2.9763932193205504539;1.4411392905716313706;1.359478591416656279;-1.8545125528657460112;-0.27461587233221268489;0.94439159439856279477;-1.5676835838767286813;-0.63155471179850453112;-1.4785652520527072795;-1.8862918442980169953;-2.7460605511517544031;1.0955540108939083588;2.4987905320449499413;-2.4081800247935416515;2.9957756917540789843;0.40707039725506710681;-2.4328547385078902465;8.843420667834525517;-3.4527266392318520793;-2.9937945267853081077;-1.4963928358666316321;-0.407988483022976689;4.8958595330331364792;-3.0063661229806637465;1.2916220603528318911];
IW1_1 = [-2.3636100280108851557 -0.55973970946210005462 -0.89926668137402177017 1.1479536646155350521 2.5402586978634498216 -2.048061357568486951 -1.6084608397106545663 1.6724955733487494314 1.4569649754465461289 -1.6637739263073907381 1.3715005549552454767 -5.2332529321222294172 3.6199693465254383362 2.2131537590005483374 1.0668163725191455171 0.30957658945737304146 0.65227296771049925184 0.74125804704732112249 -0.76047149928896873305 3.529374515507146981 -4.5961387907829154287 0.63198343916964316858 2.3804897408267917669 -1.0837554560133384474;-2.0408379633554667443 -0.51717876236611004526 -2.7362371144238815113 4.0763126093930015514 -2.0484454290021831824 -2.1159585490519567941 -3.9230092899263833139 -0.75498150383380913109 1.8634763142252226409 -1.5630170334944628596 1.3019381852258127275 -2.7606909058861717199 -6.1814250885747856756 -3.7437817787757690091 -0.092597232205680612971 0.72032886223356396016 0.35655104729971659472 1.494076562334402114 2.0625024944040926123 -1.9400132720286378252 8.5116232239732010356 2.7887674190097198057 5.5333505582306914405 2.3122954154950838834;-0.71914743246397472287 1.4691724956648779532 1.7241254345412984073 0.96865088358869266827 1.2923141289302038093 -0.14107174752804005347 0.13496857239611834145 -2.0885979482888146208 -2.4151608209439681119 2.9040060082808207831 0.45942753142153708312 -1.1021305502543541355 -1.1890679457420345599 0.37915358757801354006 -2.7228305065172162536 -0.61877401116762165145 1.6228511023565566074 -1.3750228858999649084 -1.0561054722705169873 -1.5366671192567393778 -1.9540489719511295874 2.6842639345069327916 2.5871499634481516239 1.8138844081623122229;1.2859954762305259024 2.3247335967340552187 0.5875689891181665736 3.0319372374507453927 -0.9006361590940070716 -5.7657273176239360879 2.6966326463759915377 -0.052388609030265070876 -0.53776678725277915483 -2.0450586298570452293 -2.274299258008625646 0.38294323041348388159 -0.76561111326155573131 1.3124803480650708565 -0.0516614788669292474 0.88197064323451757062 -1.1925581393344102388 0.93909676997709423674 0.33142311796763079812 -3.99373408070121938 0.42522913805136752785 3.3733007485762018796 -3.577875368196712369 -0.3649265021263953801;0.62530973312541970888 0.91322300083488416877 -1.1270334114322702046 1.0287939158732875011 0.76502881108658882248 0.38908568228274459377 2.0416295349452546759 0.68700639468458135628 -0.19403857142187916351 0.76536256922219114696 1.0018700836523306563 -0.024560568251902156756 0.75307751955278889877 -2.5816701086192748171 -1.7696504015301519619 2.1318801267000546673 -0.17823384577066136991 -0.60918579499945679778 -0.047476621697760040819 -1.3081953718666856634 -2.0121058225706422995 0.39702057835691562104 -0.83311771211984397834 -1.4470324114475323629;0.31353044842445304541 -1.7188145582154381596 -0.53867604652582223856 0.33767543472093530799 1.3243289221063194727 0.60709852626385429897 -0.36460885855580382753 1.1306594736380777277 -2.0819848082654583976 2.3167487221974822909 1.0428056105559495581 -0.26173535873096670512 0.90487118057522253345 -0.98308079826478667052 -0.46950968141871085582 0.044608087767290291459 -1.195727209566168403 -0.71811048986645587 -1.8856559255140254994 1.3841521929027398308 1.979587201799700269 -0.25140761133503980451 1.7037479891695870293 -0.23446268685123666797;-0.50350999239365035187 3.2004757222515025639 1.5640372449138568722 1.5079729047997902924 -1.7250818658521733795 -0.6350477275732723248 1.8387452834125084244 1.8728223760007887133 -0.41073157661113590677 0.04861057419298608212 -0.51628844767536052895 0.33986016698967036476 0.69331326718306396373 0.29624755038701944265 0.96472812409007879797 -2.1812664855999606139 2.4138720480634852095 -2.1833344723923495678 -2.7648209569879420577 -2.1063216174797250169 1.4782614451277611423 -1.1441734973420902843 -2.9723510382206561609 0.71784272977703877938;1.5233585398329418936 -0.37012398223943643316 2.7370219508807571707 -1.766833497293452071 1.3882775908201412385 1.26199768334824447 -0.9636753950542107372 -0.14808346834995761432 0.31513690731863019945 -3.6935727883410081063 -5.6545083990397912999 2.6526241709879965214 -1.5937462195893967731 -4.232627273357936204 2.4146005149266964729 1.3887488619562582404 -0.94908060990060116868 2.7876633579901901605 -0.10647483849494034092 2.6384841020445226611 0.67410499139146240477 -0.73457142109338224856 -1.7701154673816630325 -0.047178761555319477516;0.45761288990143789146 0.80003071510490486595 0.49747069574815883097 0.27935490201402923827 -0.58291387542945061195 -0.16842147759112038874 -0.58353040403785905177 1.5579168806566676686 0.64998349736057570158 0.0018403654695135149288 0.22589521466176870623 -0.18919989354267463533 -0.65868622304208435114 0.62986606434296654733 0.91243896073831187721 1.362846010601898028 0.81529814757331586783 0.20419002571398794932 -1.6494590753406059846 0.45174028067957727739 0.83441826321838086233 0.074062011839493915866 -0.10977378441763559203 0.44441967980223112678;0.42638443569233613895 -1.0712738831257637706 0.25985679262189448346 -0.11763362932625516522 -1.70187025791532065 -0.38212651994127905253 -0.86228410158660251383 0.54857245916685459797 -1.3884213995747705095 -0.12813705067942035565 -0.049039457670618832874 -0.38039787863200730245 -0.05112592221327458275 1.933709569619744828 -1.2455545032065995503 0.35178130656831352319 1.8151035269902098257 0.61727906708166435656 0.019512762848725571929 1.3345000508673814377 1.264277518744055584 1.4221636956758951786 2.2633469806705077687 -0.41092643666500855426;-2.5433712574756017766 0.78401779557841833057 1.2567614526915396045 2.1756250227092208682 1.420988447718601444 -1.6652124181223160182 -1.4418106428618004955 1.2634005974469950662 0.79468228992280876 -0.54456704394979749129 -3.1262779647721772314 -3.0613715124794453892 -1.3468507614964129182 -2.0201237195674925928 1.75851953739066591 0.28562743293313858084 0.644839792025162728 -1.6327556142820667251 -0.19520172392454393506 0.66524555971294752066 -0.2428705680580680315 0.26738442637827081194 -3.6313771846148088507 -0.0043200414351203149377;-0.66223454178183960295 1.7187936044319627182 0.2798888403066177033 4.1334388978606160236 -1.8920392198658297911 -1.6391669019587067346 -3.2564667054325862061 1.7179705148917920887 -0.67912995450668778297 -2.4391366707696646721 -0.86512698742384441797 -8.0433427480234502838 5.578767339761505184 4.829953026361351931 4.2693981633118731622 1.944307364425990281 1.4831712268707126778 0.081162991823139962744 1.0428620024413781664 4.0883898268124836406 -3.7602199175783903584 -3.6321220209316855687 -0.70779253990369617178 -1.5890992201452944776;5.0754896063250489746 0.11278677436385257937 -0.66358445100606100464 -1.706629587900418521 0.96882388270673758246 2.1117338909528391433 1.3733327764321143771 1.0955770000867084413 -3.5257703556942749934 -2.2642778280343551778 -0.77484622890314125421 1.6228937382477566231 -1.7036960287881133258 -1.1858416322207672167 -0.89525492301766795844 1.072554881649513181 -2.8486923033096545055 0.91635941643515150812 1.3310735163564852979 2.1276692567942641077 1.3515288180117428496 -0.30989783556070871207 -0.70217268125209608698 -3.459930626913676921;-2.1517938225797275109 -1.2071652457731207875 0.59585957148220125568 -0.16706751074008746594 -2.256031258808276263 -1.7774989237762670591 -1.6489948329864954069 2.4218981584588306077 2.7399649186593508787 0.3861143614853078665 -2.1438097758419547567 1.5603420724758076954 0.2765132282403447439 1.8287395909932480098 -1.6921810801911900679 -2.2021293410364175536 -0.81084321854992835732 0.58784569267991670927 -1.6339156012620335012 0.8850870822773425628 0.48434911806404223888 0.59829211265783710516 0.20037622473240954135 -0.71603617634317062723;-6.9298451211001603767 8.0263947287226109495 -1.4362160545158866309 -3.1162916995018021815 1.043801162353897416 0.8402022645323227179 1.8709041247900490834 -0.30249099945250434995 -0.3065333579688458987 -6.1544270466275188269 1.1456666441472094231 2.923045513096426351 2.0825554008680917661 0.36660098473626928639 -6.7299003055747759205 1.3215442286657548276 9.1906766130497334899 -1.4322173635774670952 0.9519037655442339485 0.56204181271149655785 -1.8464557003479116215 -4.7561766967142338203 4.258691863504265207 0.76098197522085120337;-1.4987045178804756507 2.5897570847753850209 0.8403147302245961292 -0.7589707207219102969 1.344347659644079096 0.023984382468253399867 -0.27566262898468862907 1.2582674602586483292 0.92257393177258484318 0.017651665993305164226 0.57520778393582094878 -0.99797092458906100365 -0.95943025380518520695 1.7273692313067119386 1.4471472967937670795 -0.85006813319053153855 0.1831494005069336517 -1.6881755422218054363 0.64591099346527403036 -0.98219854997354760773 -0.54184435713050149719 -1.6778860036291054492 -0.38538914972052445984 -0.93776776089662849945;-1.4907218009807559067 -2.7248539157842750491 -3.5448824750652700999 -0.93584858589857655708 -1.8640243844320558697 -2.9641934802073786059 -1.6857254999521416039 0.79435567035716736495 -2.9677784767380837039 1.4742098967671948273 0.87158828571867474899 1.5192649476244413087 2.2078384233665215852 -0.31013875478600810842 -0.92211612924568353566 -1.1242044242951694244 1.7766549728386720197 -1.3258939923721575482 0.51533714563558097321 -3.6122286268759769001 -2.6163619592170865857 2.8828495219653427206 1.8659012780213037885 -2.6229582942675389035;0.3145713938671215737 2.3514799549939633394 1.1504030113607397467 -2.4954350445309620987 2.2025056396005626702 3.0893602913062538917 -0.49563244145396179174 -0.97287501765952488775 1.968658480222023055 -4.0875744943988641111 1.0757402173410786084 1.6352294182277644641 -0.51957792820448489568 -2.227259477765277218 0.48566363270355428217 -0.72883025245827293137 -2.3553797327143448648 1.5121004089199172604 1.1442517863845096393 2.268811921570199619 0.16811628689714025464 -0.30672860457666173417 -1.6469272813684687762 0.48250210525781878079;0.47939087869635654826 0.98838919389158896855 0.21568451868612470435 0.53826115762635828865 -1.3774236306815779152 -2.8600233090336364405 -0.02427258801960494039 0.2938234486075426144 0.75736105541302767286 0.24355215053999665353 0.94873992218811109556 -1.1553946012159852508 -1.479747657226644808 -1.0217300901985635342 0.18572411641951805383 -0.27397224850476570301 -2.0230837899650855327 -2.212258808195763482 -0.065582318571411807318 -0.23076683529034824893 3.7704474600381940874 1.3146127702448084928 0.26080322854912629804 0.93528718440650560062;1.8929676250790175018 -2.7237643544774292614 -0.97768059611874325032 -3.8274878023057863352 -0.61066464836567724284 0.13416217642189062764 2.5718239768899802122 3.6372799375053275206 -3.8130239413905209211 1.9269685494314279239 3.4250775347112023539 2.7459928740056289698 6.6893197013729439604 4.0668605905300259096 0.033592683884416593698 2.6342261127774588836 2.6016037487235044168 1.9018563410524562673 -3.126588646454547149 1.3488581985922183382 -6.3200282948351436119 -4.1193480995843776427 -2.5176273864671663283 -4.7985404699190050692;-0.51840181722917999529 -1.5184434903131605044 3.4022490298172058942 -3.1164031187664229527 4.5333914294745421003 2.2408473362889811398 1.0304133519162363974 0.49998109117341066332 1.8434932141227802216 1.1955785915549355103 -2.3550676640149377228 3.5342530856461786826 0.21574658887445882782 0.11268912268419933875 1.3180536997698306667 -0.40404503632085031484 -1.6064631126557267216 0.41183357405716919386 -1.8307013601820236737 0.13415104413178577381 -5.4810388989981495556 -2.3480384201950150747 -1.8636412750978665898 0.61299676570127437092;-1.6270695486964295018 -3.1925783105897163061 0.33267132034602553414 -2.7698573444958465295 -3.6586622663586578774 -0.30982881416737245717 0.59477570237138144282 -2.0048746417304919021 3.5444323140483895429 -6.3195131455735236159 1.7553152416908548439 1.5074394442859335719 2.3900020685204270698 5.7547958585386744801 -1.7410275893873348174 -1.4458459750071845917 -3.5266284296459127212 12.545231292291633807 -2.4794671404565509221 1.4308076431502148029 0.41264751638666430367 0.058341144788577797842 -0.029270708660265931655 -0.00021210588042429312505;0.69455144136048807546 -1.4441636518627576358 -0.2155876582231237848 -4.6040493903424959399 3.472752448852162388 3.0129812668813271692 3.1509983654996331914 -2.0612923027138347898 -0.065845057962259645468 2.140321533100567386 0.7979404833851924117 4.2902659080517882018 0.26437284741951960765 -1.5606711857321462489 -7.8158388560776694831 -6.6653528512616713186 -1.3729567217429254899 -0.64978384100201325158 0.2661816176316675886 1.7489104315993080352 -4.1866299371926452011 -1.6508394915745145948 3.1477344286270771967 7.8482014011432390532;-0.87948377766680818635 1.3118688550437191953 2.149231076708206345 1.7151683916826783172 -0.89269595792215650221 0.0061873263930592795057 -0.90386693464084744143 -1.9008614794397795666 0.85374336544133000437 1.3407895708387995715 0.81001380993346994153 -2.0074192829800532323 -1.1940484030827149819 -2.751230313251674886 2.4687519010254024288 2.0468399605133038577 -0.37895579326969691669 -1.5300675434228439009 -0.8751316462020189979 -0.52562500937787703936 -0.38695167091373933177 3.404298998374280405 -3.5115698255647722625 -0.43184232255044296966;-0.88677077709606821898 -0.28608408721362160732 0.33751300346907364691 0.003656652856838304988 0.11519180295982721363 -0.8548481260314628738 1.1976958001074897719 0.17206570176689883755 -0.31689426142135412867 6.6402114720210780874 -3.6554082994391792205 -0.58317312585036673589 -3.2683830052690243662 -1.6927856748958705069 -0.86590944596661789667 -1.0443800890978587326 0.62503505894876654203 -7.7453542039335028235 4.3030622891876371128 0.71275603923615715729 2.9156658307930740648 2.3968086802971724225 -0.10181798693843197023 0.5332690400639349404;3.3013670462303736919 0.8527128951232592069 2.0732370658321888079 -0.29342829476109349995 -1.3948200816568843141 -0.72691948739930500878 0.36397456061693334028 -1.6570293617909790385 -1.05285669064282561 0.34792138087239143918 -1.466540439804845164 -1.0454534667742982901 0.94077605013358167607 1.9229563545651278123 1.4262783444557460832 -1.0456338081651275207 -2.3805796477509186815 -1.4689100604758353885 -1.5568781315526318831 2.5505913108141879952 -0.35121560780752547615 6.3602769051027356895 -3.5083008029324842525 -0.60869448624875566178;-0.37085181937341987757 -0.77472111495032136563 -0.31905699828992728495 0.31100224299442180698 -0.89140661289038336523 -1.0469971355250853318 -1.9210344293196994769 3.6400791558488174715 -0.13996759204642189589 -0.39802052760261730224 -0.21554473627271134029 -0.36360270944084005507 -0.69727846483479594131 1.2365526078070279148 6.956828406658689623 -4.6965942823299569042 0.71801449339661393978 1.1623266641013008105 0.22130483548133284 -0.064741628865313871621 1.7722178420466045967 -0.036526763301624957936 -4.4192111878310633699 -3.5620281813793339687;0.6735701587560330994 -0.65518235655005818696 -0.42502719689852047624 0.11080709997651934373 -0.031586193600606202181 -0.56326601657205344065 -0.37314706411539888542 -0.34470302171783956391 -0.16393701767357604648 0.031803870455959878938 0.6236914251179868085 0.11461070606200113309 0.79061640838518032481 0.072966578623498173917 0.82026386509948445713 -0.91061620686305966288 -0.2780260291215224111 -0.49544298332793540451 0.9295663514436502961 0.30940216628759309447 -0.24172330771567185348 1.1445292065803933657 0.73938181689610205094 0.00011908640937199899135;1.3832198119042609097 1.3329145780873952187 1.5410937533628945584 1.0259338615465316558 0.87405969632749536125 0.62884024697121865266 -1.978339617460884714 1.6973531404432948833 -2.5328956932578665651 -0.18931324378924585528 -1.4961303019205476339 0.66310467370125458775 -0.87981650708872560784 1.6775176557052786652 3.1700622544093937094 -2.4554296279408265313 1.6125307383661011684 -0.81874644088023695865 1.7058817454750547782 -0.61146984764659884082 -2.3727749308499928027 -1.0496780342877694014 -3.7677270173960586419 -3.1369258746805996907;1.0325636287673616298 -3.0287849458091593569 0.8602258151285174792 -5.9349747111496915508 0.69016660470479429534 0.78109717006796985928 2.3120486888360956002 1.001415652848773874 0.12397145841420284529 -1.8596526372043686859 -4.9350507795546025847 -2.3402513553856416628 1.9889069801873953125 0.15737840410029527161 -2.9290099660818507132 1.1267217537805083172 -1.6286296576464347474 6.2272968980373120118 5.255007120968183898 10.702894927058308028 -2.605454237347594848 -0.52823888485175585217 0.78904225224765411895 -5.3162314994483574893;1.0190003835788872255 0.58780949574458696283 1.222974317165151259 -1.139500211613118541 3.0864281534982143107 1.6483640081466881533 -2.0237726024875657416 -0.10986641618064543757 -0.15849695018107495814 -7.982171456650378083 4.3892631278632041614 7.2878298865985957633e-05 0.28027860713766317158 1.1603176242408277385 0.8028703976074862414 1.0350843679155063981 -0.92440423411381855701 8.0628981918041198185 -7.8179656290401364771 2.4650292157792241809 -2.9161428632329897681 -3.5468437105971597489 2.308906511417075702 0.21711809380555802118;-1.7520562773447343474 -1.0210024267130775044 -3.6063257147886118581 0.30721365411516304844 -1.5245597410424327478 11.221947903633083143 -1.547109211985982391 0.072411977843749419925 -0.54380415068405030254 0.83893232010014762157 2.7518465783958028226 1.2229259084811796576 1.6411279287209354916 0.23875956088720226567 -0.95944258534841697639 -3.5047908503416103088 2.6871793746673322545 -0.9452393087349686418 2.1363496465621860665 -2.6434941552009258992 -1.493259284417658872 -1.8853665849575160784 1.4724728082652487338 0.45850892276137278358;4.1065100720184224414 2.0140813110651349938 0.24421382398720770102 1.7732362000237358313 -1.4550617255077040735 -0.10416730907176928456 0.94322935150153586203 0.43448507134836589216 -1.4435453330879033373 -1.5052926066177758635 0.25676146708599256741 -4.1500043410081506323 1.2437837940588012398 0.68199175313569215806 -0.89454710892949806933 -0.74815669287700758971 -3.6163523226065135141 -0.17470364134935226219 -0.5786196214963433837 1.3533049339758673746 1.2157129413265559403 -1.1348470972422399772 -1.4727180868650795453 0.1283433187006454701;-1.5109807989419294927 1.1375681895612799188 1.9911546463302203236 -1.956656235458979598 2.8859965016363582357 3.2884634257104132793 1.9433195895239916418 3.5900035810549302262 2.4261497555367106393 -0.47313644870074700322 -2.0849014801741585501 0.66773343914903116048 -1.5611550506871212374 1.0585606774486553405 -5.8116350602440309814 4.9485894428289700642 -1.1775406212688996899 -0.47388933420946288688 -0.63096763115284382195 1.7743758953905837128 -2.334273572824444809 -0.5014516230250425366 3.2377534209046818781 -10.315039530816767055;-2.6815105971909622973 -0.25751019971200261871 -4.632846145259471804 0.95667178048380141497 4.8025234198135580144 -0.68855665762107343131 -1.8012379675627361308 -1.5375088262326386257 3.505023692716141781 1.29779214686759925 7.5111292785016292584 -5.1381418549446840061 0.35106428152591112601 -0.97331598558859377945 2.8288915847366737921 -0.056006618130513975695 2.8544807998814079042 -0.86343497687974779531 -1.2964863840167761833 0.6018527342871544672 -0.67859995861463751066 0.2137189639591973167 2.2902796080194409711 0.30993393300355387421;-0.12365868097267460057 1.0135040761154272548 0.045686176838408316947 -2.3801240480260417165 2.8032135292172233321 1.2298603203045299637 -2.1655015922123523886 -2.2423206214004065551 0.76918147788243884655 -0.24106840988869532305 0.82856416185062986557 2.0757621774217840382 -8.2653748358647334271 -5.0000379781179775662 1.7184233471391467951 -10.233406516016680499 -1.0340465668612530692 -0.6943309425534691659 -1.2487082998518894694 1.3785072907857811586 4.993274282881527526 1.5765749857588491345 0.5087063560686376773 11.663575332563546283;-0.60307131496480381738 -8.6696814917233950837 4.6962219973417473895 -0.44645511470431908929 1.0930146386582246798 0.3315829228121551786 -0.54471347641498413239 -1.4329364305101823795 1.2908982977447851503 0.6335299141623942365 -2.9115136567216097774 -0.2963928805569826519 0.70970469602445673818 -0.67229632321773902248 -2.4590804241241763783 0.070911468246152603578 -0.90282979324322232273 8.69561223609051126 -2.4795460543926122199 -0.11902751269610296891 -1.6080009103076791099 0.02050431868220216336 3.3083297920558751848 1.3076959216708148315;-0.67839888577533236091 -0.30669514141704778964 -2.8458517611542881731 2.7642938330629163168 -5.5275623931104993503 -4.0730700043173886371 -3.6129984854880854428 -2.3960627569881634003 0.94787345759828889324 -0.22054529450274454327 2.0842333236627150761 -1.8460683962624191423 -4.8115550891876557316 -2.7776737546232035392 0.64133507238183729005 -1.1515681116171341269 -0.21014902580318514658 0.16939863057446652439 1.2170551394046127403 -1.6002972978150955541 11.038687070648348865 5.7011940349470160427 3.1911479661206678671 5.9256690903749831278;-2.5604419424761393209 2.0690200400445117879 0.30835130661040416333 -0.17282068904414110699 -2.2431848771200111337 -0.70382851298739701473 1.0803734570509879731 1.4233005479543732186 1.6041897662187603046 -1.5752648122018315657 -0.59642586725494528554 0.2155533461199242995 -0.43212716718031674024 -0.34237191560003876756 0.3604559661717503527 1.8550685573418865815 0.60417425565799265375 -0.49428943431013483423 -0.53653869069164195071 1.4279386611241402516 2.0366040334283233015 0.7801666617593971953 -1.4920587132255889173 0.79335786851026524058;0.35156091875389761103 1.6789835936665777893 5.0825215121674620633 -0.049503849525751153493 1.5264753093360281522 -0.32262786565192480559 -2.3646870351292235135 0.85533233944112563307 -2.6452271085539478257 -2.9400650670603432069 -0.22778084435740242331 -2.8882966170028256947 -1.5721013812958872791 -1.0161371562884899955 -1.9589027646160162011 0.56076092804642985179 -0.96545939336991037916 1.4872376884312814571 0.09855918723376282109 -1.6963517794419431528 1.5935817628992676731 -0.027645394528919828292 -0.83190506639416861301 0.11621974146496380498;-2.2146197058507799404 -0.3138724108109184896 3.4579390062925612348 -1.5853430480724934881 -2.010430955421516952 -0.75190451866476981646 -4.0635032608226735462 0.049414208513210731988 0.82057813253729561254 0.17282961082273926023 -5.4262480390144265385 3.7034972636083058894 2.1845172127058551936 0.27777652045465350827 -1.247387506041040206 0.48612958250049465025 2.1511537546162013967 0.63955623046407272803 -2.418187128245381956 1.5052659658683309463 -1.554875585472233146 -2.7322413864539689676 1.2073724810614918646 -4.1241750202150315729;1.9205686231515315399 -1.0562285061349174775 1.0163510381132097038 -1.2919182730442659857 -1.7068716429147330338 -2.8207108005279040164 -0.58521297401003180561 0.38157248946847283078 -0.815893332529723736 -0.36069395069824145006 -1.4724434120727589725 1.4848494986037130694 1.3798170737075232672 1.7156120925146689515 2.1528489077054775436 0.034502800454151848208 0.96987159531229405474 0.508611067783064974 0.15967610260232123487 0.27128115121101703533 -2.0013878705383261192 0.6486575525773113915 0.84062705072789811744 -0.63527405521297564128;2.408157194514397581 1.299326901935127232 -0.1378775986411297505 -0.12907494895268115109 0.32280855970024580071 2.0185968214805849463 2.5605054801730919856 -1.428116340184719002 0.52347484788439202497 -0.4324449408114744986 0.17796896374578297095 0.2433551287450838041 1.396587964668242865 0.24486359620842237939 0.24903219244947671918 3.2922472144420500406 -1.134545539707866757 -0.84959733592313912975 0.45919686597218317692 -0.11137061476979182029 -3.1904221545242323899 -0.15669204809042786009 0.56048759459794261772 -0.8746180538061285592;2.1218951038032209944 1.2646174445507791795 -0.85140426748515873889 1.1707348170987090796 -3.3427876419177713352 1.311909976321858684 -1.2406909804008230402 1.0744826385515835465 0.95804638182211510067 0.027888408209427673068 1.6900194855594299348 1.3304761024827249649 1.7562392388687635414 -3.1034798418199192049 2.6649186683822612132 1.1384472492726587234 -3.241385897031197505 -1.4526055143994256458 3.2043993197583016119 -0.30601993587337339431 -0.085067130379748029378 -0.23130284986074775566 0.76603681003014911788 1.3929800021705929236;0.63741065349432679543 0.38304537097803292856 0.76192579233047563747 0.68731169596384988907 -0.33113472176748426357 -0.47818585094042470596 0.43452324258311852967 -1.6285654894735384079 -0.47393289693441964516 0.062969108086643035826 -0.17052144942576769049 1.1180670677435673444 -0.0054888163397867617554 2.2744783933207743942 -3.131728943081113048 -0.060630866501905356092 0.46070062951674206619 1.2910969645976391185 -1.5086284268064955594 -1.9689258980018933265 0.13245826817220082705 1.7270539888229463621 1.8162431920930832696 0.36747912610849287063;0.52481257175120599179 -0.12031913408754832395 0.69972751466329430325 4.3840953274308569476 -2.7296107380137928367 -2.2145071002936873583 -3.5744284424454533244 -3.373052671224459953 1.6631773850730053876 -1.9276810105077060165 -3.0466283976350703178 -3.4390338044764554581 0.68865450998243193936 2.6264639600714918544 5.8696426229465519242 0.11604052470571733779 -2.4436269373465697718 2.0883960365302498552 2.988830374544390267 -1.880792480151517454 2.4149794649861169304 1.8182921971472791878 -1.5334677556147446875 5.6527708765703019722;-0.18198983435444149315 2.4824420931984692018 -1.3868567988941977731 1.4319655678091471884 -0.72827572617822122769 0.41267243346850723817 1.5576454290731862606 -0.20075319808805822119 0.13702044983620031982 -4.6633293966865805302 4.9688309548027937979 3.7350064253707020434 -0.3637191076174017268 -4.4147586998286785231 -0.6418869181683504177 0.71144206717472613377 -0.45424679156651898149 0.7258260498461839294 -4.7828005357170013667 -6.6135419662042043143 1.7627108406623281933 -0.97377676826761405682 -0.022291816638277728302 -0.019440779789595019622;-0.20363712889627572089 0.49694039750714902315 -0.24615655509784900579 -0.54046865645450270499 -0.54279913783041655595 1.34235711275529912 0.57301417801604170865 4.7674190656855852666 1.7929178112770063347 -0.59725594277906024487 -0.46900375647438857785 -0.0165058197678594476 0.21767460242987521357 0.76458312259463723226 -1.9528608485760217128 -3.1544059443338019477 -1.5676273556283715216 0.057386137744059040333 0.52794141501962477125 -0.028694910665035728431 0.15287406948106002647 -0.94585257588926041628 1.6607722229795447433 -4.3381770230428742252;3.8143695067398666332 2.1929416778373722607 -2.0932998219332024092 1.9573670635873328116 0.34986375284003673469 0.9266437984723541188 -2.4736876101234157588 -2.4250707822780004363 -3.3819722853783620309 -0.12228744820139310356 0.44704667566776901122 -1.4109156253928938352 -1.1503918239405028778 0.58611823968186360645 2.1729639743002078234 0.36367659847703909248 0.12378211969640116885 -2.8340791890936114505 1.1647832140431564341 0.27124333951258350339 1.5708282951746395106 -2.5515526332284008681 0.054966948529211349939 -0.44137057049587780089;0.52536738993131160136 0.11852765728990566352 -3.8320774148710414764 1.5680943151153829973 1.640772014067505058 3.0245490670925754273 -3.1540674022129446818 1.4224130774186853898 -0.44349083060655614119 -1.1623883730357891242 2.6972197145504672733 -0.69949329012737959665 1.0859344912807094019 -2.6140976973248903903 1.6390340984735980445 -0.1807086167527504339 -2.6102636904403264673 2.1076131574068206476 0.61565241632643563641 -1.9693249540980584111 -0.84491257168807398781 -1.7553459137607685392 0.88620110613800540111 1.6701692591406247512;0.0095618584861424799071 2.1220072306699400144 0.0907108737359470646 -0.70107078889595630944 -0.007874257899801007099 2.2285734468534479369 -1.90034100686422458 -0.4205740131711047658 -0.32818972574735127967 -0.89470208574647835942 0.42699446562499460134 0.13700313350963194692 0.83706740088060416216 1.1737023794901231266 0.073110040359226025064 -0.89216965156800254189 0.21058796838099222426 -0.27488191067913264609 -0.96531560684215733659 3.386850368094679542 -0.55785063575504711952 -0.35435857407420234821 0.42810301550005769311 0.63575338015125815172;-1.0947806666196648884 -0.54302027634958005553 1.0569104164243183774 3.205617214846565588 2.1955179136598230727 -1.0303972046394296314 5.6181095735390691459 -0.65797075393412685074 0.31030727967008492341 -0.073766666905378405761 0.41326520609079575586 -2.0911956586990201323 -2.526996768620158651 8.1977303597579158634 0.094232432246014311006 -2.4035275285389414712 2.0803984042053782488 1.5651249998274672226 -3.0153741849252120311 -1.5930571775948834112 -0.31742450966056001693 1.7633654389383739414 -5.6570269993444668444 0.7317437707430470839;-2.1880682285392971664 1.9273382923276975998 -1.5452350581543914387 0.026240508113121591149 -0.26145672618896842465 -0.8851159439100000359 -3.6327888518135100782 -1.2065776375248911112 3.8697321711748386974 -2.6266111232378337448 -0.67526315941070325088 0.22555004976307588271 -0.33305037648903157432 0.07131275467453779271 3.1864892807575744271 -0.79153977226764593578 -0.95836387167545744603 0.94203235654514183572 0.8608544528728470091 -0.67436989772016986411 0.77131496568613555631 3.0012982909552672339 3.0859649721443886961 -0.98100429130718769244;2.4825117437751087479 0.2942727077330011265 -1.7570915108244256064 -0.87481385034472947115 -0.75868237642151070688 1.6453092144709711153 2.2518628098603259424 -0.90807856680101506353 -3.35090284176606934 -1.7007427599144764319 -0.3127384961869630331 0.59792151993066688931 -0.93543078268172619172 -1.1236567202136769072 -2.7184558653107302462 0.13899672525584802485 -1.3943931565867124789 1.5076333260030942984 1.5205464920331337453 2.2267561972708866946 1.5622389352930019513 0.9143844622619281548 -2.2361564945550367334 -0.67643584661397926361;-1.9054805461879733564 -0.57278686174557658095 1.3383999216268263055 0.36981378256067071186 -1.6350044558959908603 -0.75581985936543893967 -1.023888441801062088 -1.9159748121856916558 -1.6375037100823102154 0.79416704702302631791 0.7996926784449579495 1.4074930173171300574 -2.8388033746634691035 2.1599383823873159471 -1.3297739299731765605 -0.96941952386346019743 -0.21052258320609823494 1.0073344896507836488 -2.420058033044222956 0.75003212437915045552 1.0973483691180818678 1.3214033332337946636 0.37922528109059933099 -0.73731611590528634004;0.48385506430159580527 0.09804074996727168978 -1.9173281717498218413 0.41214771768935914986 -0.55231957258237995845 1.1143600614992470454 0.43215323886173978574 1.2984242638479417398 -4.0588196129580174087 3.1188008742141675178 3.0091091377078682534 -0.37546924563199035596 0.98595390840893937234 5.5172794453477873589 -0.40396779533747262381 -0.019271388619194113057 1.5472842856758741714 -1.3986023111043623945 -1.0840160072691162885 0.752346902554019481 -0.93179080596829622074 -4.3805237622733814717 1.0900764290528242029 -1.2954017243566464668;-6.4670955280900095374 3.9542571789322491504 -0.42624880319542407525 0.30172968539971956048 0.91228555305086000971 -0.56811519523938891485 1.9800850432310552751 -0.77406139440686583253 3.0237631076435769195 2.5915068650711501341 0.83213218288910506537 -1.4216979804609819471 -3.5759357250504941739 -2.7330236596426149553 -4.3742232424530991253 -0.886324704672012742 2.1172724987028086474 -5.9240967233718242468 -1.8231875517971050105 0.93829916824171610834 2.2488633498548904477 2.2265429604620043946 2.2121853938779660886 0.042764941839831302484;-0.3562750026605799869 3.1968431414707572102 -2.5568732761924266583 -6.0455400533299901156 0.10723059518351160668 -0.22421275738791229815 0.23777929112088078134 -0.20388577477825828299 2.5073784606095377292 0.52425482120586985868 1.693523542633017076 2.7791071973912497839 -0.86610538000711012607 -1.1677692917617743529 -1.3275832189631839864 1.463420202561161787 0.98487000762402210352 1.4090121406058213616 4.8615119188186044497 0.20318289953014762039 1.2826096383951623991 0.65146931816080311251 0.84053544479894704011 0.090667814124465312409;3.7341057351830055921 -3.115702666351181982 0.08546432417395095904 -4.4086182842137464633 2.1911571680049459765 -0.32488787512168149085 2.786646187288751797 0.4877784010921687452 -1.3967264500408322903 -0.43625617065627764202 -2.327864721934076897 1.5690320833124660194 0.019830723147115703053 -2.3968816814884648103 -0.9909030521133024294 0.007152191195740301155 -0.42256814278803489504 1.1424651536428165333 3.5072963647794939135 -1.3565456639417465823 2.0641328994616432446 2.3461737952478505242 0.36501071014262698178 -0.0092705949430549883239;-2.6822636797904224615 2.3265881526494069931 0.93859198693147094517 6.0692247695504155658 -2.0869629491348775652 -2.9821766597426835332 -4.616361381105019035 -3.3229047680693297728 -0.28487308042778697326 -1.4827668778397598004 -5.332707850621889456 -2.7007793077139936599 -0.16458816950314897332 3.2789422825147243046 1.1492379877438185787 4.551967704477054788 3.7803322528279879045 -1.7798811244517678265 5.08073115513573903 -5.633514819556059372 3.7114006824663650086 2.5435786486708487075 4.6131592556647866843 -0.96332612629682234928;-3.0722430902396378194 1.1771516465828013587 -0.66635588488945229901 2.2049990994733135174 -2.3456814256123283968 -1.2397385717136415462 0.31703111799352595712 1.2488832813035053437 -1.8656008100949366124 -0.41589294791096892423 0.010321092233324551113 -1.6730092401309255568 3.5953232246203130629 1.9032165976531696394 -1.0621456902973211989 -2.6160506458503887117 6.6411536174650134257 -0.83371111613185122646 0.61472535235202430126 -0.73281977202683490358 -1.0144403372216876935 -0.36346791330235678208 1.5460671472113023395 -0.10972197280746359693;1.3105116778218695028 1.2877112085842465916 -1.3277449844393034439 2.4426643077148790795 -0.0088512621185398432377 0.39956945017502043527 0.097453034447470637813 1.1198570396069522648 -1.5028097648218119442 -1.1088173161087442331 -1.390258361999408665 -0.69268518990642391486 4.4451474250460263349 1.6391404031485374837 -6.4224280920154459551 -0.62716129975314349743 0.34014507126459919695 -0.93676951454029599997 2.914060013798804416 -3.6038214980509453156 -4.0513431102219765734 -0.74489486396163817616 6.7665969125484002333 2.1054334675774994956;-0.31839315587112376749 1.3460556192547414867 0.87915087299846206292 -1.17192908637041171 -3.0995293797427700966 -1.525827890088989891 2.3159388028423504302 1.4958992783164402063 1.0884660638775183195 0.39872275021624825619 -0.84106137903189559513 2.9395633164507808388 2.8972412328995922337 0.45976945634063648427 -3.2499658777373046092 2.3315455400185980395 -0.99025017993999164823 -0.7545196894076109384 -0.50705458161711036702 0.99850088238934819884 3.1843956306168350601 0.11997498583613167011 -0.41905197217676687371 0.7752254431839439297;-2.3822837443667350676 3.4279916154758880431 2.1779786855669924783 -0.76032231718684384347 -0.822714343948849125 1.2096948411183208183 0.8701258918612091442 -0.12928078702888079476 -1.031668890629822366 -3.8167071362333317985 -3.4312327178544137496 -2.2463334295502752624 -0.99129335552261488296 -1.4889443244586098025 -1.0943898017997351069 1.3005429287793026649 4.2783344183684972606 0.23585155609519226072 2.0616872857106480765 3.6203800077223395881 2.3290348354268841646 -2.9976086308499132471 1.1743376568872403443 -0.098642127904470619515;-1.5519617746602814012 0.95365937332456329756 4.204595244676832877 -0.91817047715856359158 -0.82710659170505518301 -1.0622446357373132031 0.86514523730845460658 -0.24877027791567507542 -1.9034681408374944933 1.1392744341484337678 -5.9098869013156694052 6.1974430565494209588 1.2750554398725222338 0.34379755173572973392 -1.8070163838785666677 -1.6916396145535581574 4.2613426884237011194 -0.77603337559136942314 0.96726439698750676932 -3.6614255931955801415 1.1790893660968431167 0.37610626870226893104 -0.6075342289061915757 -0.38192039950126577263;-2.8541705823085901095 3.5728341489874422265 -0.097487425331714852583 0.049233005375730706787 -0.034023529401563411267 0.51326989957536039988 2.3488684697107578003 1.583476306482136442 -0.85623087562547273155 -4.0998128608145529839 0.26078379931504719336 -2.4911944312441942628 2.677475340860280717 0.37380597612556537568 -3.4357789211666740492 -1.5391731727280528741 4.4901513944944708712 1.2193328971874575206 -0.72635043335837234935 0.057752568427313161203 -0.14968173493137404417 -0.32759462747661821647 2.0677487407875436709 -1.7789347148239926799;-0.10759003496123126231 -0.43155336045002545831 -0.33604282198850904395 0.45260215548432181087 -0.67843639977532088636 -0.3265957719851654284 -0.59708364993390583564 5.8643069218353778282 0.57130365589478571131 -1.1988798556127102657 -0.80013151968159224037 -0.089896513716999776333 -0.30916812453707626096 1.3280535583737098637 5.8842866023469859726 -0.67393603107379629336 -0.38445221166612014718 1.6108986794497734962 0.78966429766901768961 -0.71773621323262382088 1.3319938908185577908 -0.31428135738445039937 -4.8333857237897213111 -10.735715688244688693;-0.77184378778540085886 0.86786882654774810675 -2.0398630039526945978 -1.1650533954696791206 0.38244431122715849547 -0.11980180285703884158 0.74009719989204625357 3.7682680045375303024 1.9762009874587667113 0.036281688168763807922 1.5900597852223357087 0.57294989933274453886 1.649007683555553605 -0.73601981285298945235 -1.4218852781162645282 0.54866031268952719646 0.46758571674460208678 0.44190176115076518215 2.2294974309281667679 0.33780036621146475317 -0.83078371852809473896 -1.0848573527704561403 -0.78673710149888143039 -3.5180543762661313778;3.3498595068803265207 1.6196090578870303567 0.034796966440212379057 2.507644802188305988 -1.3814964527860562615 -3.62027883922247673 0.2982542940626277117 2.1673191792843389258 0.56256563222752620224 -0.14933071577162546073 -0.39455667319290094186 1.2403315169529618434 -0.40909472488464621032 -0.38287795947541725106 2.9205598914331645233 -0.25442762092765591753 3.2135724628859732022 0.68567705383483790182 4.1752697809482164359 -2.5954074893069165597 -0.99605001806968640476 -1.788692506666921922 -0.28920412304920078972 -0.68973787714291545647;1.4732140584117798809 0.15248315799741207766 -1.8445093067362419159 -0.32076514673621925322 -0.58382112645858208477 1.911590518759615609 -1.3297262752004668229 -2.7068302231153262838 -1.229792854255784551 2.0138302602639952532 0.85151116646395952348 -0.31902624200080426098 0.98000984286405778967 -0.95351470262547810552 -0.93140714860880513548 -0.70066386573595085263 1.2943627712980907418 -2.0622357466513148161 0.39486718421596056494 1.5314327470590713975 -0.3769818591775472294 -0.2206453020544272281 3.3947784403814238452 3.3559718169992418524;1.6786695639960147464 2.959838216165856295 0.23006547888734010798 1.2411497608206101262 -0.66805618473567041082 0.043794333448369887618 -1.2987520490804524975 0.016404772188911408842 -1.1573840010218352514 -0.3351297724301561809 -1.6097123091978673415 -0.91797034775023556019 -0.33992158339629047203 -2.6322656158628139345 0.20091374106285403434 0.38739857761849993967 -1.2644810771634089619 -0.5589996719637335687 2.2675806884497533567 0.55292665648156646974 -1.3132037579294020269 3.0834198368195302464 2.0606740925385920171 0.48270050857388474563;1.385466828212618795 -0.17215657566626280106 2.4359348372706199903 0.962870718393715741 -0.4059643287963167757 -2.3246190468586260813 -0.56582970690287448523 -1.3399860067138846809 -0.66232182508122217079 -1.02811834748751596 -2.7069769350662076235 -1.0434754861091093403 -1.539693161393424603 0.13296763933293376247 0.89755463314741890102 0.3361495987553959619 -0.88700046142030508634 0.72240280628498731996 -1.051792102342503199 1.3696420556103867661 3.0766246102742371704 2.4490738247093788438 1.1754053399004213976 0.704633869462509832;-0.10792609539818535935 -0.24513808245975635125 0.98651129305197160502 -0.037107568503549751004 -0.12660734827248290579 -0.099703521168245670681 0.24878890978282522384 -1.2825937363350536913 -0.030467954623590358387 -0.28079293570157509707 -0.18228342173487879774 0.69009313301735075719 0.7093426249364062075 -0.66318415296708443929 0.24075964607184491273 -1.3096381840761066595 0.09313784560542076596 -0.36332344292841078914 0.28187470111475321222 0.24508478839121233817 -0.12463271566578942862 -0.26830060610747041849 0.7193461732157774291 -0.54669988409613556879;-1.2866011332270710366 2.8955013370737612277 -0.13475070706134201215 1.8832730191982833823 0.39788482780680101136 -0.72678199735074466847 2.1651573730190563083 -0.73300452993671583179 3.6197006551296491139 -0.77765486130481520366 0.081638397772544848974 -0.64215376316190697636 -0.13961178121002593144 -0.048497833834368592187 -1.4082579240432864243 -1.2055885604687432977 -0.28602973106185647367 -3.2030054859290140179 3.2768983920787739805 0.70944361645352760348 -1.5592119251593441476 1.2695162924899174861 -2.2345425859643817112 -1.4429026260818718086;-0.57701379412139275349 -0.65261115777229938839 -0.37168120600097459549 -0.94701736871515473926 -0.055211395034225591028 -3.2601493879503262718 0.2699728138983457093 -2.0110483733393325068 -1.1824355623269311444 -0.47777132239252573243 0.68509065072555896947 1.4666960826050166045 -1.1346569887809594412 -1.6510402170525411147 0.8482199076084495637 3.2340216788648064039 1.1710930996314523611 0.2574116603348147736 -0.43990027566940925752 0.082124302784467001493 1.2523203639891804517 0.3015981594328889237 -0.66138660551199102144 2.3450012132313098334;-0.95746463919705826484 -1.5362700507909545777 -2.0799285513494703004 1.6634060128424761338 1.0086800150294767953 -0.18399583961574553226 -5.5716714404357574608 -3.9094898272624227786 1.1747377382052999195 -0.061137186414347982621 2.7745371339771081054 -1.7634054544991715208 -0.35107858782114603757 -3.0916254592474490259 4.989770357071056317 -1.1535716167052274539 -0.3136507757338158342 2.2079301926176810866 -0.44115413565304995025 -0.52493954350484550719 -0.27104598071633234646 0.25386755900547214315 0.33771595954964295228 3.7089792662760432407;0.28785616415046522132 -2.0693345211307305753 4.092210956605337735 -0.23421433597277985239 -0.31792199113888719442 2.5744174282269898235 -1.3696424759415843919 1.0165563466573765972 -0.95094031484215624239 2.8693007703493402794 -3.8192681829049122122 -1.0624292796029861652 -0.21301976472095826565 -3.5347250904311899866 2.0602205522852616859 1.0692055873905195185 2.8238651719912311044 0.10591900633846930424 -0.29070429832247896007 -0.61517705075668616121 -0.15363399447582259949 -0.87226801833098965844 1.5051831507165009949 -0.86852251080887454826;1.5843773446765434532 -3.3861379023299176261 -3.4503267319137496116 -1.7983231833743977823 -2.0304682450597901777 -2.5200870941096944478 -2.6693533394314856722 0.35907797823505788193 -2.3263667255414093304 -1.8240147270092694765 3.0929143380206460812 1.3813569493220796414 0.46854455188767751839 3.300014126304306572 -0.57549007465532442396 -1.1341925794394462912 1.6198427077318846568 -0.083697973481442602961 0.42468560795737692048 0.91768807831155063681 -0.72608815570394480421 0.6635960266435168009 2.2935354472797846448 -0.69821415249080742704;1.6870008886003193815 -1.1138015078244531963 1.5577836961635267432 0.74171532719695409952 -2.9709083374702314195 -1.4163426758299921815 -3.8337383238702904542 -1.3428113562926782265 -2.8934828059798238797 -0.001000951434329419576 -1.084928806326539652 -0.5208696813381750168 1.9353152206154813353 0.58943287941244604244 -0.96592114955273677968 -1.6300361865191967947 1.1689596009252418707 2.0210162102716937582 -1.1180852099138505196 -1.2406586849968046504 1.5478835306525240423 1.3937308496243590028 4.6727521127308264681 0.1194556888151728502;-0.33044645669937666721 2.6311954402797290697 -1.7015384967601245858 0.0086414724622632665962 -0.33994557570144368075 -2.6736489954148479065 -1.6517691652365416033 -0.38023585933854453511 -1.0397018594916691558 1.8018328897127222632 -1.3464705403946712892 2.1664592957928161532 1.8017077848570093312 0.25300804526954928653 -1.7690006264951017023 1.1757520472021107949 2.6621700334051201509 -3.4257357979476368293 3.7977906362158133646 4.2263412616135687117 -1.9259763958498095082 -1.4298987215536278494 3.0475403710101498511 0.45499412248943699177;0.22070983995129014876 -1.0839249882845247708 1.6150179740658934247 2.1531144354532578689 -0.42904034025676729414 -1.2644575524330698979 0.38276641490271068324 -0.84842062231515491533 0.12109727452842554418 0.59344343190890247453 -1.5398740289775254553 -2.4618507043306556703 -0.88336358000693626646 0.95422798678624975999 1.0864626943618007626 2.1769782550353156125 -1.7764771466068223216 -0.12318410948299346463 -0.88922885554672059794 0.92049054883766234791 0.095535122190822038823 -0.22170598407193253809 -2.9636318532166741058 -0.082975082824994023101;-0.45554624129976850622 -0.17764507310394586637 -0.1848565222602352176 -2.2343635908427614822 1.1518156344764372001 1.0196650533845126319 -0.95205057630734035712 0.85046961297698753235 -1.1267497116905842436 -0.38509906423205925163 -0.17037955001544261013 1.8720374152660128608 -0.88081940328213326197 -0.78879346971655062148 0.065910354136433410566 3.0185667375962577097 0.73360973578802335382 0.56603043155085730476 0.94986725418398731957 1.8995938703449337659 -1.8492004745898764639 -2.1790656453279675375 -1.379566490750937735 -3.1955700505943553935;-0.81336917963995658543 1.9169871481131213198 -2.6334808753265375181 0.036052988433200289231 -0.25137551914401201625 0.30018889394334685727 1.5052144516932866036 -0.92211031310205915368 -0.76035590491665816515 1.4381936384501243786 -0.86497007808852421906 -0.060219544336459096545 1.3896760508705319204 -0.17516360045650619659 -3.4792107748748035689 -0.59714099484517524363 -3.6918204592265011499 -0.45880439727590788257 -1.2517564732402546301 3.1898867490179894091 0.32864748347117855864 0.31852454503780758266 -1.7059474055316985464 -0.93254003870470747461;1.2374077067426154652 -3.3358258966501495024 -1.5584757430880735729 -2.3876719995228041782 0.52913610657402998516 0.31495435885960904043 -1.9566910299543105456 0.12059044314514821838 -2.1680437370434249011 -0.40265478952282918179 -1.0610163267747179106 2.0032698358778895376 1.3725078889466013621 0.78559041689520947571 3.1410351183840141687 1.8481563164982546255 2.1107453418565844672 0.73165558593868629256 3.6921562670674052953 0.2203082063850021477 0.92997795516611359012 -0.0076025972092512925093 -0.77285853506062884843 -0.63630432720362040122;-2.4811743315571455071 -0.015419203727860361641 1.1658131453396944899 -3.6846943486778704901 0.28144409379914031577 -3.8197479736507800041 3.24770100920711835 1.8366953852520659929 -2.3059597169175090059 0.63032037058313239442 -0.89621225746399024725 1.6560551047616887121 -0.19246710086989929356 -2.7639943179546366814 0.29872757681350048387 1.0620415208563369625 2.4345491311237728027 -0.24834502205698058552 -3.4336109420017812965 -1.441888055036820715 0.4048461125790173698 1.6366285555560027287 1.8927989790940071835 -2.2476132124959931069;-0.92769009545730740651 -0.18273365388041501456 1.4347354543584136533 -1.3747367613527294861 -0.86202941649130326862 0.52493889256885206684 2.3591041869960163169 0.25201124507861261126 -3.0622681465555343649 -0.88617050021877941113 -1.7368669840040757979 2.6156281205716251925 -1.5422732685560380794 0.33251470685191403254 -0.50951224399297168066 0.93497007231933004778 3.1669226694313028503 -1.1727912634233765843 0.17049007880447344943 -1.2902172559085196557 -0.19269601803017025188 -1.6388031399662152943 -1.6482398979928707394 0.39675699844981915376;-0.56393490798184198187 0.9525249881040374067 1.2837972288713681568 -0.71042647691753446626 -1.8758475697761913814 1.1234261284971709394 -2.4276652786051831079 -0.94742213475214631657 0.56895859674553805885 1.9203983326028335465 4.2019898828867354723 3.3002801591707497941 1.9669360007276426305 -1.4612095256623256478 1.7434627221019192156 -0.74622167407858686072 3.3858788737278739944 -0.87658592905308629906 3.2013801475661503027 -3.5254731002512618154 -0.79292447836181789711 -1.0770406026359695684 -1.1689258879919592893 0.40966039754334454548;4.1786099171596369217 -0.51461234797340738023 -1.6580711337658686766 0.74504317456609259196 -0.49583395050387812919 -2.0591644202689529664 2.4127405452208585679 0.27918205186821598573 -2.8475192343975428422 0.57299425345211429939 0.68517627297388594698 -0.64403502985284999394 2.4701106020859593393 3.7538976558126941896 0.39427087315584352645 -1.2368271878098324734 0.25107366029753946934 0.6020162861880516969 -0.35297700584350821806 -1.7323404439529188625 1.7567118717914889103 0.21524886730368403276 -0.7209426859911831631 0.8497228787213348955;0.60640460779095173294 2.0525739536394129736 2.3271612945385053983 2.5412839006154852584 -1.9532413085831705768 -1.4420311660259264031 -1.4754979508822294587 1.4841361482898833835 0.60309428941393150581 -0.30653031335864450169 -0.95212935497393635931 -3.4968244719969026058 1.6609380316885682394 -8.8357176867620736971 2.5720110367083202085 5.9997337640146994886 -1.8058656815044642485 -0.41225698988324405159 0.19452345664082887344 0.54690055616487776025 2.5724434842133137025 -0.51848500006181841293 -0.78882691882595534771 0.11306192217554845991;1.8008263808766897807 -3.0191998163278235268 -4.2805834820514307992 -1.0154566139734284569 -2.9728215647389557574 -1.5656394252489356234 2.3200125182608282159 1.6803436827587148183 -0.71580602405406790201 1.9397699595157813501 8.1531639753714344465 7.2969517408482076348 2.0204816524709880987 5.1209835327165720287 5.7496935648267770702 -0.4985880689565398427 -2.100940459445061137 0.82259736777879377545 -3.893131468074068291 -8.3197595231773728841 0.54464307743255124805 -1.5161216215523944939 -9.092111248488880193 0.038145238562387308312;0.0036420144722415365157 0.49973007915963357783 -0.87791962626284902882 0.34749078337116412474 2.4086304663444839669 -2.6873042544270724363 0.12812996841551188565 -0.25167364734057739994 -0.55342160143205298972 -0.2597556866856152169 -0.49991683701847544619 1.9344821114229850956 -2.5826209224601259784 -0.6898889406927586343 2.7597480432633867409 0.43451281634380339858 0.9994930473330434495 -0.99846131000586779702 2.4237913302478992783 -5.0110440943264169533 1.0230169299920541803 -0.31976415346136588536 -2.2727165384469585341 3.8681478549231438357;0.86140635393938569386 1.1652136047245991168 -1.0622636002659870957 0.14092610494880608574 -1.5126691359568529283 0.53246012260325192855 -0.90554666546476347833 -0.50773594167301672186 -3.546393958628083265 -0.71790154769831604487 0.54840931456252117737 4.3878105162303473463 -1.9589154492696621013 -1.3106568625336527667 1.0573037283695638777 -1.4490599838450179959 -1.0057816539937065592 0.26354744361984511203 1.7654792908134242513 1.881856758250092243 -1.7698998941652714922 1.3226838751392397953 1.6712453296614679932 -0.70522075745489010146;-4.3905531998154971873 0.2419382287545361887 -0.16087804922341511493 2.2575902459053298621 -4.2028231061240948208 -2.6801371477552389244 1.1553418612591546122 -1.7118782980302797991 -0.14979736069310067847 0.16615502307956298012 -0.63326364622346920097 -0.42059945595951520048 3.4824723904324028645 1.8791824966254284668 -1.8346770826761600315 3.1011611756899117864 5.9622002608486779351 -0.76336227850836113618 -0.21091899376381673115 -3.0558817329798606544 0.71956322392562710455 4.5701721541921163094 1.0305591142146834915 3.8350894024899262469;0.67772383659325685645 0.70448159345520711128 -1.3820924764377358063 -1.7377069804740588044 0.85047131375220819116 -0.068466028885833946083 -1.2654113970257012678 1.5291343966967541057 -0.42867479323563306703 0.7230889112195283408 2.1093944692752080172 0.98978523274438579005 2.5126029753068661599 1.363531956769083564 0.30073120630034533285 -0.0092225431226482523783 -0.60259549447778182341 -1.3689856884550568594 -0.088713344224818330153 3.7001932849333170061 -3.5917509850658548842 -1.978681715138560282 1.2349380838748207356 -1.6546496607341056873;0.7696499524863780195 -0.71067779086581805981 2.8609925587925628676 0.11864600386959717193 -1.79608590940006696 0.99288923202395862333 -2.9090538269412054007 1.486423678463447029 2.7684433317150238807 0.96680003059690799994 -2.2004274344025258614 -5.6184276839871136744 1.3078083844077457165 0.92639716429878427029 3.3648920535335031801 -0.34851894081137235748 -1.887407954740375704 1.8226080834281541687 1.3040003037386229678 -0.85953139973027337106 0.31380589075157783174 -0.27912705861719927514 -2.3838584757315293139 -1.7113374068003397444;-2.1840321766284160887 -5.0849181686637452415 0.77768301568626296838 1.4624388830749317503 -0.18820071455997494647 -1.0487454749522928665 1.3849555595282474485 -1.7239776127775485737 -0.90639918126341678661 -1.1475964646481127129 0.22676864167722071697 -1.3489635409321771853 -3.1646522223112656391 1.6524558189959721588 2.5055342129932429707 -2.2093669021670381269 4.0556201533862603625 0.77240030046773422434 -1.8260178478151849468 1.5773257401250109222 4.4671900556662818005 1.2484476203747418843 -1.7423371484688257027 0.79850655063666764466;0.28581226834024192618 0.68111579345367279092 -2.9848473517863252091 2.2558611949857354517 -1.4738330301519788623 -1.1381577920185739217 -1.0925933009170936128 -1.0752026573223771866 -0.93851470956873139784 0.98699631439575130631 5.1976519270221004376 0.27615763680458188523 1.2781760421473919997 1.0351311208369526895 2.1795744204440015146 -1.1345888563545210026 0.82504694368508657565 -1.1827906203597260415 -3.2737148332941896633 -2.7110736888576250081 0.13787207402309992199 0.29133443499234740193 -1.2890116728512777122 -0.085596925777698534832;-0.70896678552039682497 0.21860626492206253202 0.24878485731369767708 0.40230950528105785535 -0.087288039370481323997 0.95929134461385301424 5.2738871689455795178 5.2464494237019776435 0.35377958966898653825 0.69410317576104396675 1.6327843523118155122 0.94415767263244942953 -1.1689248924177162436 -4.8233455017187205627 -3.5135014038681631199 -1.3679230982210697221 1.5130095292175824717 -0.4895748987699303223 -1.1879757353566271494 -1.4752481075739525274 1.9516965779337989151 4.4440720366062587132 -2.6218304180516240898 -0.69439692726013058088;0.030674513857412932794 1.1664921787443527368 -2.5471454700081292977 2.1356825940053667523 0.43848806958134489697 0.67143918793098267273 -1.1132327508942092553 0.5258978950609962677 0.41997689173312635624 -1.1839804880254565234 0.42598259429811513588 -0.7801617117562509307 -0.30535781164607178617 0.86579147772423203921 -3.3265239109924120697 -0.55014498307541903621 -2.4976852903429973551 1.8686970699603708823 -4.4664558440299151343 0.90065855633320035523 1.9462115464077156535 -0.13575761262863000889 -0.83141519698294097385 0.64489588284157961517;1.6775000268135056292 8.6563051437924940501 -2.8419752073863415731 -0.95376485157941959248 1.121784799453305892 1.3481579303805684145 2.0131308353708625702 1.5277068427713733634 -0.42240497500290291599 -1.792972440844171178 0.74784383832643386292 0.46685097036045419827 -1.6660440957257804939 -0.38842046316965261887 -0.17843492422346629578 1.479719155764178451 -1.096967809064928856 -7.8164238309624067824 2.5746858375686789699 1.798894395986063266 0.94728537404363111207 -1.229495267965454941 -1.9878126724072415765 -1.684742412310046733];

% Layer 2
b2 = [0.89238273946575374929;1.4321192344299897847];
LW2_1 = [0.1449261714752266561 -0.49765912591236999285 0.2730214222063288565 -0.34778897791219304247 0.73221377666981690702 0.08215315302826396715 0.13666193610340618414 2.2230237803120020956 -0.68770613523957002666 0.60809048232193474437 -0.23555126679405335999 -0.33201690497867664131 0.078144453005017433522 0.29858085218430102659 -0.17362906001368702547 0.62822404060454328789 -0.087754087751840598175 0.20510767474547392242 0.63983553319193842146 0.2906755399588714095 0.76216660185141482664 0.15440103545598213297 0.29975228287773036939 -0.097349648557253184999 -0.087622356276736840242 -0.061623627369842143287 -0.97933261078429367785 -0.61681959670146624397 -0.0093225187636873686758 0.4224272551358484451 -0.011807555731085732711 0.10245366944865308412 0.10805292484885310744 0.10947180338263334809 -0.45254110654934531777 -0.44563448702296948323 0.14644715309981184981 0.74724428849321600232 0.3228206203538618313 -0.11587896095564605148 -0.11053020035725179271 -0.13396062332599426026 -0.12872269795681809401 0.14894733536307788735 -0.40207715279815847698 -0.38448424149566329255 -0.25006262419969982336 -0.044195383689703472696 0.41867863816385536557 0.16396376385601627024 -0.12348552227110931589 0.13876867538053733186 0.31112589025287301636 -0.44441571788494504958 2.1998455892918537813e-05 -0.2078187454433108039 0.026093269602445373634 0.14209674187801016321 -0.055362851438040698582 0.42839591047381664346 1.0193089525152547736 -0.19459480306149823381 -0.1091611515746136879 0.24371109780735511485 -0.051955394668992106733 0.28582763728024346284 0.9761494145623044183 -0.39305595207218380072 0.090979234851600698786 0.015595186306072313792 0.098089092526242468995 -0.24423409334056864206 -0.73304074195633273092 0.18806877236649857665 0.18614974664632272239 -0.031110820751285302166 -0.20174586085364126786 -0.13281234348202167195 0.45435850275253419905 0.062358763249955678765 0.56661464635792191391 0.35808317417987484133 -0.052636228310941765574 0.36615500949586138324 -0.12497268021609375666 -0.61855028950729729065 -0.1694619397739768607 0.17307357342741172546 0.094602805915192933472 0.22638144254015765688 0.27800674143627179813 -0.034163806610363785243 -0.51165205522404477723 -0.29268300079839459915 0.15068383509564248213 0.023486131849327220034 0.43859693749711498034 0.19832054983528307757 -0.20410901290288352428 0.033445817863116268642;-0.27216827556393019538 0.0099451552506293304512 0.056676628338487300418 -0.31858759421924948141 0.41615255756777463914 -0.054174625233180291606 0.51471329374323848693 -0.25884779862614148982 -1.1839411073081052006 0.5421042419640759169 0.075688124136587778268 0.24859193240914009837 0.92208591213226409611 -0.36215644404280261659 0.098810365502670124971 -0.8787647386105064129 -0.069116153202977037573 -0.16129424809741380042 -0.29046132908393512695 -0.22103071348867647794 0.18594798715160337776 -0.12568348487647901246 -0.35517607437930337477 0.41251377970249752947 -0.52975041390044974587 0.3374331582457701928 -1.086355216190992623 -0.95027154969831240106 -0.38272346080221869569 -0.21046983323565862656 -0.32093001153775385648 -0.37272717900385354817 -0.3394021241175878556 -0.7193513892242601182 -0.17456066761691668709 -0.66553123986101170306 -0.3746814913592665941 0.074543685856793606703 -0.71166989383435208527 0.094078518357234769409 0.26091848481950630223 -0.34823419370316543997 -0.72044291767281976036 -0.043646731301530697356 -0.17095039164783518149 0.19424455012553121236 -0.17676813830378310111 1.402134533772479319 -0.0070703598198075378461 0.077243791062204317233 0.64149706240688542103 -0.31899764175203848549 0.004233107437843951909 -0.35732776159670803784 -0.14829039414375022599 0.16490278965615881579 0.26800819997132424577 -0.033630619878228552866 -0.18088910349641262876 -0.067029145613151111527 -0.35275365994225371669 -0.31702579366506000724 -0.34500438142911887818 -0.35653574498059048548 -0.37585956118559532557 0.038488187462017917073 0.70862328963224585632 0.11824486199310949019 0.039829468825001317078 -0.49283489202517283267 -0.24234872692125297711 0.54662419003347029189 0.8747679945479401864 -0.062581814400395077702 0.88942176128593819495 -0.3360647705626693682 0.15740287151585610759 -0.037888687055111863744 -0.0095006574384125762334 0.13902571268772162538 -0.26876773432560890909 0.73897737103020044724 -0.06117697152150333717 -0.30367880089623128237 -0.033990926319392503197 1.3372752051800744777 0.014183399341462267496 0.506704013897485539 -0.40859967228429722175 -0.23085147642825390446 0.23495833745936556269 0.058731564766615410034 0.41115164805990028762 0.58493774980152313248 -0.22201682703124350771 -0.12269527146374724358 -0.37993678273131276102 0.48512014797157460011 -0.24310438187042499036 -0.43769184586696840977];

% Output 1
y1_step1.ymin = -1;
y1_step1.gain = [0.0800528182123108;0.0800281525621334];
y1_step1.xoffset = [10.0045011160944;10.0016947056354];

% ===== SIMULATION ========

% Format Input Arguments
isCellX = iscell(X);
if ~isCellX
    X = {X};
end

% Dimensions
TS = size(X,2); % timesteps
if ~isempty(X)
    Q = size(X{1},1); % samples/series
else
    Q = 0;
end

% Allocate Outputs
Y = cell(1,TS);

% Time loop
for ts=1:TS
    
    % Input 1
    X{1,ts} = X{1,ts}';
    Xp1 = mapminmax_apply(X{1,ts},x1_step1);
    
    % Layer 1
    a1 = tansig_apply(repmat(b1,1,Q) + IW1_1*Xp1);
    
    % Layer 2
    a2 = repmat(b2,1,Q) + LW2_1*a1;
    
    % Output 1
    Y{1,ts} = mapminmax_reverse(a2,y1_step1);
    Y{1,ts} = Y{1,ts}';
end

% Final Delay States
Xf = cell(1,0);
Af = cell(2,0);

% Format Output Arguments
if ~isCellX
    Y = cell2mat(Y);
end
end

% ===== MODULE FUNCTIONS ========

% Map Minimum and Maximum Input Processing Function
function y = mapminmax_apply(x,settings)
y = bsxfun(@minus,x,settings.xoffset);
y = bsxfun(@times,y,settings.gain);
y = bsxfun(@plus,y,settings.ymin);
end

% Sigmoid Symmetric Transfer Function
function a = tansig_apply(n,~)
a = 2 ./ (1 + exp(-2*n)) - 1;
end

% Map Minimum and Maximum Output Reverse-Processing Function
function x = mapminmax_reverse(y,settings)
x = bsxfun(@minus,y,settings.ymin);
x = bsxfun(@rdivide,x,settings.gain);
x = bsxfun(@plus,x,settings.xoffset);
end
