function [Y,Xf,Af] = Bnet(X,~,~)
%MYNEURALNETWORKFUNCTION neural network simulation function.
%
% Auto-generated by MATLAB, 01-Jul-2021 15:03:40.
%
% [Y] = myNeuralNetworkFunction(X,~,~) takes these arguments:
%
%   X = 1xTS cell, 1 inputs over TS timesteps
%   Each X{1,ts} = Qx8 matrix, input #1 at timestep ts.
%
% and returns:
%   Y = 1xTS cell of 1 outputs over TS timesteps.
%   Each Y{1,ts} = Qx2 matrix, output #1 at timestep ts.
%
% where Q is number of samples (or series) and TS is the number of timesteps.

%#ok<*RPMT0>

% ===== NEURAL NETWORK CONSTANTS =====

% Input 1
x1_step1.xoffset = [-7.55151818142394;-36.5683737393915;-40.5000000020176;-28.4999999991708;-23.4999999488193;-49.4516870358608;-12.8053011514656;-29.500000001186];
x1_step1.gain = [0.1374427035857;0.0327039590367092;0.0373831775700104;0.045454545456385;0.0454545455106678;0.0216329205461023;0.0659950545110385;0.0253164556926355];
x1_step1.ymin = -1;

% Layer 1
b1 = [1.1525728101842285245;1.3448601531362613937;0.73971565265703298486;2.7180571479353812236;2.4891430005190930963;-0.83367424456986305437;1.5560836856388051697;-5.4640306568283021349;0.28190899197743829463;-1.4325544210180363169;-2.6220322528808308604;-1.1760397399974866772;-2.1662245406775078038;-2.4713974594768193249;-2.3559760410483794324;-1.8661107780714480953;0.34134412060070101758;-2.2924502505789408069;-0.8261613905524124446;-0.62503439373580782501;0.17103702531970596534;-1.6356271762303489226;2.444164612475963505;-1.9189802523029266812;1.1159957328523550935;-0.36764116344605446418;-0.96366697379885168928;2.7163342446598788271;-1.1243180146245106421;-2.5839030552548294395;-2.4623980124467674813;0.4149602174585945713;2.6788440474662604807;-2.5513842571793987624;-3.5372770085345219826;3.5821110861431662009;1.8685883132254623717;-1.0024889053704546527;1.2559176445538817735;-0.08408547002085836608;-1.0395270675700607477;1.2451850899902838776;0.19959729103301382391;-5.1303650055455767287;0.61688702895632818723;-1.5595566682789474555;-1.5954685420215590774;-1.1723126528445013683;0.036719473574531466542;1.5185333161193790286;2.8237172206847724887;0.40208215426555399263;1.8366160319320494754;-1.4973573534757929071;-0.56450820373003252062;-1.5615097554623409426;2.1434973315284553408;1.4720939423312264793;-1.476781937906407105;-2.2515702944204210034;-1.0684391201926115578;0.16309257572680635473;-1.870631190513472486;1.2216313146059103456;0.1713736274802648285;1.1785165677185760469;2.1569653166497757546;-1.3876631806555093096;0.29776405975741138121;-0.84927710799317857049;-0.90677244901170439562;3.5060608239285246945;1.4011207192495458429;-0.59669795562250205201;-2.3922286532030327955;-0.021806120911354254233;2.2343481077135027846;-1.8789234387075346433;-2.9302888215627351798;0.92480359744694251578;2.5739455200132348445;1.7295704753425198419;-3.3509954037097657853;-1.8001645047257188725;-1.7040845011573206857;-1.3527119661795186101;3.6251940429551976486;2.7190381054274928019;0.42586314991353224624;-2.168795407729396274;-1.1082618017851086911;-1.8774572899991379682;2.6776571149595138621;-0.10536499566006703177;3.8322514167864527579;4.2559414252933391865;-2.5220880505182603493;-3.0792071889290975051;-2.9234110347503934335;2.8937824714249775759];
IW1_1 = [-0.14909857661930780992 2.1385854940005581959 -1.2963801263639291861 0.66665574191607879229 0.72669147842946368865 1.812876605398880514 -0.36459626935132233294 1.6377274243111854535;-1.5768406153421918869 0.27519049346741586426 -1.0273149064063615832 -0.6359348176966309607 2.4369797625543352382 -0.22649640169431323189 0.95505391848508192076 -1.9861334790838802711;-0.3981009354135939815 -0.84269561147781379962 2.2873405380702331868 -2.3919902296087833804 -9.6711235479099322276 -3.7790416958068577813 -0.88700401042821042097 -0.6094547815403337232;-2.0461601200512151699 0.65569655818385186308 0.9569790464789666995 -1.4565065697628389874 0.5614268439913916442 -2.3420454833424213525 0.073237008138176351579 0.54059624633696112816;0.054643764526299751227 1.5394196187671391751 1.1212354646086741816 0.20805043961474389835 0.24510774081710062777 1.3964736190741928734 0.093986555012297010037 -0.74475497817268132561;-1.9509532853567796984 0.82417470648428414748 -0.078228784599393169641 -2.3297830623204580647 -0.33666503542140363558 0.42557185493091231887 -2.6417408310127532545 0.0017012526270762592939;-2.6718386224485808356 -0.54159596908795804016 0.016749991487828460451 0.95350532784874897363 -1.5273118549034023772 0.17544704909131073056 -0.71455469156542239517 1.2144782729547338729;-0.56641800808195741368 -3.8121594743383186987 6.799870403984108691 4.1335602756324920648 -0.075291923166750956975 -1.2571604556228348493 -1.981230257523745264 -1.9187057314668840569;-1.0561009626047630494 -0.44987476009094790053 -0.35900746848243908493 -1.5178253695136294521 0.47216428946593497207 1.9031271088025329963 0.29897999563251209665 -0.99264656310228716052;-0.11854719131804190846 3.2006564257421890041 2.6362358704936075249 -1.5958911776490183332 -0.6915504519031679953 -0.70549943648797741602 2.0795583146050815593 -0.030783541037305003907;-0.63925174554512609326 -1.700735067766520503 1.0332928027114982594 -0.027977277368681219283 4.0115728597231870012 2.273583901779471006 1.964501168917040852 -1.1891316249296719487;-1.447017650750536566 -2.6796471481814063686 -1.8397884368133741173 -1.3436560282060985294 1.1414971170077332641 2.4825280865808050379 0.031212990759366912585 0.51208316846107182485;1.0461785764338993321 -0.053926748163983122264 0.80215369850903561755 -0.57429373528863003617 3.6121499315401868202 0.28776475100866732992 -4.6782428808213749605 -3.0725212758445481498;-0.80687729818387898817 0.24618129416123360476 1.5926091960907176048 -2.8681375547897167699 0.77781301328731777822 1.2868396408954829724 -1.3809756235124945878 0.78431139905787095046;0.95317406365994228334 -2.6241624929415068301 0.38300521975113344109 -1.2809925075234862568 2.8459937027683710475 -0.14955618899702288749 -0.74959389899348694009 -1.1558664122214805658;0.58823145955329980694 -2.2308997805968684425 0.53938253546483660994 -0.93117543344833419994 2.8571720798024777821 -1.5091895048032981652 0.84472949719646139854 0.74400489113511314443;0.14107460466298882285 2.5507013443858936874 2.3085296352236106543 5.2067986351987975979 0.10692801534048426704 1.0028258011096711222 0.34298444583971743338 -0.59549557807503927798;-0.16458295371120906792 -0.88013517494183868273 2.2642061182572716937 -2.3203760555787349418 -0.83591632274482774445 -0.38063173700815783329 -0.38177760093809548492 -0.59951213576914641479;-0.59082933947916138617 10.366859399738592273 -5.546046705192228643 0.49468027045266743658 0.40082144520056312009 0.29450025292580817027 -0.19197359471107960927 -1.2907607833189478352;-0.63313063091047172559 3.5857553273711895159 -0.080523255304303861801 4.1073304559067205233 5.1740265683326160939 0.50389716366132808467 2.8105450143341621505 -0.63289920239636598964;-0.3959279569580465008 5.9362447144671879329 -2.789522006104725893 0.81775562841133686565 0.3158145090963103141 0.19276867361323757333 0.55514991072246067105 -0.98598084851331113665;0.32348508067365328023 -0.20561670926788916391 0.86560555582517872963 0.03652805234955346092 2.6721011449900040624 0.23211285799264722018 -4.0183370857022646661 -2.3352079538373118339;0.024565231977385991458 -0.30221563907491322265 0.6072694596252412591 0.89226508595108700028 -2.8694783868581166253 1.5156272391216172313 -1.004350400193249726 -1.8910915279814521917;1.6127853527511608611 0.49857147580659283426 -0.72849351034758580425 -6.2413325232104179818 1.3311290458789206692 1.1155561932537696457 -0.55319355258373703599 0.39947237751174813347;0.52771582755890922289 1.694419542846504978 2.3624232739121922009 -2.773705933064030571 4.190165361715244785 0.73369599691276232711 0.99862778348876812817 11.792679881490235161;-0.95880318512426643274 0.79365317587183892289 -4.0383642772023451428 0.26135650082594147348 -0.31520799667048204906 1.4158492139832314916 -0.74990900245609182218 -0.20724003898272203017;-0.10486709486960255067 -5.3690046131088022818 1.7558438886528116019 -0.79077902146686573914 1.6227509549475911399 2.620118042976353756 1.9798498918013618386 -0.22885958256576735548;-3.7114451340448937344 1.0260668467234961287 -2.2281044730033139345 3.5316394262638444168 -1.3522106976157304281 -1.2329922323756696834 -3.7462194754252080564 -0.97192057979258439371;1.0182788037100072298 -9.5008035643372288348 4.8829678243823799733 -1.316326792624572084 -0.58030003197980106755 -0.1005050611732923177 -0.27249757487061188055 1.6118952135118687075;1.5427290121510737197 2.5394324228232818541 -1.2668610563360740429 -0.65569564918433564937 2.3694293644205619565 -0.73955235995700141505 3.7007755188011350889 0.48578653238986113649;1.0506499233484034583 2.595864533201505342 1.8048383449312914717 -0.53254560294986175162 7.4338586835755808835 -0.93791284597563218117 -5.7780538216115422401 -0.91459993665215810754;-0.97756813762420990965 -0.042962207126276699687 0.76441616161850622913 0.75857675293568904706 0.1498681308918093924 -3.4460893190540851094 1.7818107448473967658 -2.5013315913430598236;1.429859961608431318 0.74378310403912129001 -2.6849265462424418693 -1.0301886342543480346 2.5806318177629368193 -1.5791534050573492465 1.8485027675793646029 -0.610272513524346083;1.5633718802973370909 -0.17636180765466730191 -1.0608751821633763956 1.1092640381237977021 -3.7912330434993899431 -0.1338200715305585542 0.32934172009724405061 -2.5863604269170412664;0.91893323110263402942 1.3816356538210321503 3.8026725225487552073 0.91003557899794662589 4.4306585279048835702 2.5706105983562639317 6.2356822585635969247 -0.68706386531067820123;-1.8631167701313433582 5.8777352170695458256 -0.0098992132150424599901 -0.71471930236939751335 2.0049166888181462198 -1.3427670762493144618 -0.5736736933299464436 0.11106464819745452688;0.98650448108662613933 -0.92430116013677610098 -1.8837991987247306724 -5.4361550053330054411 0.39706098222613345206 -0.48718804723266811996 -2.5919289100735163345 0.81135664692179154667;5.3109472611622345894 -1.7578952330718418118 -0.98789141109485933967 -1.1652292134122712586 -1.2466952280968519595 -1.3614061612189929384 1.0007235319925047445 0.46445154011858985621;-1.7601528115463760393 -2.2968700734410258946 -2.3894686257002821783 1.6864881429370253141 -1.2536720482130168097 -0.92790306723630588959 0.86564198116083401757 -1.7397843337481468939;-0.26395485361785009371 -0.68029588437743859775 1.7009519145698441811 -2.7344161564111417739 -7.9783835726373881769 -3.1169383028009733927 -1.33161256741619205 -1.8813455784208612531;0.61904494625868977664 0.074645342312218532221 -0.32947621868282561675 4.8960437775143592631 -2.7755851718138186968 -0.47707115098868302372 -0.51842586686480873759 -3.4022392175720663765;-3.5503625389225410558 1.9869463856902278565 2.2612727549572295693 1.8024657616653274594 -0.34791084428102758697 4.4390089173631279706 0.60517234410448761395 0.94879821600298908102;-0.40740894714121217435 1.8652535917654651243 -0.15802419608463116885 0.40654637780662089552 2.6873728969579513404 -3.309792315374231908 -1.2597698276413920038 -0.41150668889607688872;6.6891002543778972367 -2.3063740987450827014 14.245866543867553133 1.0881322732845273293 2.5435401587961803394 1.0905359950100461663 3.8817007895343782486 4.2890277995189931559;-0.12692133627358287429 6.736408433311908972 -2.9444510354820119247 -0.96571955875047643669 -0.64795387277503591061 -0.26462801934929236491 -2.5672773971096689571 1.1968198620409915556;-4.6945968388891134992 -1.6801058721680866004 -1.4782946345640768371 1.76601077243082627 -2.1994908824840861961 3.0796086758297400721 0.75893512858865475046 -0.21950850141334299348;2.4449118473060407197 -1.2689895947585911884 -1.4377777663948081432 -0.67507977686202935708 -0.54042533504132939104 -3.6476586942287911874 -0.03058581354576302147 1.3700321490500078081;-3.3579720503538150744 -2.3104858242246164579 1.9965024859910454058 -3.1396390296236869055 6.1092272073100568619 1.7351827436377718072 0.33510761999621807572 -1.6737046174720489056;-0.44730342723443677899 0.11695444056382083009 1.747851893760847819 -3.2406925645593522844 0.87019518916178184575 0.43828033171144448188 -0.29839284726979886653 -0.64294243144967089254;1.8340465409961674847 -0.2535320621081472714 1.548171193744655616 0.25248908147261867052 -0.59276715304931071326 -0.16511037276029688625 2.6601505396810636306 -1.551839466883720986;-0.49865061841992530667 -3.8980830597239308766 0.8009390279633721299 1.2318797724811725303 -1.2383441539990058811 -0.077853705417952778767 0.53587907718146654545 -1.4428016550219773251;2.3581100004958877037 -0.49600642895094915197 -1.5431359700410693936 -0.22579576468656170629 -0.38095128232168545823 -2.4038819165159472924 -2.5855676730232204363 0.39772090441413698869;-1.7903776369944204294 -1.051443801295932623 0.064641435234871980064 0.4350401653835601623 4.8302228968199401038 -1.618854697499606754 0.82529114420944071906 0.069523633922343758273;0.66377214642637727415 0.1919764787182884902 1.7851998079230231298 -1.9767043366821634987 -1.0761038989177142966 14.336466301674631652 -4.2932508883317828108 -2.7578171951534167228;0.58562691618876772104 -1.1708143976799796349 -1.0163069689269381701 1.30271330016014808 0.5737056097491313178 -0.11532373266924447752 1.2739242408228368397 2.3646303496505858277;1.758537923029321437 -1.9673609392022395337 4.1425604989550803836 1.0287802667214582808 2.2174373732665761949 -0.33446320843288090963 2.3281298854884551197 2.260314909412075135;-6.8797780246353994471 2.562490754056001574 -3.0785698454241066102 2.894132963752444887 -2.6943509219412828948 -0.53626240490556043028 3.0169527269152065507 0.54167985486963332598;2.9536038277921452533 -1.5028317403724194001 -1.7943710016708531718 -0.16179316599397861043 -1.6730351814538155786 -3.2499822447491948374 -4.4166305755548407319 2.128023507532062375;1.0721855379193163671 0.27790683020447415341 -2.3299896821952388315 -1.3845237815757511779 -1.8843105304093499264 -0.73819034614453171717 -0.15452428530656586725 -0.12965918080471022789;1.773025318129317851 -0.71892756885337338879 -3.4665842687175438819 2.3131982774563382144 -0.6445748978082391778 -0.38292802553493832107 1.490874835520513253 1.0252150379209821196;-1.1363267795805209737 -0.559438973468302847 1.236439483057519384 2.6494951673127054015 3.1302306079938131411 1.0270305590295754072 -2.1962418779182089068 -2.2766258136894799158;-0.49540599445699401437 1.5412918444009069407 0.60633889225174075754 1.5780298011655049528 -0.84076745771453953449 7.1947342519079464651 -3.2371468109238743516 0.60348672475030107343;0.48709738904220012401 4.030960554046427724 -1.4556402459968367236 0.016569999649987204871 -2.7245768581912805928 0.058815072334258852726 2.0314770942150519595 1.6685446203484117778;0.04794260315654435417 -2.8846010999046791667 0.033191208136289056252 1.1160699142863239608 0.40303328422255507713 0.99669710902508035222 0.51224816248775029148 5.7209471638153504003;-5.1276121848209585963 2.9626799650762456473 -0.12753946102490332226 -3.7874098523094459345 -1.7037356392671769711 -2.0759616719740359159 -9.3057342738713835217 1.0359336236107841156;11.584255811374946532 0.33555547447909456205 -0.25619783850231692135 -0.5838406790382281164 -0.36241489308615348897 0.49972521359636645766 2.5157728672052162011 -0.99118462991348965652;0.19366237712405193205 -2.3179908190622779962 0.81242378758133837469 0.28392527098744113623 -3.3095866593318170601 5.8323214141435295588 0.57326491596296724751 -0.32798953084188409157;-0.66400176440039204717 -2.136504728072561754 -0.95525108242894418709 0.67702534123230517782 -2.8038265985628680887 6.2894494492402888142 -2.4582284652087804666 0.050117359171255350392;-0.25396092431154065894 -1.6722740496170067637 -3.079000823527368258 2.3389780427209556635 -1.1649269446725432076 3.9787625714113201703 0.88582357545114798203 -1.0612275937035744455;1.2761187070151547296 1.280515680077861207 0.51244977620832377063 -1.5805242852557910282 2.1120411587235361495 -0.33984570125077712133 0.44957495722005591521 0.22327849789337933517;-0.87485848114299036293 -1.0125923524826889732 -0.5984490415692520493 0.67518557780470178642 -2.1425180547142796961 4.3834132512538594995 -1.899084456505666374 0.19805192633227425292;-1.0457527600619787034 -0.91243582686896962386 -0.68398533354779178506 -6.6405614833597814695 1.222833309380414013 1.9638177360636825952 2.5647602857589872904 -0.58733171950934637273;0.87287869619149072165 3.0242558470070388665 0.42578854138169269783 1.3267244680825023284 0.67649639414701157047 -1.3136798052653821944 4.0695537458281618726 2.2308861672194981729;-0.89797050761525953888 0.36475647019063817122 -0.4265601593735557362 1.2044012889576376502 -0.0073100010272486998231 -3.5068974686268488128 0.91866321516234772382 0.77365803545086897497;-2.5396831281057519192 -1.0011240931395086751 -0.75805619292361658967 -0.61954908741249348214 0.22745938074405366858 1.2210337335758705279 1.1943192695226907407 -1.8773900118456718911;-0.53684666007613190963 -1.0774996129433971337 1.2915369999407824153 2.1536051326392611216 -0.52080612532313330654 -1.9632464355728656002 1.9923769795607633171 -1.9699921421959341039;-0.027308291681650772448 1.5377632541809875821 0.51930380727035307942 0.26023949779590255238 -0.014814209694807178863 0.63806932078417666343 0.28549640913781365592 -0.4975245516232498777;0.85211113775944258286 1.5166397289716473384 -2.5039449828481030735 0.69444080730933699375 0.8720485174358632019 0.24400460473680324336 2.9193889391254144172 -0.26823776730277409941;-0.050465096904089221108 -1.0240674354518446432 6.7904402772869065785 -5.0213987832247601872 -0.040446594646903283321 -0.45225587838828568144 0.19411992519349871578 -1.8270822810330493713;1.2110002830158477227 0.61729755850136558415 2.6400780937298700124 0.60851639042995253615 -2.4127248140203589877 -0.013663542434439256146 -0.64159666610093057937 -0.63966736515696387411;2.2376162038262101817 -0.16026875867283299493 -3.048678097707640422 -0.87705162748757281577 -0.58214834578267282694 1.7032030675869382907 2.4881135166763144184 -0.022573424370446085185;1.4085961211966733231 2.6405552267885696871 2.2227968389947347916 0.93796661452857477137 0.073547963150762840634 -0.44970732261892110149 -0.65373667087140807652 0.39429241869634457096;-0.74312801963044172737 -0.39242399817176104593 -0.22838814498713180812 -1.3369701116727590318 -0.23893672084836303782 -0.95119981407947407082 -0.47555375478081651774 -0.2146908545110318145;-1.7083293888821871054 6.2089034115864336627 3.185756474763917101 -1.0163780013547700776 -1.1860711000664598824 -0.49088026811629797974 2.548070308624603264 -1.2527415740563450086;1.8489807520692458365 -1.1771207084577157698 -2.3657275520734497576 1.4220960676010427903 -0.26723982645008187431 -2.8891155026047479204 1.0320267733267929344 0.72463249527427275876;-0.29318413513960384087 -4.3597062892494715669 -0.31139537044500303908 1.27631482980848876 0.38487692042744298115 -1.0123728977544546037 2.6628134092771724717 0.41536052070333917552;1.6142848940527616541 0.43191706070947355478 0.51573609854576407674 0.68554684081909689208 0.17063996892431237962 0.37862085861788458141 -0.87474807111546648564 -0.20847141266530844206;0.28442559662903016404 0.94738628606951136302 0.72932003232056119568 -1.0305247506578061323 0.579016497965320176 -0.4287530906535939601 0.52676268264836523247 -0.49768590871656587238;2.3173642503172722229 -3.3823018594911862245 2.4515433756918265651 -0.071488181806494105475 -2.7838866415015988132 -1.7958447427796586648 0.043172362751227683075 3.3735177100808528827;-3.2900243614841686579 2.5009918137740911881 -0.90902982878088778307 -3.1403482790472101449 0.88891771588584600483 0.45761560637317977296 -4.8465392518774734754 -0.48116316860036489889;-0.22137914534976446679 -5.0234249545824125605 2.2215879946837251424 0.028147011748740270731 3.3142973537067561551 1.4365353277058305892 0.51860187076876174128 0.31611607378547401659;-0.27426689668056131177 1.7063256709304022163 -2.6172403182606225336 0.44418730062034422756 -0.2342297892421509875 -0.61840764762017530476 -1.6291351756311414078 -0.58581842771836989403;0.61244696909203610868 1.6601472226298967794 1.3029392414679785706 -0.010303810214339239118 -0.26611937963684967334 0.064930003766268271082 -0.15899507945430185751 0.24425249961684450395;-1.4433845954963517855 -0.25528850820000564825 1.0284833584072134993 -0.51156815763309426703 -0.18379145165202845358 0.91802438064906066728 0.91827353904068953483 -1.4831733610950850188;-3.3063134366830908561 -0.023098731676085906828 -0.14598970708040795441 -0.1329803043850143196 -0.060608164182613957771 -1.7281858468069994927 1.2407001521389924292 -0.58938250998214902765;0.1086017970293455398 -1.405334997220936355 0.31998373856002043647 -0.1470524446556401299 -2.4987160576490290431 0.41940933453670736775 1.3441927550414529691 -1.9813931664467412386;-1.4604941501908446089 0.69527139968291840066 -0.92369660721760282751 0.59386750822012723816 -0.023810316333427509333 3.8560492770436538557 -0.65338906106085337111 0.97615932238362024265;0.64427474753615288083 -1.8491201806207626657 2.5384327557668520114 -0.41547805577727459081 2.3010803475084840031 2.1508638678124931687 -3.0392991805710680708 -1.3034591150945629145;-1.0274598720826646492 -0.72111383922111671474 -0.77870355035628513463 -0.87982339694746336534 0.42238895971711876154 -0.74094131191792134139 0.52168830382500130938 -0.53668953659357954145;-0.17698326286183749256 2.3514935055266157349 0.43476860493395730334 -0.19615095644683039344 0.058513636911299446441 1.3572218481276332458 0.083340755624522519507 -0.23641412598512467902];

% Layer 2
b2 = [-0.076238492567293356106;-0.30602919767445319055];
LW2_1 = [0.57720833824850670268 1.3404051456777665852 -0.85819001741408207362 -0.96394556457720048659 -0.29711707736107756395 -1.2138434910174475956 -0.3164708380496470963 0.18990597671010783776 -0.93209353136467631984 -0.70091280087300444901 -0.070645172664306254973 -0.5796267608308134367 -0.19608236616191385138 -0.86252391041356823997 -0.7759476356894016158 0.70198842744857814502 0.037102133148157176445 1.0095347226037458821 -0.80932994459011442512 -0.17865908094099514081 1.3749522265711378033 0.20217717609459090466 1.2125231544053907129 0.39458852164566526888 0.34190650312439324621 -0.22241681723312589636 0.15043929675586903416 0.19577327661675369974 1.2125536372684198039 0.41682082017441451915 -0.0048633900197498879103 -0.49908548496773963432 -0.010190891324550758329 -0.055609879000023038076 0.12582709678167308676 0.21308806313337896876 0.56275029652744779085 0.21933492158209100253 -0.045864156225741817274 1.1953630313588112788 -0.54665308838330406438 -0.058882500356757176696 0.099547902660309620093 -0.40425923607041003294 0.40545980528359976125 0.6138946427000074868 0.59538659836188301266 -0.18348451070871527047 -1.1391983593268266706 -1.5970794580033826904 0.042711510800967182611 -0.81031065022668702369 -0.40681705363959724808 0.20774984419666042701 -0.19661411161403896664 0.53305198497940209368 0.28602754140992364684 0.46012696451731427416 -0.44474193308345194575 1.2147403234991043242 0.049722541877699658053 -0.21016991056698830498 0.35126647932985916034 -0.55700360342240984313 0.22046120018425119369 0.46576874195572737225 -0.15417703034624688496 0.8584806417698398473 0.11212904149486072058 -0.94868169994685369595 -1.3458582344867862091 -0.3870819531870776653 -0.39584346138203446719 -0.27515720702904900019 -0.22938103752410599068 -0.0056531526054579561702 0.022563949158745526952 -0.83172249721611912765 0.61429206522596779827 -0.86098901124005222663 0.33672795502616803542 0.52831976794393020747 -0.020680749488781940276 0.41971039192752751523 -0.97255765590577591961 0.14945132710484923533 -0.52652966118165356324 -0.31365679673232532698 -0.5381479867666060235 0.53348806963474748599 -0.012076669292528673105 -0.8822755586807484729 0.23704607312986294976 0.60039105386589353142 0.43990956481278065127 -0.35173970458211717416 -1.0835791434180941373 0.050094259831581604281 0.47772431102606049969 0.62081923547009143505;1.0087278578184191158 -1.2434846632574536596 -0.68647348784547368439 -0.26628254405008261463 -0.11093218396435546025 1.1556931151626965715 1.1947426218843555379 0.13704645844879362326 0.26085019588588881367 -0.020444597723265518774 -0.12908315698771669067 0.29050580901066325179 -1.3274781777396684745 -1.4630512411476190859 0.78273782749525167013 0.322559004751764411 0.14618125554179633996 1.1252456421580117052 0.59759378666834994664 0.039116267960574171991 -0.54472580302769713079 1.4060688127871390218 2.0778604631756292243 -0.17223459453866044044 -0.37210361123157875696 -0.31840325288855181318 -0.2075840714137441867 -0.18827797370261101229 -0.60733435731379104006 0.19571376924537162156 0.42495388181916043946 1.0003836320211290101 0.42505649385809701757 -0.30692677498904924471 -0.10509998724453722962 0.10492464453397651325 -0.39395753023792490222 -0.031817578307111266112 0.21152490456543190933 0.94142974618486863214 0.063060418880881791148 0.21349353691071207284 -0.57368838426055046575 0.14844192894547528216 -0.33715037354648413892 -0.36251874937108358177 -0.78200796998302657403 0.26263282941270604809 -0.35638040279076155237 0.25387698258964003228 -1.366696099241068163 -0.00066798424440310533168 0.76245013469109057525 -0.43855474478354167234 -1.5046558711022690602 -0.067375633649370839096 -0.2363476585698107979 -0.25173027200987740937 1.6003743682166815532 0.87181071289665412749 -0.5964955280310535457 0.52425617073977337501 -0.83223840794551240396 -0.50594698169783625108 -0.18598884322589340212 -0.32168698700897252474 0.88224737856416601822 -1.4809703019033919613 0.55439429723710431652 2.0048307424235267682 2.4149447994024519915 0.36380338954515106797 0.32921947717603577965 1.3062523440889031168 -3.0359583259070861416 -0.33183309468524313512 -0.81105933863908297177 -0.19595669492358552821 0.52451741145136876465 -0.55849677694290955632 0.14493163575644227303 0.64660803074321837602 0.75478552826757172589 -0.056598874694980857991 1.1098571769114216057 0.53492396747633530474 1.0308132439670767422 -0.27413552414299829918 0.3932264957906921321 -0.4769692655427175132 0.75671431156500479354 -1.6860735155653776562 0.60867413028045724843 -1.7819968202559974824 0.6928268114780079534 -1.1419525171493687399 1.6212415759860061559 -0.22842121531180933913 0.34789773718598759888 -0.74687438270373673888];

% Output 1
y1_step1.ymin = -1;
y1_step1.gain = [0.0800528182123108;0.0800281525621334];
y1_step1.xoffset = [10.0045011160944;10.0016947056354];

% ===== SIMULATION ========

% Format Input Arguments
isCellX = iscell(X);
if ~isCellX
    X = {X};
end

% Dimensions
TS = size(X,2); % timesteps
if ~isempty(X)
    Q = size(X{1},1); % samples/series
else
    Q = 0;
end

% Allocate Outputs
Y = cell(1,TS);

% Time loop
for ts=1:TS
    
    % Input 1
    X{1,ts} = X{1,ts}';
    Xp1 = mapminmax_apply(X{1,ts},x1_step1);
    
    % Layer 1
    a1 = tansig_apply(repmat(b1,1,Q) + IW1_1*Xp1);
    
    % Layer 2
    a2 = repmat(b2,1,Q) + LW2_1*a1;
    
    % Output 1
    Y{1,ts} = mapminmax_reverse(a2,y1_step1);
    Y{1,ts} = Y{1,ts}';
end

% Final Delay States
Xf = cell(1,0);
Af = cell(2,0);

% Format Output Arguments
if ~isCellX
    Y = cell2mat(Y);
end
end

% ===== MODULE FUNCTIONS ========

% Map Minimum and Maximum Input Processing Function
function y = mapminmax_apply(x,settings)
y = bsxfun(@minus,x,settings.xoffset);
y = bsxfun(@times,y,settings.gain);
y = bsxfun(@plus,y,settings.ymin);
end

% Sigmoid Symmetric Transfer Function
function a = tansig_apply(n,~)
a = 2 ./ (1 + exp(-2*n)) - 1;
end

% Map Minimum and Maximum Output Reverse-Processing Function
function x = mapminmax_reverse(y,settings)
x = bsxfun(@minus,y,settings.ymin);
x = bsxfun(@rdivide,x,settings.gain);
x = bsxfun(@plus,x,settings.xoffset);
end
