function [Y,Xf,Af] = Cnet(X,~,~)
%MYNEURALNETWORKFUNCTION neural network simulation function.
%
% Auto-generated by MATLAB, 10-Jul-2021 13:35:32.
%
% [Y] = myNeuralNetworkFunction(X,~,~) takes these arguments:
%
%   X = 1xTS cell, 1 inputs over TS timesteps
%   Each X{1,ts} = Qx8 matrix, input #1 at timestep ts.
%
% and returns:
%   Y = 1xTS cell of 1 outputs over TS timesteps.
%   Each Y{1,ts} = Qx2 matrix, output #1 at timestep ts.
%
% where Q is number of samples (or series) and TS is the number of timesteps.

%#ok<*RPMT0>

% ===== NEURAL NETWORK CONSTANTS =====

% Input 1
x1_step1.xoffset = [-5.99999999821921;-1.99999999999091;-2.99999999970828;-5.99999999957868;-4.26217080900085;-3.49999999926808;-3.49999999999784;-3.99999997925516];
x1_step1.gain = [0.0869565217579614;0.100000000000177;0.10810810811711;0.078431372558717;0.0567180055594614;0.0597014925417567;0.0621733573259006;0.051282051310581];
x1_step1.ymin = -1;

% Layer 1
b1 = [-3.4769699719247157965;-2.6133614359430712426;-2.9201205359406654516;4.433770630251600231;1.547015972381996729;-1.8120204946198608109;2.25801189729350682;2.2646709937126412449;-1.7140347551551693428;-2.0574400467796754022;1.9992888294668660354;-2.0895137156359493424;-1.9672508230517986583;1.738601674294396604;3.1291551641645258819;2.0564426271871507623;-1.6008063486770622852;1.7527157065111336198;-1.3751023519855396504;-1.055015956366810892;1.1742084061061603961;0.98542603667162498304;-0.54401036935900215497;2.0644493196823270331;1.4206183546447750388;1.4865917096261707098;2.0008144307602546697;0.48189815047302975159;0.39642504133384082188;0.14883577372668418959;3.1168141428554365646;1.7596085323661423416;-0.5558748554580804635;1.0224624289318171577;-0.47724643903030777858;-1.9607452898711927869;0.5659653006916887108;-1.9786122241388308662;-0.68854942656201578721;-0.27071797258284219234;-0.6443334836402887511;-0.26890784138855322594;0.70443844970911617676;0.95680483724860010408;2.340643213900534203;0.82184184497809820158;-1.2939760784981126918;-1.8108178273439381467;0.74261282992372656953;0.52055362482755385134;-1.4091418288047732332;0.58216899916486586353;-0.29317592936065650644;0.96073894338784826541;0.0678279841517645532;0.070124252701484646177;-0.99044800625097950686;-2.1422378761482456788;-1.510894927070871363;-0.22586120358668285157;0.34940757155847179671;1.4680959644461799574;0.85158872099462745719;-2.5960223599549978601;0.12828349382831280567;-3.9524856626770952239;-2.0921777387180657826;-1.4578438866983580713;1.9640505442124693847;1.8400939916659682094;3.3549876617524834188;1.2108733467067924749;0.44946860671721688973;0.97042401001369782421;-1.1542788430967103608;-4.1827351640274406108;-1.0906559294334803312;4.4407779327572418637;-3.3201365371958453387;-0.1381472695348696933;-1.3239329094975573753;-1.832043307116554498;1.3005002749652077032;1.1214424137332470455;1.8153293886578529825;2.8874550611980915882;-1.1945461186249666241;1.9083274741706002242;3.3505569976836118151;0.73600182294507687786;3.0118811401118628091;-2.7327899725672275544;-2.317956957360185033;2.3300820659139249713;-4.1029094684496492107;-1.501863734663370531;0.4115074893377419496;-1.8516778687753534527;-5.9706639392915015208;-1.9244809995193594698];
IW1_1 = [1.7450711759916266441 0.37448044362045918021 -0.83432581016738616153 -0.28831565071466280781 0.69742685184068031745 0.86612934766390659025 0.17080431434296580728 -0.46339753225174623585;1.1263414755977541049 0.16964049047959608996 -0.41122672332318843669 -1.141338992686666165 0.95807051576931567816 1.139016981067564771 -0.068942225142919602576 1.0790723444595258229;-0.4778183058693498686 1.3224964685869418091 -0.21282994376849942442 0.42090285520969339395 -1.5416995892134854884 -0.85022208940544574673 0.69143074173494778467 -1.3586867965585709417;-1.0402151110289941105 1.8186242136821044735 -1.1162585753054319326 0.81136074201932917305 -0.43368536317357009313 0.044677738201812963736 0.94305485824479384771 3.1313377647720987973;-1.2771840646495364879 0.2502149644071556267 0.34783047717912790597 -1.1093902979763730077 -1.0267253084980172417 0.81980703458463499711 1.3335507195879978681 -0.59956911410841029486;0.88043024383935386545 1.7557350316744795293 0.87499287247111345867 -0.52734199408633675166 -0.64871088516577568583 0.76526997174727051654 -1.2106777102300652071 0.62530009825590959771;-1.4594651653149293136 1.065582503454308716 -1.4358236707425284795 0.84126461952469022698 -1.3275905864461028383 -0.11767116236261283835 -0.54475143106620371736 1.1894452819034107005;-1.1193363323975087376 -0.31029404927035458828 0.21276100227086941485 1.2337028906569291742 -1.2604206676430387279 0.75485672856550267706 -0.52347611106253033597 -1.0721535984016989929;0.82010634253659375759 -1.0159338443709673427 1.5296600658216379376 0.99157576373631794997 -0.7011181281518248376 -0.099973792471509906332 0.30893496809291370875 -1.1343546611640622501;0.93369690634306246046 0.16679421155821974598 -1.0453873121415222514 -0.28570519517912323915 -0.89650016607420113246 -0.259585255285177674 2.08837736455630818 0.039718813659286866802;-1.1222352675121991528 0.85483446249579320142 -1.7717899599703177405 -0.47175667987071095988 0.57739023364060104715 -1.2740755316351157767 -1.1261646204327975251 0.50012373096426954167;0.86556391079269434652 0.84329924335182460116 1.3394164864042565899 -0.62724465830826203749 -0.82634332090109285929 0.82372681425403138089 0.86773246425647443392 0.68831638078256285329;2.0115885558574322367 0.35060647016867774184 0.96858278565173927532 -0.049247921357701597567 -0.19331370133758291052 1.7880745513207003672 -0.13985796422378582449 -0.95390176640385337947;-0.77854114370448090909 -1.1124929875583309258 0.69846398804535037019 -1.0527470337968634073 -1.6432615932032774708 1.3414292824951361549 0.83571393570845142751 -0.13633417325575836188;-0.7327281558944740425 0.68434022555164319979 1.437885679896477864 -1.252541803723309588 1.4436747640519949076 1.9909845234952705528 0.67813303079079179092 -2.0958694390774366134;8.4575463707832643223 0.08537594991628194574 -3.4661035803262945088 -0.01956229048566462958 0.68041520230168950345 0.33967136426696359353 -0.062325807816308281817 -0.11802078975756449819;1.4230582045697668381 1.3096296183740365748 0.45969711749087482922 0.87756456722429609929 -0.24149129922805787074 0.83273744792005277571 0.66286488566907031394 -0.52780251783881071415;-0.41427005569454178335 -0.89286162845370331542 0.44359630902268393227 -0.95491879894328957068 0.80583388478493223062 -0.73903682800319681068 1.6666145430597489874 -0.55077741188195983302;0.31844622283824830511 2.8497328082551796058 -1.7181523747677907021 0.91597156326289963513 -0.48596084443836273792 -0.05085439903271692097 0.14792329078120142194 -1.1303988103559077238;1.3236042137014976117 0.2757551229988202679 1.8888334159452098149 -0.2672460119074183682 1.5691020377832176624 -1.0043756834787618271 -0.74161761882026244752 0.21976609015804954295;-0.24282268537440607203 -1.2990602311033929706 1.7163880458265592388 -0.40143284748201862877 -2.4188518743023039725 0.52845019350611011077 -1.2376771106655723997 0.64348982575397462025;-0.46211847819644030766 0.88307375677625532528 -0.43614688075852675597 1.8994549893841445876 -1.4253711168279612487 -1.2858454054976373726 -0.75220704396950033299 -0.15830609392776123778;-0.38518612539435886921 -1.2565409457335439125 -0.18924028272118448291 -0.6866270942576374603 0.86032482222853845499 -2.0105252636648507369 0.6090697011384380577 1.4814272624474638107;0.068700133667621218758 -1.3089535657514914657 -0.60719714630147780809 -1.3466603775822576505 0.68632273785470432337 0.32768391771843563554 -0.22855759548134341186 -1.7679817269164463944;-0.31390982741712974979 -0.017264206426475477152 0.59457795727188000878 -3.090752547443493814 0.8873740883555626402 -0.68067366377459714855 5.6441870199938470876 -0.29373445896621380724;0.90511926676616372145 2.257412681195217985 0.54916754297293379761 -1.5602012294517608737 0.34104019994370449176 -1.9499057939596762257 -0.38258857357637665597 0.31774298619724988813;-2.4110486461588092055 2.424298387333477578 -2.7593438955749869379 1.5286212513896819676 1.2968697758128830966 2.0639823840879811812 -1.1095322846084649804 1.0545562524357023904;-0.85609554028504264434 -1.2049657810985461293 0.0079432841445784534845 -0.12829271962781832461 -0.97401725273152528484 -1.1039423060369437657 2.4885494325254842174 0.47316133239639679431;-1.4375877859745862519 1.0723896671070489717 -1.2045769628665581319 -1.2952708157549543966 -0.27494225921325166073 0.070621009953621499688 1.1949114562271578865 -0.81686801296605848766;-0.533057527419774968 -0.63230543300534547413 0.57562300222836604302 0.81514227793980298387 1.8066425704958632981 2.2499712393663879872 -0.66808693205562275086 0.70087570242544339205;1.7318298399514129304 -0.71732870099562884292 -0.30618642053831707228 -0.89587073242595061107 1.4243075153892581497 1.8814901091327815852 -0.57406434757796920287 0.68358324805665537927;0.56172337049743248372 0.92474053914949616573 0.51253200849147406704 0.65846614732840547113 0.64839368958823750955 -0.88598381902411826871 3.931056754659671082 -2.8870378847158666424;-0.50242993302621430374 1.4311865934859611116 -0.3337665207747492202 0.48950463077864947437 0.97822930984635647622 1.7443902807133713218 -1.2090155532792783433 -1.2093838411067667771;-0.4469020084088478062 -0.95236851881640027795 -0.52878103910783147423 -0.43727543012897113206 -3.6839522748663631191 2.133651714373222319 6.7339876187720939527 -2.3253996153362597177;-0.43675749616704456768 0.78592784648574587347 1.4623979019702033622 -0.65569654418818890118 0.2878335326059822119 -0.60588839281802409076 -3.4354508151830036589 -0.35081534664238755994;2.5785821178089523009 -0.48198018768298322989 1.8339057697142497894 0.2911044679726590978 0.37357941719664594649 -0.11716327734956707984 -2.6562516779153431123 0.15727902203794388858;-0.22437957970868144253 -0.1428621032565890181 -0.19505205490590818429 0.263640623118813755 -1.2205443304041461161 1.1280181388134442599 2.5409913094329934502 -0.042129193002543183222;0.69446430466934760961 -1.767953053212645731 0.10004414970588579314 2.1607233251816704289 -1.4928393515856084317 -0.038722970209302425004 -2.4265134838139053031 -0.68836536614974552784;0.89807089791982697147 0.47458743074002068818 0.0061889585242223821293 0.86875075834492576643 0.79712265520241343264 1.5472288646282232882 -0.053585199883825450351 1.168838259885745412;1.2604390692587765788 -0.50625393701549814551 -0.83815621570871856605 -1.2862623452980950223 -1.5713174667551659258 -1.0042652698515257548 -0.5663687319346506488 -0.94790714868032555085;0.88649961333608839897 -0.83179895918564195068 -2.1068250754240951395 -2.6518049516486330575 -1.1661510878621856868 2.2270233958990370837 2.0262923358278168706 1.3977439332161789576;-0.4003803005545410465 3.6323961225840579736 -0.75594602819659562076 -1.4553358587993570072 -0.72226369153762459696 -0.54334438082920555324 -1.1967525944796020276 -1.2079499409860965375;-0.66736114128810197776 0.25736806422188207577 -2.2711831148010053205 0.86724904792114643204 -0.62270265396736124153 -0.10985277156009537469 0.45642129788619734132 -0.66826678876402068052;-0.52180999515169168568 -0.3032128496630774328 1.1992289520891010746 1.2020213931978969146 -0.77431406502467214903 -1.1049462478031859547 0.35786747046598221811 0.87292879945848678158;0.4315106407367683139 -1.6945447030964226887 1.6617773969117930477 -1.9700596753991101995 0.82155311448718681966 2.4887308314596925385 0.5491764836316961329 0.71105747691160725577;-0.32222217037830774844 -0.84467106583512396867 -0.3136989080106219463 -0.20722465127474681834 0.7889236981120326675 -3.6285989742534479063 1.1463153777459511584 3.9761351488102700813;-0.61023623126275106099 -1.9843972591622796031 -0.42693490964354452455 1.2835901794773982854 -0.78337845277639006625 -0.59221332048983521545 -0.33985004869183804699 0.48238903263754290274;-0.83160977144215486589 0.024608198414285673006 3.2183054497922403137 -0.59969302199860108349 0.48699189299674300324 -1.0364354691880897086 -2.4519362320036486302 -3.0136574193867526894;1.2720555906543842273 -0.38396462466239578148 0.12666241336538591744 0.46089022151654768233 -1.040197760126022386 -0.73407449135901048365 -0.49036143069467025279 0.14083616983012137158;-0.22301733018755481863 -0.086660313449801115726 -0.49906364628308946818 -1.1293847084561565719 0.7555114221692835752 -0.3417828512027001886 -0.38851637318431836432 -0.21754407546681903129;-1.1953383523361127416 0.80144555157344088414 -1.5893960961913171648 0.34838945131693527246 1.0696596209366469044 1.3668386317573399946 -0.22936251606211072174 -1.6257217740030376341;0.07474273008635085036 -1.36306901447742157 -1.0947959892722740616 -0.91204819898913414011 0.56780970929064933372 -0.75888742008496179459 -1.1630299146090787854 -1.2957204576950736019;-1.7344353842065152183 0.79059559541384061276 0.87193740784235362895 1.2445083764216069433 1.0666019043731200799 0.16484488475110900541 -0.0054679504776233801497 0.14429022892397302957;0.21741998226254213855 -0.38480552579981108785 -1.5929677525922214532 2.2159844761209019914 3.5048256441565146524 0.20219501786368865304 -0.26836229622598956057 -1.187313111607901206;-0.47817533381101540169 0.69184809601868524354 0.15451005988489030507 1.1315618777585763066 1.8041241616905903111 0.56125818125219684163 0.23977484040351115802 -0.60668375519720518785;-1.1679704668309474069 -0.29512668814240627935 -0.96905597858162428881 0.21280748515315756064 -1.1099734902389930546 -0.66647386539569497543 -1.3816542190787579614 -1.2204278170048945551;-2.4302235163255598849 1.7822447742025335771 -0.38275637840569298742 1.7713589183118267911 1.3280539950152379092 0.82447422975875539475 -2.2774239829077935759 -2.8869543237388430867;-0.69600438055552904526 -0.4956061075481101863 -0.49781153307243691808 -1.1014633406199654253 -6.1576120569608159272 -0.10163178571667262629 0.058340411565402497396 4.9462267617644597451;-2.2291520455811588697 1.3097464701293020095 -0.88238888754410049753 -0.18369362501189423487 -0.5303904568898887284 0.90518808106611381437 -0.15535146356965445769 1.4617569606812075289;-0.54053544927525087882 -0.41444442765526506856 1.5964656153298628638 0.76274046015323326841 0.15591325869696492923 -1.2554201703760419218 1.4203021246251463783 1.001659987617597114;-0.62415192645040573627 0.62794426384415569231 -2.3410103884811097608 1.0565283491527472925 1.065338875569752819 0.78308636960528110738 0.95252256641537014215 0.4569494078144292204;0.16908036859301683874 -1.4980076137728051133 4.5893974111723423448 -0.59682521412396238869 0.062509301521696106207 -0.97433207015345169033 -0.14839879314580972647 -0.23346739818895165253;1.2566519369472051171 -1.3238963161223942233 2.568729854912636057 0.59136928720706272156 0.93015215104277471081 -2.0118290635369602271 -1.3278240874584597009 -0.67794390748548738479;-2.3386647124589781122 0.24351624695641127527 0.13612600109149042282 0.16749088003550893777 1.2823484284400052946 -1.9899239905378687254 -1.0409840411468227472 -0.47552181861539755126;0.59970281053839769037 -1.1855788064832286643 -2.6956125901025158598 -0.66395684371616836561 1.5592654499690661307 1.2008348745072554564 0.54547207895763571983 0.78614452984178606609;-0.60409201102308196507 1.23930573674333111 -6.0032266960479505613 -0.41325530712665864419 -0.53779741405910974628 0.31850155630716170396 0.16888218176643127189 -0.30577105663793929802;0.20083833285036523097 -1.7364975828259636703 0.55273367560426023282 -0.58369794931353780054 -0.30225549119819633548 -0.007655211358318777734 -1.8317611134401585726 -0.28109685591097643975;-0.25055628011812414169 1.547962123134505541 0.28117734205904432176 0.60561583590289891355 -0.76506983736384248651 0.77444155870681030684 1.7584829432202755406 0.61743160004384090023;4.3310995427935914392 -0.55160208904166596611 0.59112670374012576957 1.8512827443905108815 -0.47133817260893651202 0.37456475465390898227 -0.18725059521363077164 -0.082936605561330603575;-0.5780289611240988501 1.6275293792404919024 -1.1653445601917393759 0.9522114865587700816 -1.5431861840038911815 -0.70264397507781517493 0.7193041296309781174 0.90761050883960669999;1.0361427258132864804 1.3176757212069916125 0.11102120663345460549 1.5231717519124128302 -0.98249209173031137876 -0.64448859490065701916 1.9569251461581318452 -0.52643464941283091285;-0.74778707828120916101 -1.1276131388076824358 0.10231482426148069687 0.73658904908661970712 1.4672737370589028494 -2.6342629040517264727 2.0316370675750885511 2.3755986566822366868;0.56509582108765865627 1.1490092947307783966 0.80713828591766811904 1.3735438900615981606 -1.7173067206282677244 -1.0716293170628365949 -0.53744096525879092585 -1.0324643021014898725;0.17570935963123929247 -0.15050652965297245389 -0.96602755109139082368 1.1601862917659742092 1.4174305175783608046 -0.72397788113584360392 -1.3554596051718754701 0.17444258184748545615;-1.4411144793499994776 -1.2355100600404778088 -0.12121025822319460297 -0.10501815171935882653 -2.2888528335906350719 -0.78587406218574284988 -0.77257375127482319499 0.097953570378859905476;-7.4076117134976442458 0.68087874067105147446 -1.8039171360695354096 0.019290023410527986497 -0.21324374923867159271 0.18607526203769528261 0.50614885687691779648 0.89923948669209563533;2.1816287174984476671 0.12373197705706881488 0.6960584404451727325 -0.85372238633771180272 -2.7311721076340531589 0.51658465431063071982 -0.19225542061251321702 -1.6958741629195097644;0.24462189183921456692 -0.014301307147366937311 -0.039556877277806046234 -0.069855109392332359608 5.0755674650132531767 -0.47958162331866754924 -0.90351206234001402162 1.163658138960500299;0.38910082503507398277 -0.30396447474210475104 -0.86431191546885255406 -8.4165513897752859407 0.66371893803528347888 0.10468640315835976706 0.31026120421031444518 0.55031289151982298868;-0.13422043830778560003 -0.59503724035064875508 -2.1491872000074487836 -0.11222389572307460426 0.40767368329525066617 1.7431781967443062964 -1.0618134983490203904 2.046394892820300182;-1.0884625698431271701 -0.55630411931660672664 0.81666006274898428341 0.20907377347345623697 -0.78378841550882993872 1.1135988661764253393 0.72394349361858123526 -0.094929683502755074498;-0.34306276545686270607 0.60627299791041733279 0.87510577913778553327 0.27225508249863450416 -1.1379583306914249352 1.1090668843722595316 1.154069745099836064 0.83953408708350607537;0.18257779851204486432 2.9736625972060251044 0.18429782818271708833 -1.2676113841854776965 0.45339747493753534968 0.33239013973988540407 0.26882007082939118892 -1.1805325920532279138;0.53421311624189338207 0.33168953280067564604 0.41545586335404816047 -0.091239182859663967018 -1.7017623775162156186 -1.348781956094714074 0.026194295181529447109 -1.495628198411315557;0.44553626464035661625 0.30323865461847038238 -1.242513445179559417 -0.19376156916905476479 -0.87233280269044799482 -1.2782259914336449036 -0.053026523295640511091 -1.369955960134981332;0.56791785648205073134 -0.87995289101172624591 2.6277705069152896833 0.31900753435709550132 -0.71022163094653856241 -0.07023326386537770416 0.87216128157889694084 0.58564105076857186916;-1.396731790979698129 -0.090976681267705139522 -2.3256166490287055737 -2.223669057272457561 -0.042265960958324709507 -1.6134822442971148426 2.3643629068778730939 0.14451649617758738353;0.073273513013812921479 0.12557398157845167663 -0.23315587864433279242 -1.0617040752383852809 0.25926670532966789029 -1.2811221099010368096 -1.7896018939908515666 0.55789210237780839652;0.90041449838846632225 0.1450249215124120028 2.8396130017537095647 -1.6755056184426313504 -0.40870662833795046165 0.72306069735653577535 -0.8996091136235982999 1.8842324681384050589;2.0295138974908319973 -0.11996604375218503091 0.20188182625727563169 -1.0468644429159061904 0.96451190037160472457 0.95625085258509379127 -1.9425936896105735485 -2.2354276202635285919;-1.0883581825997452608 -1.3235123779573629843 -0.6577158471742673429 -0.92819164070108040043 -0.46263341229877252836 2.652298594879929805 2.233064207531435752 1.0700128879093104839;-0.23500745612429455034 -0.03110690838321283555 -0.10548874027820155652 -3.0489101589708611506 -0.51849311717940704813 -0.75791268961017521644 -0.050470102471587674486 0.41971939675565245187;-1.1714169102781057941 0.17018266875404547411 0.55263455191197008443 1.2341606103369973102 -0.0035106473892164355433 0.55753461341125065687 -0.67018111473745545226 -2.0469011709267199706;1.1210719464700080739 -0.14550600216793124764 -2.211364998620568123 0.31858888070241464519 -0.2993905738476065892 0.66576406765264972698 0.35477213620599457045 -0.88165849892425596224;-1.597901816775903594 -0.60648107107475279776 -3.7711918235280803557 -1.3775482470670024071 1.3457509682746005009 -0.64163901865057371143 -1.5656064006295802304 -0.56547480598787402961;3.5350253555041719622 -0.016920497825494949795 1.8881862255130545947 0.76871714121857992463 -0.84822115854343360652 -0.096304608939371025289 -0.45030284984477975119 -0.74521572313505368701;0.67444976207406026614 0.53664854055787047926 0.26647670460307615325 0.13521834441002522631 -1.225237267167243127 0.25384896184043009848 1.8547573589347103873 -1.8342159607575114766;-0.34971145564672273531 0.72674801371612041123 0.37706383209087640518 0.27656605546300455645 -0.25856296267879036455 -1.353660865830711435 -1.0166331958772263366 1.5860973972800771481;-0.57351379964761162178 -0.05021697022181931952 -0.093879949908662482794 0.43284334240535354832 -1.2499442676222736193 0.15198669802296776998 0.29089364540848505758 -5.4199163297666492767;-1.4117312455475599098 0.29031664577958893325 0.49427998140663920168 5.888220010121734127 -0.072093388860161963794 0.57098432046542002549 -1.4990244722872780869 -1.876089579318844347];

% Layer 2
b2 = [0.7043323769052807215;-0.36181659321737835722];
LW2_1 = [0.67528781568764928434 -0.6297971075206796332 -1.6163916369023145769 -0.37443475071308723878 0.60814950933980693737 0.41878581795280711564 0.015794326015438054506 -0.32147978452356668067 -1.5381155601497458196 0.51335799216047228732 0.34129346346999328565 -0.62374043705962844975 -0.75170464037110973354 -0.8959991324532752266 0.072322365676390804046 -0.94763325073866222503 0.36923022229894836288 -0.22863514587493738439 -0.70185821297766526339 -0.0044546158712907117649 0.5817753369896183635 -1.3035239400106921615 -1.5816014971390344179 -0.16546991022493062751 0.1124489196888363296 0.46311183171965836225 0.37854630471892486421 1.0339135966515153875 -1.6639827003540432759 -0.82106378918391187405 0.24800787003422075649 0.31723611918252936359 1.3843147421756001325 -0.066153928370173337159 -0.26855635105008818231 -0.27052522663594469332 0.42317316283423611623 -0.2519702280038784159 -0.49311577422556801542 0.76217143827909594744 -0.59580169384541348254 0.55821619719974224783 0.48449690954357377271 0.30427621749226946291 -0.2336527443881620536 0.23158731391620898665 -1.1662596249590952979 0.14850190142054497944 -1.2260245740683910487 0.39426172829451111568 -2.0092553446013594609 0.53698965995263847617 0.5241724750310112757 0.17673714787916955382 -0.29214385408663035015 0.52052568420118050518 0.047931183353522054114 0.29671336287016447653 1.2316636947100709776 0.47533866654738832214 0.53091114021120511257 -1.2010025255706688885 -0.3330518776068766007 0.86982264614076776343 1.0504367232986928649 -1.1005729461528426238 0.36930529478901014118 0.28321272134788727515 0.53899316936331087557 -0.3321419449398858581 -2.0303487044172752185 0.31009819200476307355 1.193938179177674197 -0.1772205394446074167 0.27624154939659373298 -1.5132927666483999563 0.40984342880149654542 0.25897821108695240344 -1.0365133546581450918 0.38537797782632432497 0.70574293785881214713 0.69507178588473705894 -0.84767845543082531723 0.35414800199686813365 0.40327598677025228158 -1.4254159134503705531 0.097158800342208931355 -0.5556934756103855122 -0.52991740716879109918 -0.73332711089029012363 0.15942335244532895855 2.3210533417739158679 -1.0915119029285393903 0.49109640771179613461 0.17496236848126589525 0.086875162209169631833 0.51956126031155236422 -1.6931241627339543854 1.2624977072520620069 0.0089838716488885479727;0.026050247319374653793 0.453756879224773646 -1.6904920657549826757 1.765358043140649924 0.78727431318311091868 -0.84885793697846267936 -1.140785360461490372 0.79862887915116143045 -0.08195626639446197681 0.30864345611096360988 -0.32686069091975084033 0.76659350065600706525 -0.34586880270480413468 -0.99032242036544915198 0.95043643205978034505 0.20753317723768643921 -0.39791289164917070798 0.70100373056505849156 0.015942749888906791039 -0.37288664610025318291 0.80226202444253569279 0.12334954668447245529 1.5771382063572911836 -0.46239624211909430285 0.14157471684484998486 -0.052049322309931034258 -0.51626404506006196016 1.1543625414772304971 0.29328591823654676096 0.13429702078069954974 -2.4112653868872708784 -0.62686223516982664261 0.22359296540824072363 -0.70776903336113339282 -0.35355977851274894563 0.58419854056935971442 -2.1603489645450872914 -0.57961123287967053486 0.55104108311211119631 -0.15451436335467680361 -0.03921305627168733543 -0.46931792611914519009 -0.12014435812440053819 -1.702598899247082409 -0.65059573186425412317 -1.4252422706300653665 -0.10148639217239539823 -0.47605163681356438277 -0.22662812028348278126 -0.15457859532932666236 0.4528297513632523752 0.47908866805557781543 -0.70850005354351230924 -0.53921305733941549132 0.39520120438655381712 -0.53352045879721898824 0.64908733443643018557 -1.5410117948249668629 -0.1742585658745612609 -0.64267941258685201689 0.98634001774602386714 -0.18706239675632943542 0.50480989409681575886 -1.8990227207291134892 -0.094206884216135905463 -0.12826644530359646024 1.0582367128806777767 0.34268756337144423707 -0.52406153813888001203 -1.1192444785168611521 -0.34137265830283497481 0.88691219228432727206 0.74579342913484014677 -0.22744928593418328733 0.24473625728943104729 0.47298188164482390938 -0.93309999338257998414 -2.8066978203321806262 -0.18345888841525709312 0.28564791599712330283 -0.91681151567193597263 0.23773845114243061238 -0.27829489202423290939 -0.59104450626746585229 -0.39646206720334975504 0.98778252080004536051 -0.18203096011812522348 -0.81965883292846453134 0.90791825582489804614 1.1803271820989604812 -0.97199784956969359495 0.054070850275507044425 0.32073434929825311857 0.50936219944111771341 0.031139880179973104118 -0.27448641297897635738 1.5483084104856978946 1.5781551614767770353 -2.7038136773871594976 0.14133172056248055615];

% Output 1
y1_step1.ymin = -1;
y1_step1.gain = [0.0800179867671238;0.0800693078139255];
y1_step1.xoffset = [10.0023466511294;10.0173190070803];

% ===== SIMULATION ========

% Format Input Arguments
isCellX = iscell(X);
if ~isCellX
    X = {X};
end

% Dimensions
TS = size(X,2); % timesteps
if ~isempty(X)
    Q = size(X{1},1); % samples/series
else
    Q = 0;
end

% Allocate Outputs
Y = cell(1,TS);

% Time loop
for ts=1:TS
    
    % Input 1
    X{1,ts} = X{1,ts}';
    Xp1 = mapminmax_apply(X{1,ts},x1_step1);
    
    % Layer 1
    a1 = tansig_apply(repmat(b1,1,Q) + IW1_1*Xp1);
    
    % Layer 2
    a2 = repmat(b2,1,Q) + LW2_1*a1;
    
    % Output 1
    Y{1,ts} = mapminmax_reverse(a2,y1_step1);
    Y{1,ts} = Y{1,ts}';
end

% Final Delay States
Xf = cell(1,0);
Af = cell(2,0);

% Format Output Arguments
if ~isCellX
    Y = cell2mat(Y);
end
end

% ===== MODULE FUNCTIONS ========

% Map Minimum and Maximum Input Processing Function
function y = mapminmax_apply(x,settings)
y = bsxfun(@minus,x,settings.xoffset);
y = bsxfun(@times,y,settings.gain);
y = bsxfun(@plus,y,settings.ymin);
end

% Sigmoid Symmetric Transfer Function
function a = tansig_apply(n,~)
a = 2 ./ (1 + exp(-2*n)) - 1;
end

% Map Minimum and Maximum Output Reverse-Processing Function
function x = mapminmax_reverse(y,settings)
x = bsxfun(@minus,y,settings.ymin);
x = bsxfun(@rdivide,x,settings.gain);
x = bsxfun(@plus,x,settings.xoffset);
end
